{"learner":{"attributes":{"best_iteration":"404","best_score":"0.5763837219787514"},"feature_names":["revenue_t1_scaled","cagr_2y_scaled","growth_recent_scaled","growth_acceleration_scaled","growth_volatility_scaled","operating_margin_scaled","capex_intensity_scaled","capex_trend_scaled","capex_vs_industry_scaled","debt_ratio_scaled","rnd_intensity_scaled","profitable_years","patent_count_5y","patent_count_recent","ipc_diversity","patent_register_rate","patent_citation_total","patent_citation_avg","patent_citation_age_adj_total","patent_citation_age_adj_avg","no_patent_flag","patent_recent_ratio","citation_recent_ratio","patent_growth_rate","patent_growth_accel","new_ipc_ratio","recent_ipc_overlap","citation_per_patent_recent"],"feature_types":["float","float","float","float","float","float","float","float","float","float","float","int","float","float","float","float","float","float","float","float","int","float","float","float","float","float","float","float"],"gradient_booster":{"model":{"cats":{"enc":[],"feature_segments":[],"sorted_idx":[]},"gbtree_model_param":{"num_parallel_tree":"1","num_trees":"455"},"iteration_indptr":[0,1,2,3,4,5,6,7,8,9,10,11,12,13,14,15,16,17,18,19,20,21,22,23,24,25,26,27,28,29,30,31,32,33,34,35,36,37,38,39,40,41,42,43,44,45,46,47,48,49,50,51,52,53,54,55,56,57,58,59,60,61,62,63,64,65,66,67,68,69,70,71,72,73,74,75,76,77,78,79,80,81,82,83,84,85,86,87,88,89,90,91,92,93,94,95,96,97,98,99,100,101,102,103,104,105,106,107,108,109,110,111,112,113,114,115,116,117,118,119,120,121,122,123,124,125,126,127,128,129,130,131,132,133,134,135,136,137,138,139,140,141,142,143,144,145,146,147,148,149,150,151,152,153,154,155,156,157,158,159,160,161,162,163,164,165,166,167,168,169,170,171,172,173,174,175,176,177,178,179,180,181,182,183,184,185,186,187,188,189,190,191,192,193,194,195,196,197,198,199,200,201,202,203,204,205,206,207,208,209,210,211,212,213,214,215,216,217,218,219,220,221,222,223,224,225,226,227,228,229,230,231,232,233,234,235,236,237,238,239,240,241,242,243,244,245,246,247,248,249,250,251,252,253,254,255,256,257,258,259,260,261,262,263,264,265,266,267,268,269,270,271,272,273,274,275,276,277,278,279,280,281,282,283,284,285,286,287,288,289,290,291,292,293,294,295,296,297,298,299,300,301,302,303,304,305,306,307,308,309,310,311,312,313,314,315,316,317,318,319,320,321,322,323,324,325,326,327,328,329,330,331,332,333,334,335,336,337,338,339,340,341,342,343,344,345,346,347,348,349,350,351,352,353,354,355,356,357,358,359,360,361,362,363,364,365,366,367,368,369,370,371,372,373,374,375,376,377,378,379,380,381,382,383,384,385,386,387,388,389,390,391,392,393,394,395,396,397,398,399,400,401,402,403,404,405,406,407,408,409,410,411,412,413,414,415,416,417,418,419,420,421,422,423,424,425,426,427,428,429,430,431,432,433,434,435,436,437,438,439,440,441,442,443,444,445,446,447,448,449,450,451,452,453,454,455],"tree_info":[0,0,0,0,0,0,0,0,0,0,0,0,0,0,0,0,0,0,0,0,0,0,0,0,0,0,0,0,0,0,0,0,0,0,0,0,0,0,0,0,0,0,0,0,0,0,0,0,0,0,0,0,0,0,0,0,0,0,0,0,0,0,0,0,0,0,0,0,0,0,0,0,0,0,0,0,0,0,0,0,0,0,0,0,0,0,0,0,0,0,0,0,0,0,0,0,0,0,0,0,0,0,0,0,0,0,0,0,0,0,0,0,0,0,0,0,0,0,0,0,0,0,0,0,0,0,0,0,0,0,0,0,0,0,0,0,0,0,0,0,0,0,0,0,0,0,0,0,0,0,0,0,0,0,0,0,0,0,0,0,0,0,0,0,0,0,0,0,0,0,0,0,0,0,0,0,0,0,0,0,0,0,0,0,0,0,0,0,0,0,0,0,0,0,0,0,0,0,0,0,0,0,0,0,0,0,0,0,0,0,0,0,0,0,0,0,0,0,0,0,0,0,0,0,0,0,0,0,0,0,0,0,0,0,0,0,0,0,0,0,0,0,0,0,0,0,0,0,0,0,0,0,0,0,0,0,0,0,0,0,0,0,0,0,0,0,0,0,0,0,0,0,0,0,0,0,0,0,0,0,0,0,0,0,0,0,0,0,0,0,0,0,0,0,0,0,0,0,0,0,0,0,0,0,0,0,0,0,0,0,0,0,0,0,0,0,0,0,0,0,0,0,0,0,0,0,0,0,0,0,0,0,0,0,0,0,0,0,0,0,0,0,0,0,0,0,0,0,0,0,0,0,0,0,0,0,0,0,0,0,0,0,0,0,0,0,0,0,0,0,0,0,0,0,0,0,0,0,0,0,0,0,0,0,0,0,0,0,0,0,0,0,0,0,0,0,0,0,0,0,0,0,0,0,0,0,0,0,0,0,0,0,0,0,0,0,0,0,0,0,0,0,0,0,0,0,0,0,0,0,0,0,0,0,0,0,0,0,0,0,0,0,0,0,0,0,0,0,0,0,0,0,0,0,0],"trees":[{"base_weights":[-0E0,7.113503E-1,-2.2863387E-1,1.311874E-2,3.5558552E-1,-4.331427E-1,2.5701174E-1,5.8318316E-3,-1.8250654E-5,-0E0,-5.812994E-3,-9.595782E-4,5.1110857E-3],"categories":[],"categories_nodes":[],"categories_segments":[],"categories_sizes":[],"default_left":[0,0,0,0,0,0,0,0,0,0,0,0,0],"id":0,"left_children":[1,3,5,-1,7,9,11,-1,-1,-1,-1,-1,-1],"loss_changes":[5.064017E1,1.1785343E1,2.4549011E1,0E0,5.396519E0,1.2014694E1,7.196304E0,0E0,0E0,0E0,0E0,0E0,0E0],"parents":[2147483647,0,0,1,1,2,2,4,4,5,5,6,6],"right_children":[2,4,6,-1,8,10,12,-1,-1,-1,-1,-1,-1],"split_conditions":[-4.456901E-1,1.0720492E-1,2.9435396E-1,1.311874E-2,-6.231276E-1,1.3001163E-1,-3.9644912E-1,5.8318316E-3,-1.8250654E-5,-0E0,-5.812994E-3,-9.595782E-4,5.1110857E-3],"split_indices":[1,5,1,0,1,5,21,0,0,0,0,0,0],"split_type":[0,0,0,0,0,0,0,0,0,0,0,0,0],"sum_hessian":[3.12525E2,7.313968E1,2.3938533E2,2.3118864E1,5.0020813E1,1.7149994E2,6.788539E1,3.3207096E1,1.6813719E1,4.1613956E1,1.2988599E2,2.5640923E1,4.224447E1],"tree_param":{"num_deleted":"0","num_feature":"28","num_nodes":"13","size_leaf_vector":"1"}},{"base_weights":[-8.788852E-3,-5.535714E-1,3.4055397E-1,2.538921E-3,-6.8690896E-1,9.102281E-1,1.4722496E-1,-0E0,-7.491955E-3,4.7509526E-3,1.4368173E-2,-0E0,5.7497877E-3],"categories":[],"categories_nodes":[],"categories_segments":[],"categories_sizes":[],"default_left":[0,0,0,0,0,0,0,0,0,0,0,0,0],"id":1,"left_children":[1,3,5,-1,7,9,11,-1,-1,-1,-1,-1,-1],"loss_changes":[6.0535812E1,1.47404785E1,1.856842E1,0E0,3.994484E0,5.1665573E0,9.15531E0,0E0,0E0,0E0,0E0,0E0,0E0],"parents":[2147483647,0,0,1,1,2,2,4,4,5,5,6,6],"right_children":[2,4,6,-1,8,10,12,-1,-1,-1,-1,-1,-1],"split_conditions":[-2.5542367E-1,-3.786331E-1,1.0720492E-1,2.538921E-3,-3.487557E-1,-2.2845667E-2,7.953328E-1,-0E0,-7.491955E-3,4.7509526E-3,1.4368173E-2,-0E0,5.7497877E-3],"split_indices":[4,1,5,0,7,27,22,0,0,0,0,0,0],"split_type":[0,0,0,0,0,0,0,0,0,0,0,0,0],"sum_hessian":[3.1186102E2,1.236269E2,1.8823412E2,1.5139224E1,1.0848768E2,4.3194206E1,1.4503992E2,1.0491194E1,9.799648E1,2.7813622E1,1.5380585E1,1.0970656E2,3.533336E1],"tree_param":{"num_deleted":"0","num_feature":"28","num_nodes":"13","size_leaf_vector":"1"}},{"base_weights":[-2.4283625E-2,-5.6382596E-1,3.4149277E-1,1.227023E-3,-6.868663E-1,9.088697E-1,1.5023917E-1,-9.454223E-4,-7.6311734E-3,1.246001E-3,1.1621241E-2,3.091986E-5,7.5254124E-3],"categories":[],"categories_nodes":[],"categories_segments":[],"categories_sizes":[],"default_left":[0,0,0,0,0,0,0,0,0,0,0,0,0],"id":2,"left_children":[1,3,5,-1,7,9,11,-1,-1,-1,-1,-1,-1],"loss_changes":[6.1637047E1,1.2062832E1,1.7430109E1,0E0,3.147194E0,5.68116E0,1.1037775E1,0E0,0E0,0E0,0E0,0E0,0E0],"parents":[2147483647,0,0,1,1,2,2,4,4,5,5,6,6],"right_children":[2,4,6,-1,8,10,12,-1,-1,-1,-1,-1,-1],"split_conditions":[-2.5542367E-1,-3.8147295E-1,1.0720492E-1,1.227023E-3,-3.247971E-1,-3.5817885E-1,-5.9123173E-2,-9.454223E-4,-7.6311734E-3,1.246001E-3,1.1621241E-2,3.091986E-5,7.5254124E-3],"split_indices":[4,2,5,0,9,13,9,0,0,0,0,0,0],"split_type":[0,0,0,0,0,0,0,0,0,0,0,0,0],"sum_hessian":[3.0611615E2,1.25451904E2,1.8066425E2,1.6596882E1,1.0885503E2,4.101793E1,1.3964632E2,1.5917288E1,9.293774E1,1.2668315E1,2.8349615E1,1.165123E2,2.3134022E1],"tree_param":{"num_deleted":"0","num_feature":"28","num_nodes":"13","size_leaf_vector":"1"}},{"base_weights":[-3.5238807E-4,-5.656112E-1,3.4855008E-1,3.616451E-3,-6.939475E-1,9.9225165E-3,1.4953017E-1,-0E0,-7.7887163E-3,4.2401026E-3,-0E0],"categories":[],"categories_nodes":[],"categories_segments":[],"categories_sizes":[],"default_left":[0,0,0,0,0,0,0,0,0,0,0],"id":3,"left_children":[1,3,5,-1,7,-1,9,-1,-1,-1,-1],"loss_changes":[6.307116E1,1.5851646E1,2.229812E1,0E0,6.7703285E0,0E0,5.8679905E0,0E0,0E0,0E0,0E0],"parents":[2147483647,0,0,1,1,2,2,4,4,6,6],"right_children":[2,4,6,-1,8,-1,10,-1,-1,-1,-1],"split_conditions":[-2.6320207E-1,-3.9593711E-1,1.0720492E-1,3.616451E-3,-3.487557E-1,9.9225165E-3,-3.3564562E-1,-0E0,-7.7887163E-3,4.2401026E-3,-0E0],"split_indices":[4,1,5,0,7,0,3,0,0,0,0],"split_type":[0,0,0,0,0,0,0,0,0,0,0],"sum_hessian":[3.1360028E2,1.2140363E2,1.9219666E2,1.2423239E1,1.0898039E2,4.113399E1,1.5106267E2,1.17217045E1,9.725869E1,4.9674915E1,1.0138775E2],"tree_param":{"num_deleted":"0","num_feature":"28","num_nodes":"11","size_leaf_vector":"1"}},{"base_weights":[-0E0,-5.7890743E-1,4.0274432E-1,4.679568E-3,-7.058389E-1,8.871349E-1,2.3608233E-1,-0E0,-7.914761E-3,4.654801E-3,1.4566775E-2,4.9454914E-3,-5.044302E-4],"categories":[],"categories_nodes":[],"categories_segments":[],"categories_sizes":[],"default_left":[0,0,0,0,0,0,0,0,0,0,0,0,0],"id":4,"left_children":[1,3,5,-1,7,9,11,-1,-1,-1,-1,-1,-1],"loss_changes":[7.354648E1,1.8467987E1,1.2183653E1,0E0,7.500988E0,5.1952095E0,1.150214E1,0E0,0E0,0E0,0E0,0E0,0E0],"parents":[2147483647,0,0,1,1,2,2,4,4,5,5,6,6],"right_children":[2,4,6,-1,8,10,12,-1,-1,-1,-1,-1,-1],"split_conditions":[-2.5450602E-1,-4.336342E-1,1.09486535E-1,4.679568E-3,-3.4538376E-1,-2.2845667E-2,1.6297969E-3,-0E0,-7.914761E-3,4.654801E-3,1.4566775E-2,4.9454914E-3,-5.044302E-4],"split_indices":[4,1,5,0,7,27,15,0,0,0,0,0,0],"split_type":[0,0,0,0,0,0,0,0,0,0,0,0,0],"sum_hessian":[3.103654E2,1.2843059E2,1.8193478E2,1.160324E1,1.16827354E2,4.1288013E1,1.4064677E2,1.2348865E1,1.0447849E2,2.7830305E1,1.3457707E1,7.685031E1,6.379646E1],"tree_param":{"num_deleted":"0","num_feature":"28","num_nodes":"13","size_leaf_vector":"1"}},{"base_weights":[2.386254E-2,8.191786E-1,-1.1309321E-1,1.0379419E-2,1.359422E-3,4.5340154E-1,-2.60851E-1,6.291049E-3,-0E0,3.2696833E-3,-3.777436E-3],"categories":[],"categories_nodes":[],"categories_segments":[],"categories_sizes":[],"default_left":[0,0,0,0,0,0,0,0,0,0,0],"id":5,"left_children":[1,3,5,-1,-1,7,9,-1,-1,-1,-1],"loss_changes":[3.6222168E1,4.706852E0,2.2518116E1,0E0,0E0,3.074091E0,1.5385838E1,0E0,0E0,0E0,0E0],"parents":[2147483647,0,0,1,1,2,2,5,5,6,6],"right_children":[2,4,6,-1,-1,8,10,-1,-1,-1,-1],"split_conditions":[-6.751624E-1,-1.0075201E-2,-3.459729E-1,1.0379419E-2,1.359422E-3,1.5481637E-1,9.700714E-2,6.291049E-3,-0E0,3.2696833E-3,-3.777436E-3],"split_indices":[1,25,3,0,0,8,5,0,0,0,0],"split_type":[0,0,0,0,0,0,0,0,0,0,0],"sum_hessian":[3.1588214E2,4.7086517E1,2.6879562E2,3.2662773E1,1.4423745E1,5.1949913E1,2.168457E2,3.3790047E1,1.8159864E1,3.253458E1,1.8431113E2],"tree_param":{"num_deleted":"0","num_feature":"28","num_nodes":"11","size_leaf_vector":"1"}},{"base_weights":[1.0307076E-2,7.022732E-1,-2.1202338E-1,1.1047259E-2,4.470733E-1,4.0554228E-1,-3.7267637E-1,-0E0,6.715531E-3,-0E0,9.246919E-3,1.6626599E-3,-5.356817E-3],"categories":[],"categories_nodes":[],"categories_segments":[],"categories_sizes":[],"default_left":[0,0,0,0,0,0,0,0,0,0,0,0,0],"id":6,"left_children":[1,3,5,-1,7,9,11,-1,-1,-1,-1,-1,-1],"loss_changes":[4.9467773E1,4.003956E0,2.3691967E1,0E0,5.527274E0,1.1358913E1,1.771581E1,0E0,0E0,0E0,0E0,0E0,0E0],"parents":[2147483647,0,0,1,1,2,2,4,4,5,5,6,6],"right_children":[2,4,6,-1,8,10,12,-1,-1,-1,-1,-1,-1],"split_conditions":[-4.4062093E-1,1.1618535E-1,1.1992738E-1,1.1047259E-2,-3.3412412E-1,-2.0254298E-1,-2.718901E-1,-0E0,6.715531E-3,-0E0,9.246919E-3,1.6626599E-3,-5.356817E-3],"split_indices":[1,5,5,0,6,12,3,0,0,0,0,0,0],"split_type":[0,0,0,0,0,0,0,0,0,0,0,0,0],"sum_hessian":[3.1123364E2,7.682062E1,2.3441302E2,2.4185354E1,5.2635265E1,4.5192154E1,1.8922087E2,1.8165043E1,3.4470222E1,2.4830616E1,2.036154E1,4.1082108E1,1.4813876E2],"tree_param":{"num_deleted":"0","num_feature":"28","num_nodes":"13","size_leaf_vector":"1"}},{"base_weights":[-5.764243E-4,-5.6654847E-1,3.6101496E-1,4.9469265E-4,-6.5088844E-1,2.552502E-1,1.4522615E-2,-7.287909E-3,-0E0,6.82164E-5,6.538247E-3],"categories":[],"categories_nodes":[],"categories_segments":[],"categories_sizes":[],"default_left":[0,0,0,0,0,0,0,0,0,0,0],"id":7,"left_children":[1,3,5,-1,7,9,-1,-1,-1,-1,-1],"loss_changes":[6.526455E1,7.7975388E0,1.7911947E1,0E0,4.372139E0,1.633553E1,0E0,0E0,0E0,0E0,0E0],"parents":[2147483647,0,0,1,1,2,2,4,4,5,5],"right_children":[2,4,6,-1,8,10,-1,-1,-1,-1,-1],"split_conditions":[-2.5542367E-1,-3.6746138E-1,1.4893341E0,4.9469265E-4,4.2423838E-1,4.792531E-1,1.4522615E-2,-7.287909E-3,-0E0,6.82164E-5,6.538247E-3],"split_indices":[4,7,10,0,18,21,0,0,0,0,0],"split_type":[0,0,0,0,0,0,0,0,0,0,0],"sum_hessian":[3.128997E2,1.2369173E2,1.8920798E2,1.2139364E1,1.1155236E2,1.7641066E2,1.2797324E1,9.680565E1,1.4746709E1,1.1301892E2,6.339174E1],"tree_param":{"num_deleted":"0","num_feature":"28","num_nodes":"11","size_leaf_vector":"1"}},{"base_weights":[4.0906966E-3,-5.5193734E-1,3.832067E-1,2.405719E-3,-6.5407026E-1,8.9090234E-1,1.819108E-1,-8.630126E-3,-2.572868E-3,4.1676234E-3,1.1853957E-2,5.3142733E-3,-0E0],"categories":[],"categories_nodes":[],"categories_segments":[],"categories_sizes":[],"default_left":[0,0,0,0,0,0,0,0,0,0,0,0,0],"id":8,"left_children":[1,3,5,-1,7,9,11,-1,-1,-1,-1,-1,-1],"loss_changes":[6.64034E1,1.1358376E1,1.6986378E1,0E0,6.815136E0,2.8894348E0,9.343279E0,0E0,0E0,0E0,0E0,0E0,0E0],"parents":[2147483647,0,0,1,1,2,2,4,4,5,5,6,6],"right_children":[2,4,6,-1,8,10,12,-1,-1,-1,-1,-1,-1],"split_conditions":[-2.5542367E-1,-4.336342E-1,1.1992738E-1,2.405719E-3,-3.0444184E-1,-1.3497108E-1,-3.211819E-1,-8.630126E-3,-2.572868E-3,4.1676234E-3,1.1853957E-2,5.3142733E-3,-0E0],"split_indices":[4,1,5,0,4,17,3,0,0,0,0,0,0],"split_type":[0,0,0,0,0,0,0,0,0,0,0,0,0],"sum_hessian":[3.1260205E2,1.2422343E2,1.8837863E2,1.1636404E1,1.1258702E2,4.871798E1,1.3966066E2,6.890942E1,4.367761E1,2.311848E1,2.5599497E1,4.7682373E1,9.197828E1],"tree_param":{"num_deleted":"0","num_feature":"28","num_nodes":"13","size_leaf_vector":"1"}},{"base_weights":[-6.246867E-2,-5.7749957E-1,2.677067E-1,-0E0,-6.788579E-1,1.6763577E-1,1.4218378E-2,-8.406662E-3,-3.073042E-3,-1.2802468E-3,3.6569652E-3],"categories":[],"categories_nodes":[],"categories_segments":[],"categories_sizes":[],"default_left":[0,0,0,0,0,0,0,0,0,0,0],"id":9,"left_children":[1,3,5,-1,7,9,-1,-1,-1,-1,-1],"loss_changes":[5.3803146E1,8.219704E0,1.811158E1,0E0,3.6748695E0,1.0951056E1,0E0,0E0,0E0,0E0,0E0],"parents":[2147483647,0,0,1,1,2,2,4,4,5,5],"right_children":[2,4,6,-1,8,10,-1,-1,-1,-1,-1],"split_conditions":[-2.5542367E-1,-3.8147295E-1,1.6770152E0,-0E0,-3.0135405E-1,-2.3888066E-1,1.4218378E-2,-8.406662E-3,-3.073042E-3,-1.2802468E-3,3.6569652E-3],"split_indices":[4,2,10,0,4,0,0,0,0,0,0],"split_type":[0,0,0,0,0,0,0,0,0,0,0],"sum_hessian":[3.089333E2,1.22464195E2,1.8646909E2,1.6556108E1,1.0590809E2,1.7529338E2,1.1175708E1,6.826942E1,3.7638668E1,6.655337E1,1.0874001E2],"tree_param":{"num_deleted":"0","num_feature":"28","num_nodes":"11","size_leaf_vector":"1"}},{"base_weights":[-1.042864E-3,-5.413963E-1,3.452778E-1,2.3178991E-3,-6.731368E-1,1.2269665E-2,2.0489699E-1,-0E0,-7.6186233E-3,6.2861186E-3,5.1045755E-4],"categories":[],"categories_nodes":[],"categories_segments":[],"categories_sizes":[],"default_left":[0,0,0,0,0,0,0,0,0,0,0],"id":10,"left_children":[1,3,5,-1,7,-1,9,-1,-1,-1,-1],"loss_changes":[5.8815514E1,1.3845089E1,1.9903421E1,0E0,5.483219E0,0E0,9.433189E0,0E0,0E0,0E0,0E0],"parents":[2147483647,0,0,1,1,2,2,4,4,6,6],"right_children":[2,4,6,-1,8,-1,10,-1,-1,-1,-1],"split_conditions":[-2.5542367E-1,-3.786331E-1,-9.151271E-1,2.3178991E-3,-3.247971E-1,1.2269665E-2,1.1992738E-1,-0E0,-7.6186233E-3,6.2861186E-3,5.1045755E-4],"split_indices":[4,1,2,0,9,0,5,0,0,0,0],"split_type":[0,0,0,0,0,0,0,0,0,0,0],"sum_hessian":[3.081998E2,1.221935E2,1.860063E2,1.535785E1,1.0683565E2,2.1464827E1,1.6454147E2,1.4426877E1,9.240877E1,3.872351E1,1.2581796E2],"tree_param":{"num_deleted":"0","num_feature":"28","num_nodes":"11","size_leaf_vector":"1"}},{"base_weights":[3.0066702E-3,-5.2612823E-1,3.6420938E-1,3.4619677E-3,-6.316207E-1,9.0633476E-1,1.5264031E-1,4.6907313E-4,-7.3287534E-3,1.067253E-2,7.6812704E-4,4.308813E-3,-0E0],"categories":[],"categories_nodes":[],"categories_segments":[],"categories_sizes":[],"default_left":[0,0,0,0,0,0,0,0,0,0,0,0,0],"id":11,"left_children":[1,3,5,-1,7,9,11,-1,-1,-1,-1,-1,-1],"loss_changes":[5.997675E1,1.2580666E1,1.9368282E1,0E0,9.337666E0,4.2493973E0,5.80454E0,0E0,0E0,0E0,0E0,0E0,0E0],"parents":[2147483647,0,0,1,1,2,2,4,4,5,5,6,6],"right_children":[2,4,6,-1,8,10,12,-1,-1,-1,-1,-1,-1],"split_conditions":[-2.5542367E-1,-4.336342E-1,1.1992738E-1,3.4619677E-3,-3.487557E-1,4.9340305E-1,-3.4022754E-1,4.6907313E-4,-7.3287534E-3,1.067253E-2,7.6812704E-4,4.308813E-3,-0E0],"split_indices":[4,1,5,0,7,1,3,0,0,0,0,0,0],"split_type":[0,0,0,0,0,0,0,0,0,0,0,0,0],"sum_hessian":[3.114983E2,1.2375549E2,1.8774278E2,1.0813739E1,1.1294176E2,4.820393E1,1.3953885E2,1.2240043E1,1.0070171E2,3.7872814E1,1.0331118E1,4.7026863E1,9.251199E1],"tree_param":{"num_deleted":"0","num_feature":"28","num_nodes":"13","size_leaf_vector":"1"}},{"base_weights":[-0E0,-5.162363E-1,3.2889497E-1,4.2494233E-3,-6.59275E-1,1.5858628E-1,1.0595689E0,-7.338723E-3,-0E0,-2.0994411E-3,3.9187386E-3,1.3334122E-2,3.083503E-3],"categories":[],"categories_nodes":[],"categories_segments":[],"categories_sizes":[],"default_left":[0,0,0,0,0,0,0,0,0,0,0,0,0],"id":12,"left_children":[1,3,5,-1,7,9,11,-1,-1,-1,-1,-1,-1],"loss_changes":[5.3416454E1,1.7506699E1,2.1153008E1,0E0,5.7929497E0,1.4326576E1,2.8414001E0,0E0,0E0,0E0,0E0,0E0,0E0],"parents":[2147483647,0,0,1,1,2,2,4,4,5,5,6,6],"right_children":[2,4,6,-1,8,10,12,-1,-1,-1,-1,-1,-1],"split_conditions":[-2.5542367E-1,-3.9593711E-1,3.294249E-1,4.2494233E-3,2.3043722E-1,-5.0274485E-1,1.5664259E-1,-7.338723E-3,-0E0,-2.0994411E-3,3.9187386E-3,1.3334122E-2,3.083503E-3],"split_indices":[4,1,10,0,1,21,8,0,0,0,0,0,0],"split_type":[0,0,0,0,0,0,0,0,0,0,0,0,0],"sum_hessian":[3.106615E2,1.2039728E2,1.9026422E2,1.3519119E1,1.0687816E2,1.5849321E2,3.1771013E1,9.662464E1,1.0253521E1,5.819232E1,1.0030089E2,2.019643E1,1.1574583E1],"tree_param":{"num_deleted":"0","num_feature":"28","num_nodes":"13","size_leaf_vector":"1"}},{"base_weights":[2.0099713E-2,-5.255474E-1,3.6223903E-1,4.0722177E-3,-6.401018E-1,2.654728E-1,1.3902949E-2,-7.3353746E-3,-0E0,4.894553E-4,6.481348E-3],"categories":[],"categories_nodes":[],"categories_segments":[],"categories_sizes":[],"default_left":[0,0,0,0,0,0,0,0,0,0,0],"id":13,"left_children":[1,3,5,-1,7,9,-1,-1,-1,-1,-1],"loss_changes":[5.866347E1,1.3761604E1,1.5487526E1,0E0,6.1029015E0,1.3767022E1,0E0,0E0,0E0,0E0,0E0],"parents":[2147483647,0,0,1,1,2,2,4,4,5,5],"right_children":[2,4,6,-1,8,10,-1,-1,-1,-1,-1],"split_conditions":[-2.6320207E-1,-4.119816E-1,1.6770152E0,4.0722177E-3,1.169802E0,4.792531E-1,1.3902949E-2,-7.3353746E-3,-0E0,4.894553E-4,6.481348E-3],"split_indices":[4,1,10,0,26,21,0,0,0,0,0],"split_type":[0,0,0,0,0,0,0,0,0,0,0],"sum_hessian":[3.1194385E2,1.1755242E2,1.9439145E2,1.038916E1,1.0716325E2,1.8174637E2,1.2645081E1,9.2466736E1,1.4696521E1,1.20847694E2,6.0898666E1],"tree_param":{"num_deleted":"0","num_feature":"28","num_nodes":"11","size_leaf_vector":"1"}},{"base_weights":[1.6399637E-2,-3.0826822E-1,4.5376027E-1,5.614116E-3,-4.2156163E-1,2.5763857E-1,1.1536656E-2,-5.2215424E-3,5.276184E-4,-3.8767832E-3,4.5227185E-3],"categories":[],"categories_nodes":[],"categories_segments":[],"categories_sizes":[],"default_left":[0,0,0,0,0,0,0,0,0,0,0],"id":14,"left_children":[1,3,5,-1,7,9,-1,-1,-1,-1,-1],"loss_changes":[4.495327E1,1.7727638E1,1.5333832E1,0E0,8.6578045E0,1.4485512E1,0E0,0E0,0E0,0E0,0E0],"parents":[2147483647,0,0,1,1,2,2,4,4,5,5],"right_children":[2,4,6,-1,8,10,-1,-1,-1,-1,-1],"split_conditions":[-1.8285346E-1,-5.243054E-1,3.294249E-1,5.614116E-3,2.7589104E-1,-5.2857E-1,1.1536656E-2,-5.2215424E-3,5.276184E-4,-3.8767832E-3,4.5227185E-3],"split_indices":[4,2,10,0,13,0,0,0,0,0,0],"split_type":[0,0,0,0,0,0,0,0,0,0,0],"sum_hessian":[3.1055975E2,1.7595772E2,1.3460202E2,1.7333754E1,1.5862396E2,1.0950983E2,2.50922E1,1.3418202E2,2.4441938E1,2.253487E1,8.697495E1],"tree_param":{"num_deleted":"0","num_feature":"28","num_nodes":"11","size_leaf_vector":"1"}},{"base_weights":[-0E0,-5.015803E-1,2.9803073E-1,2.2477976E-3,-6.527892E-1,7.984207E-1,1.3163275E-1,-0E0,-7.6749753E-3,1.4530229E-3,1.1437367E-2,-0E0,7.614619E-3],"categories":[],"categories_nodes":[],"categories_segments":[],"categories_sizes":[],"default_left":[0,0,0,0,0,0,0,0,0,0,0,0,0],"id":15,"left_children":[1,3,5,-1,7,9,11,-1,-1,-1,-1,-1,-1],"loss_changes":[4.717856E1,1.3969934E1,1.4626913E1,0E0,7.284874E0,7.6104507E0,1.2221927E1,0E0,0E0,0E0,0E0,0E0,0E0],"parents":[2147483647,0,0,1,1,2,2,4,4,5,5,6,6],"right_children":[2,4,6,-1,8,10,12,-1,-1,-1,-1,-1,-1],"split_conditions":[-2.6320207E-1,-3.8147295E-1,1.09486535E-1,2.2477976E-3,-3.2303575E-1,-2.0596707E-1,1.2291672E0,-0E0,-7.6749753E-3,1.4530229E-3,1.1437367E-2,-0E0,7.614619E-3],"split_indices":[4,2,5,0,9,14,21,0,0,0,0,0,0],"split_type":[0,0,0,0,0,0,0,0,0,0,0,0,0],"sum_hessian":[3.1326144E2,1.1472772E2,1.9853372E2,1.732138E1,9.740634E1,4.4649223E1,1.5388449E2,1.512648E1,8.227986E1,1.842818E1,2.6221045E1,1.3014745E2,2.373705E1],"tree_param":{"num_deleted":"0","num_feature":"28","num_nodes":"13","size_leaf_vector":"1"}},{"base_weights":[1.6660323E-2,-4.9730113E-1,3.3811986E-1,4.4607446E-3,-6.1817473E-1,2.4276948E-1,1.3118925E-2,-7.2419834E-3,-0E0,-4.3758829E-4,4.0996945E-3],"categories":[],"categories_nodes":[],"categories_segments":[],"categories_sizes":[],"default_left":[0,0,0,0,0,0,0,0,0,0,0],"id":16,"left_children":[1,3,5,-1,7,9,-1,-1,-1,-1,-1],"loss_changes":[5.119987E1,1.4307446E1,1.4282112E1,0E0,6.0887337E0,9.447986E0,0E0,0E0,0E0,0E0,0E0],"parents":[2147483647,0,0,1,1,2,2,4,4,5,5],"right_children":[2,4,6,-1,8,10,-1,-1,-1,-1,-1],"split_conditions":[-2.6320207E-1,-4.336342E-1,1.6770152E0,4.4607446E-3,2.4412394E-2,-3.0743885E-1,1.3118925E-2,-7.2419834E-3,-0E0,-4.3758829E-4,4.0996945E-3],"split_indices":[4,1,10,0,23,0,0,0,0,0,0],"split_type":[0,0,0,0,0,0,0,0,0,0,0],"sum_hessian":[3.0778464E2,1.1561671E2,1.9216792E2,1.0640935E1,1.0497577E2,1.7917578E2,1.29921465E1,8.755528E1,1.7420486E1,6.2162914E1,1.1701286E2],"tree_param":{"num_deleted":"0","num_feature":"28","num_nodes":"11","size_leaf_vector":"1"}},{"base_weights":[2.6058348E-2,-4.7950816E-1,3.6868498E-1,4.9894466E-3,-6.041027E-1,8.929698E-1,1.5801199E-1,-6.809269E-3,-0E0,4.1378373E-3,1.1822368E-2,3.4032147E-3,-4.051844E-4],"categories":[],"categories_nodes":[],"categories_segments":[],"categories_sizes":[],"default_left":[0,0,0,0,0,0,0,0,0,0,0,0,0],"id":17,"left_children":[1,3,5,-1,7,9,11,-1,-1,-1,-1,-1,-1],"loss_changes":[5.4020466E1,1.5951792E1,1.8482426E1,0E0,4.450966E0,2.8990555E0,5.6913447E0,0E0,0E0,0E0,0E0,0E0,0E0],"parents":[2147483647,0,0,1,1,2,2,4,4,5,5,6,6],"right_children":[2,4,6,-1,8,10,12,-1,-1,-1,-1,-1,-1],"split_conditions":[-2.5542367E-1,-4.336342E-1,1.1992738E-1,4.9894466E-3,4.379269E-1,-1.23939455E-1,1.6297969E-3,-6.809269E-3,-0E0,4.1378373E-3,1.1822368E-2,3.4032147E-3,-4.051844E-4],"split_indices":[4,1,5,0,18,17,15,0,0,0,0,0,0],"split_type":[0,0,0,0,0,0,0,0,0,0,0,0,0],"sum_hessian":[3.0909784E2,1.22179E2,1.8691884E2,1.1308795E1,1.108702E2,4.9001663E1,1.3791718E2,9.643783E1,1.4432375E1,2.2877995E1,2.6123669E1,7.640264E1,6.1514545E1],"tree_param":{"num_deleted":"0","num_feature":"28","num_nodes":"13","size_leaf_vector":"1"}},{"base_weights":[-0E0,-4.078662E-1,5.118981E-1,3.0148113E-1,-5.542322E-1,3.5114703E-1,1.3106787E-2,5.920422E-3,-4.126039E-4,-8.301505E-3,-2.5071576E-3,5.341433E-3,7.2960847E-4],"categories":[],"categories_nodes":[],"categories_segments":[],"categories_sizes":[],"default_left":[0,0,0,0,0,0,0,0,0,0,0,0,0],"id":18,"left_children":[1,3,5,7,9,11,-1,-1,-1,-1,-1,-1,-1],"loss_changes":[6.663456E1,1.9083593E1,1.4084034E1,4.039857E0,9.875412E0,5.0020313E0,0E0,0E0,0E0,0E0,0E0,0E0,0E0],"parents":[2147483647,0,0,1,1,2,2,3,3,4,4,5,5],"right_children":[2,4,6,8,10,12,-1,-1,-1,-1,-1,-1,-1],"split_conditions":[-1.9237998E-1,-4.226994E-1,1.0068153E0,1.5621842E-1,-3.0135405E-1,-3.1535673E-1,1.3106787E-2,5.920422E-3,-4.126039E-4,-8.301505E-3,-2.5071576E-3,5.341433E-3,7.2960847E-4],"split_indices":[4,1,10,5,4,10,0,0,0,0,0,0,0],"split_type":[0,0,0,0,0,0,0,0,0,0,0,0,0],"sum_hessian":[3.144564E2,1.7371904E2,1.4073735E2,2.7014103E1,1.4670494E2,1.2164072E2,1.9096628E1,1.6990698E1,1.0023405E1,7.1576805E1,7.5128136E1,6.792724E1,5.3713478E1],"tree_param":{"num_deleted":"0","num_feature":"28","num_nodes":"13","size_leaf_vector":"1"}},{"base_weights":[-1.7406775E-2,-3.8850006E-1,4.72028E-1,2.4574587E-1,-5.0001484E-1,3.2345676E-1,1.0213805E-2,-0E0,5.3128335E-3,-7.7714846E-3,-2.385781E-3,-7.253277E-4,5.8918903E-3],"categories":[],"categories_nodes":[],"categories_segments":[],"categories_sizes":[],"default_left":[0,0,0,0,0,0,0,0,0,0,0,0,0],"id":19,"left_children":[1,3,5,7,9,11,-1,-1,-1,-1,-1,-1,-1],"loss_changes":[5.729355E1,1.3641624E1,7.597658E0,2.5548048E0,9.067387E0,1.2838556E1,0E0,0E0,0E0,0E0,0E0,0E0,0E0],"parents":[2147483647,0,0,1,1,2,2,3,3,4,4,5,5],"right_children":[2,4,6,8,10,12,-1,-1,-1,-1,-1,-1,-1],"split_conditions":[-1.8690366E-1,-4.528621E-1,2.8648064E-1,-3.640229E-1,-3.0444184E-1,-7.256302E-2,1.0213805E-2,-0E0,5.3128335E-3,-7.7714846E-3,-2.385781E-3,-7.253277E-4,5.8918903E-3],"split_indices":[4,2,6,12,4,0,0,0,0,0,0,0,0],"split_type":[0,0,0,0,0,0,0,0,0,0,0,0,0],"sum_hessian":[3.1234845E2,1.8021034E2,1.3213809E2,2.3905325E1,1.5630502E2,1.0937587E2,2.2762232E1,1.1311599E1,1.2593726E1,7.024607E1,8.605895E1,4.148435E1,6.789152E1],"tree_param":{"num_deleted":"0","num_feature":"28","num_nodes":"13","size_leaf_vector":"1"}},{"base_weights":[-5.9322314E-3,5.6888855E-1,-1.5747193E-1,1.2841351E-1,1.0488884E0,3.2214013E-1,-2.9659286E-1,-1.5482646E-3,7.641221E-3,4.4250293E-3,1.4627086E-2,7.327976E-3,8.480808E-4,-4.313458E-3,1.8558574E-3],"categories":[],"categories_nodes":[],"categories_segments":[],"categories_sizes":[],"default_left":[0,0,0,0,0,0,0,0,0,0,0,0,0,0,0],"id":20,"left_children":[1,3,5,7,9,11,13,-1,-1,-1,-1,-1,-1,-1,-1],"loss_changes":[2.6996944E1,1.0882227E1,1.7183512E1,8.254878E0,1.9506283E0,3.616496E0,1.3794304E1,0E0,0E0,0E0,0E0,0E0,0E0,0E0,0E0],"parents":[2147483647,0,0,1,1,2,2,3,3,4,4,5,5,6,6],"right_children":[2,4,6,8,10,12,14,-1,-1,-1,-1,-1,-1,-1,-1],"split_conditions":[1.0720492E-1,1E0,-3.3564562E-1,9.8109856E-2,-2.3424989E-1,-3.4538376E-1,4.0475821E-1,-1.5482646E-3,7.641221E-3,4.4250293E-3,1.4627086E-2,7.327976E-3,8.480808E-4,-4.313458E-3,1.8558574E-3],"split_indices":[5,11,3,6,27,7,3,0,0,0,0,0,0,0,0],"split_type":[0,0,0,0,0,0,0,0,0,0,0,0,0,0,0],"sum_hessian":[3.153137E2,6.188091E1,2.534328E2,3.5763775E1,2.6117132E1,5.3159878E1,2.0027292E2,2.3610794E1,1.2152983E1,1.4232855E1,1.1884277E1,1.4854578E1,3.83053E1,1.5993506E2,4.0337864E1],"tree_param":{"num_deleted":"0","num_feature":"28","num_nodes":"15","size_leaf_vector":"1"}},{"base_weights":[-7.2276266E-3,-5.030232E-1,3.1241542E-1,-0E0,-6.297113E-1,2.1058147E-1,1.4104886E-2,-4.5168623E-3,4.406823E-3,-7.0287827E-3,-8.322033E-4,-9.2402054E-4,4.0529957E-3],"categories":[],"categories_nodes":[],"categories_segments":[],"categories_sizes":[],"default_left":[0,0,0,0,0,0,0,0,0,0,0,0,0],"id":21,"left_children":[1,3,5,7,9,11,-1,-1,-1,-1,-1,-1,-1],"loss_changes":[5.0366837E1,8.314352E0,1.7337004E1,5.6998568E0,2.366085E0,1.1160566E1,0E0,0E0,0E0,0E0,0E0,0E0,0E0],"parents":[2147483647,0,0,1,1,2,2,3,3,4,4,5,5],"right_children":[2,4,6,8,10,12,-1,-1,-1,-1,-1,-1,-1],"split_conditions":[-2.5450602E-1,1.2523876E-1,1.6770152E0,-3.2074565E-1,2.4412394E-2,-2.3888066E-1,1.4104886E-2,-4.5168623E-3,4.406823E-3,-7.0287827E-3,-8.322033E-4,-9.2402054E-4,4.0529957E-3],"split_indices":[4,5,10,4,23,0,0,0,0,0,0,0,0],"split_type":[0,0,0,0,0,0,0,0,0,0,0,0,0],"sum_hessian":[3.1142798E2,1.2407928E2,1.8734872E2,2.4659838E1,9.941943E1,1.7529683E2,1.2051893E1,1.1655482E1,1.30043545E1,8.3948E1,1.547144E1,6.497487E1,1.1032195E2],"tree_param":{"num_deleted":"0","num_feature":"28","num_nodes":"13","size_leaf_vector":"1"}},{"base_weights":[-0E0,5.5953085E-1,-1.6706389E-1,1.0178891E-2,2.9836738E-1,-2.4306075E-1,1.0675303E-2,-0E0,7.3003117E-3,-3.6319562E-3,2.6796737E-3],"categories":[],"categories_nodes":[],"categories_segments":[],"categories_sizes":[],"default_left":[0,0,0,0,0,0,0,0,0,0,0],"id":22,"left_children":[1,3,5,-1,7,9,-1,-1,-1,-1,-1],"loss_changes":[2.91618E1,5.3321342E0,2.1537155E1,0E0,5.855629E0,1.4550463E1,0E0,0E0,0E0,0E0,0E0],"parents":[2147483647,0,0,1,1,2,2,4,4,5,5],"right_children":[2,4,6,-1,8,10,-1,-1,-1,-1,-1],"split_conditions":[-3.459729E-1,-9.151271E-1,1.4893341E0,1.0178891E-2,3.773215E-2,3.6772582E-1,1.0675303E-2,-0E0,7.3003117E-3,-3.6319562E-3,2.6796737E-3],"split_indices":[3,2,10,0,27,2,0,0,0,0,0],"split_type":[0,0,0,0,0,0,0,0,0,0,0],"sum_hessian":[3.091979E2,6.960899E1,2.395889E2,2.038281E1,4.9226185E1,2.2873508E2,1.0853834E1,3.1682083E1,1.7544104E1,1.8883508E2,3.9899982E1],"tree_param":{"num_deleted":"0","num_feature":"28","num_nodes":"11","size_leaf_vector":"1"}},{"base_weights":[4.9568587E-3,-5.061316E-1,3.2892945E-1,9.1609865E-4,-6.0819787E-1,9.46136E-1,2.2840816E-1,-7.891696E-3,-2.5214043E-3,1.3805113E-2,1.3872212E-3,3.754611E-4,5.3041885E-3],"categories":[],"categories_nodes":[],"categories_segments":[],"categories_sizes":[],"default_left":[0,0,0,0,0,0,0,0,0,0,0,0,0],"id":23,"left_children":[1,3,5,-1,7,9,11,-1,-1,-1,-1,-1,-1],"loss_changes":[5.241089E1,8.541706E0,9.466843E0,0E0,4.393593E0,5.0750713E0,8.92259E0,0E0,0E0,0E0,0E0,0E0,0E0],"parents":[2147483647,0,0,1,1,2,2,4,4,5,5,6,6],"right_children":[2,4,6,-1,8,10,12,-1,-1,-1,-1,-1,-1],"split_conditions":[-2.5542367E-1,-3.487557E-1,-9.506486E-1,9.1609865E-4,-3.0221078E-1,1.9730592E-1,4.792531E-1,-7.891696E-3,-2.5214043E-3,1.3805113E-2,1.3872212E-3,3.754611E-4,5.3041885E-3],"split_indices":[4,7,2,0,4,4,21,0,0,0,0,0,0],"split_type":[0,0,0,0,0,0,0,0,0,0,0,0,0],"sum_hessian":[3.1466116E2,1.1924551E2,1.9541566E2,1.4563792E1,1.0468171E2,2.2225985E1,1.7318968E2,6.406817E1,4.0613544E1,1.1917781E1,1.0308203E1,1.1155871E2,6.163097E1],"tree_param":{"num_deleted":"0","num_feature":"28","num_nodes":"13","size_leaf_vector":"1"}},{"base_weights":[4.3760724E-2,-3.8663954E-1,4.2257813E-1,5.9233475E-3,-5.572036E-1,3.118222E-1,1.4013687E-2,-6.513675E-3,2.4753863E-3,-0E0,5.024911E-3],"categories":[],"categories_nodes":[],"categories_segments":[],"categories_sizes":[],"default_left":[0,0,0,0,0,0,0,0,0,0,0],"id":24,"left_children":[1,3,5,-1,7,9,-1,-1,-1,-1,-1],"loss_changes":[5.2027927E1,2.5103924E1,1.4329367E1,0E0,1.081435E1,9.8921585E0,0E0,0E0,0E0,0E0,0E0],"parents":[2147483647,0,0,1,1,2,2,4,4,5,5],"right_children":[2,4,6,-1,8,10,-1,-1,-1,-1,-1],"split_conditions":[-2.2991714E-1,-4.119816E-1,1.6770152E0,5.9233475E-3,3.10016E-1,-2.3888066E-1,1.4013687E-2,-6.513675E-3,2.4753863E-3,-0E0,5.024911E-3],"split_indices":[4,1,10,0,1,0,0,0,0,0,0],"split_type":[0,0,0,0,0,0,0,0,0,0,0],"sum_hessian":[3.146603E2,1.4481042E2,1.6984987E2,1.9012774E1,1.2579765E2,1.5678879E2,1.3061081E1,1.1518603E2,1.0611625E1,5.8464233E1,9.832456E1],"tree_param":{"num_deleted":"0","num_feature":"28","num_nodes":"11","size_leaf_vector":"1"}},{"base_weights":[-0E0,-4.6147168E-1,3.057885E-1,-0E0,-5.928589E-1,2.0990935E-1,1.274776E-2,-4.966412E-3,3.5124093E-3,-6.691618E-3,-2.634082E-4,-0E0,5.820487E-3],"categories":[],"categories_nodes":[],"categories_segments":[],"categories_sizes":[],"default_left":[0,0,0,0,0,0,0,0,0,0,0,0,0],"id":25,"left_children":[1,3,5,7,9,11,-1,-1,-1,-1,-1,-1,-1],"loss_changes":[4.5058502E1,7.573782E0,1.4676693E1,5.588985E0,2.796238E0,1.4415879E1,0E0,0E0,0E0,0E0,0E0,0E0,0E0],"parents":[2147483647,0,0,1,1,2,2,3,3,4,4,5,5],"right_children":[2,4,6,8,10,12,-1,-1,-1,-1,-1,-1,-1],"split_conditions":[-2.5450602E-1,1.2717699E-1,1.6770152E0,-3.2074565E-1,-2.4325488E-2,4.792531E-1,1.274776E-2,-4.966412E-3,3.5124093E-3,-6.691618E-3,-2.634082E-4,-0E0,5.820487E-3],"split_indices":[4,5,10,4,23,21,0,0,0,0,0,0,0],"split_type":[0,0,0,0,0,0,0,0,0,0,0,0,0],"sum_hessian":[3.173538E2,1.2365814E2,1.9369566E2,2.7976097E1,9.5682045E1,1.8034792E2,1.3347754E1,1.1335955E1,1.6640142E1,8.089394E1,1.47881E1,1.1607943E2,6.426848E1],"tree_param":{"num_deleted":"0","num_feature":"28","num_nodes":"13","size_leaf_vector":"1"}},{"base_weights":[-1.3633763E-2,6.455174E-1,-2.1479413E-1,1.9447808E-1,1.0472065E-2,4.1657513E-1,-3.3689E-1,-1.6025542E-3,9.57521E-3,6.5977215E-3,-0E0,3.2126496E-4,-4.4778446E-3],"categories":[],"categories_nodes":[],"categories_segments":[],"categories_sizes":[],"default_left":[0,0,0,0,0,0,0,0,0,0,0,0,0],"id":26,"left_children":[1,3,5,7,-1,9,11,-1,-1,-1,-1,-1,-1],"loss_changes":[4.037853E1,9.865946E0,1.8662487E1,1.2178733E1,0E0,2.7313838E0,9.261583E0,0E0,0E0,0E0,0E0,0E0,0E0],"parents":[2147483647,0,0,1,1,2,2,3,3,5,5,6,6],"right_children":[2,4,6,8,-1,10,12,-1,-1,-1,-1,-1,-1],"split_conditions":[1.1992738E-1,1E0,-6.047152E-1,-5.2401878E-2,1.0472065E-2,3.2943543E-2,-2.7912283E-1,-1.6025542E-3,9.57521E-3,6.5977215E-3,-0E0,3.2126496E-4,-4.4778446E-3],"split_indices":[5,11,1,6,0,3,3,0,0,0,0,0,0],"split_type":[0,0,0,0,0,0,0,0,0,0,0,0,0],"sum_hessian":[3.0693048E2,6.840955E1,2.3852092E2,3.5968903E1,3.2440655E1,3.5215252E1,2.0330566E2,2.3843224E1,1.2125681E1,1.9110825E1,1.610443E1,4.3139263E1,1.601664E2],"tree_param":{"num_deleted":"0","num_feature":"28","num_nodes":"13","size_leaf_vector":"1"}},{"base_weights":[9.831478E-3,-4.7824824E-1,2.9497874E-1,4.3779593E-3,-5.9800977E-1,7.21322E-1,1.2155369E-1,-0E0,-7.0666713E-3,3.2950176E-3,1.2699384E-2,5.3429077E-3,-1.4286928E-5],"categories":[],"categories_nodes":[],"categories_segments":[],"categories_sizes":[],"default_left":[0,0,0,0,0,0,0,0,0,0,0,0,0],"id":27,"left_children":[1,3,5,-1,7,9,11,-1,-1,-1,-1,-1,-1],"loss_changes":[4.4504173E1,1.36056E1,1.3374266E1,0E0,7.9111404E0,7.9678288E0,8.79349E0,0E0,0E0,0E0,0E0,0E0,0E0],"parents":[2147483647,0,0,1,1,2,2,4,4,5,5,6,6],"right_children":[2,4,6,-1,8,10,12,-1,-1,-1,-1,-1,-1],"split_conditions":[-2.6320207E-1,-4.336342E-1,1.2276854E-1,4.3779593E-3,-3.247971E-1,-8.931436E-3,-3.1168246E-1,-0E0,-7.0666713E-3,3.2950176E-3,1.2699384E-2,5.3429077E-3,-1.4286928E-5],"split_indices":[4,1,5,0,9,27,7,0,0,0,0,0,0],"split_type":[0,0,0,0,0,0,0,0,0,0,0,0,0],"sum_hessian":[3.1837866E2,1.1432425E2,2.040544E2,1.0673407E1,1.0365085E2,5.384137E1,1.5021303E2,1.4150029E1,8.950082E1,3.5403233E1,1.8438137E1,3.6681396E1,1.1353163E2],"tree_param":{"num_deleted":"0","num_feature":"28","num_nodes":"13","size_leaf_vector":"1"}},{"base_weights":[9.2574634E-4,6.900932E-1,-1.5144883E-1,2.2128314E-1,1.0895636E-2,3.5345027E-1,-3.1481144E-1,6.688159E-3,-1.0713135E-4,5.741712E-3,-0E0,1.3021927E-3,-4.3094824E-3],"categories":[],"categories_nodes":[],"categories_segments":[],"categories_sizes":[],"default_left":[0,0,0,0,0,0,0,0,0,0,0,0,0],"id":28,"left_children":[1,3,5,7,-1,9,11,-1,-1,-1,-1,-1,-1],"loss_changes":[3.389528E1,7.9383335E0,2.1059702E1,4.646734E0,0E0,5.255804E0,1.0824684E1,0E0,0E0,0E0,0E0,0E0,0E0],"parents":[2147483647,0,0,1,1,2,2,3,3,5,5,6,6],"right_children":[2,4,6,8,-1,10,12,-1,-1,-1,-1,-1,-1],"split_conditions":[9.700714E-2,-1.23939455E-1,-3.3564562E-1,-3.7480286E-1,1.0895636E-2,1.4220078E-1,-4.336342E-1,6.688159E-3,-1.0713135E-4,5.741712E-3,-0E0,1.3021927E-3,-4.3094824E-3],"split_indices":[5,17,3,2,0,8,1,0,0,0,0,0,0],"split_type":[0,0,0,0,0,0,0,0,0,0,0,0,0],"sum_hessian":[3.0852722E2,5.6962414E1,2.515648E2,2.9939983E1,2.702243E1,5.7935555E1,1.9362926E2,1.1879294E1,1.806069E1,3.665464E1,2.1280912E1,3.645848E1,1.5717078E2],"tree_param":{"num_deleted":"0","num_feature":"28","num_nodes":"13","size_leaf_vector":"1"}},{"base_weights":[-0E0,5.542071E-1,-1.5109402E-1,-0E0,1.1000385E0,2.8314063E-1,-3.0224255E-1,-2.2317956E-3,6.040727E-3,3.446364E-3,1.6467834E-2,4.803678E-3,-0E0,-4.437297E-3,6.603107E-4],"categories":[],"categories_nodes":[],"categories_segments":[],"categories_sizes":[],"default_left":[0,0,0,0,0,0,0,0,0,0,0,0,0,0,0],"id":29,"left_children":[1,3,5,7,9,11,13,-1,-1,-1,-1,-1,-1,-1,-1],"loss_changes":[2.661481E1,1.9183416E1,1.6415794E1,5.78424E0,8.589424E0,3.9704022E0,1.0586439E1,0E0,0E0,0E0,0E0,0E0,0E0,0E0,0E0],"parents":[2147483647,0,0,1,1,2,2,3,3,4,4,5,5,6,6],"right_children":[2,4,6,8,10,12,14,-1,-1,-1,-1,-1,-1,-1,-1],"split_conditions":[1.1453186E-1,1E0,-2.7912283E-1,1.0068153E0,-2.207809E-1,1.4220078E-1,1.8091094E-1,-2.2317956E-3,6.040727E-3,3.446364E-3,1.6467834E-2,4.803678E-3,-0E0,-4.437297E-3,6.603107E-4],"split_indices":[5,11,3,10,9,8,2,0,0,0,0,0,0,0,0],"split_type":[0,0,0,0,0,0,0,0,0,0,0,0,0,0,0],"sum_hessian":[3.1122064E2,6.629903E1,2.4492162E2,3.5110313E1,3.1188715E1,5.9372326E1,1.8554929E2,2.4935593E1,1.0174721E1,1.6000523E1,1.518819E1,3.652833E1,2.2843992E1,1.3767633E2,4.7872955E1],"tree_param":{"num_deleted":"0","num_feature":"28","num_nodes":"15","size_leaf_vector":"1"}},{"base_weights":[-0E0,-4.2212144E-1,3.596751E-1,3.0625015E-3,-5.4078877E-1,2.4234502E-1,1.4091145E-2,-9.829408E-3,-3.5247505E-3,6.506709E-3,5.983579E-4],"categories":[],"categories_nodes":[],"categories_segments":[],"categories_sizes":[],"default_left":[0,0,0,0,0,0,0,0,0,0,0],"id":30,"left_children":[1,3,5,-1,7,9,-1,-1,-1,-1,-1],"loss_changes":[4.8173203E1,1.3326618E1,1.7286638E1,0E0,7.269333E0,1.0389081E1,0E0,0E0,0E0,0E0,0E0],"parents":[2147483647,0,0,1,1,2,2,4,4,5,5],"right_children":[2,4,6,-1,8,10,-1,-1,-1,-1,-1],"split_conditions":[-2.2991714E-1,-4.226994E-1,1.6770152E0,3.0625015E-3,-3.3246884E-1,-3.1168246E-1,1.4091145E-2,-9.829408E-3,-3.5247505E-3,6.506709E-3,5.983579E-4],"split_indices":[4,1,10,0,4,7,0,0,0,0,0],"split_type":[0,0,0,0,0,0,0,0,0,0,0],"sum_hessian":[3.1368723E2,1.4292351E2,1.7076373E2,1.7219025E1,1.25704475E2,1.575202E2,1.3243537E1,3.1853636E1,9.3850845E1,4.368828E1,1.13831924E2],"tree_param":{"num_deleted":"0","num_feature":"28","num_nodes":"11","size_leaf_vector":"1"}},{"base_weights":[-0E0,-5.05614E-1,2.83969E-1,9.381062E-4,-6.06672E-1,1.807249E-1,9.3E-3,-6.829967E-3,-0E0,3.4756592E-4,6.8216394E-3],"categories":[],"categories_nodes":[],"categories_segments":[],"categories_sizes":[],"default_left":[0,0,0,0,0,0,0,0,0,0,0],"id":31,"left_children":[1,3,5,-1,7,9,-1,-1,-1,-1,-1],"loss_changes":[4.6113556E1,8.178419E0,1.1014147E1,0E0,5.274498E0,1.1737018E1,0E0,0E0,0E0,0E0,0E0],"parents":[2147483647,0,0,1,1,2,2,4,4,5,5],"right_children":[2,4,6,-1,8,10,-1,-1,-1,-1,-1],"split_conditions":[-2.6320207E-1,-3.786331E-1,1.0068153E0,9.381062E-4,1.9616652E-1,1.0256761E0,9.3E-3,-6.829967E-3,-0E0,3.4756592E-4,6.8216394E-3],"split_indices":[4,1,10,0,1,21,0,0,0,0,0],"split_type":[0,0,0,0,0,0,0,0,0,0,0],"sum_hessian":[3.1567557E2,1.1419776E2,2.014778E2,1.3640729E1,1.0055703E2,1.7859184E2,2.2885965E1,9.022322E1,1.0333805E1,1.4307115E2,3.552069E1],"tree_param":{"num_deleted":"0","num_feature":"28","num_nodes":"11","size_leaf_vector":"1"}},{"base_weights":[-3.759224E-2,-5.45898E-1,2.4147844E-1,4.3111974E-3,-6.8753034E-1,1.1135379E-1,1.1091515E-2,-7.6360935E-3,-0E0,-2.3109855E-3,2.999257E-3],"categories":[],"categories_nodes":[],"categories_segments":[],"categories_sizes":[],"default_left":[0,0,0,0,0,0,0,0,0,0,0],"id":32,"left_children":[1,3,5,-1,7,9,-1,-1,-1,-1,-1],"loss_changes":[4.511343E1,1.6838146E1,1.9914051E1,0E0,4.3201904E0,1.1790764E1,0E0,0E0,0E0,0E0,0E0],"parents":[2147483647,0,0,1,1,2,2,4,4,5,5],"right_children":[2,4,6,-1,8,10,-1,-1,-1,-1,-1],"split_conditions":[-2.6320207E-1,-3.9593711E-1,1.0068153E0,4.3111974E-3,4.653039E-1,-3.0743885E-1,1.1091515E-2,-7.6360935E-3,-0E0,-2.3109855E-3,2.999257E-3],"split_indices":[4,1,10,0,18,0,0,0,0,0,0],"split_type":[0,0,0,0,0,0,0,0,0,0,0],"sum_hessian":[3.098783E2,1.11692825E2,1.9818549E2,1.1836E1,9.985682E1,1.7630653E2,2.1878946E1,8.798075E1,1.1876073E1,5.8681705E1,1.1762483E2],"tree_param":{"num_deleted":"0","num_feature":"28","num_nodes":"11","size_leaf_vector":"1"}},{"base_weights":[3.6175859E-3,5.771454E-1,-1.3331765E-1,1.3424595E-1,1.0238396E0,3.5950962E-1,-2.7987823E-1,-4.170368E-3,6.7875097E-3,3.0186996E-3,1.5249725E-2,-0E0,6.773125E-3,-4.062363E-3,7.2776736E-4],"categories":[],"categories_nodes":[],"categories_segments":[],"categories_sizes":[],"default_left":[0,0,0,0,0,0,0,0,0,0,0,0,0,0,0],"id":33,"left_children":[1,3,5,7,9,11,13,-1,-1,-1,-1,-1,-1,-1,-1],"loss_changes":[2.5783474E1,1.0053167E1,1.8325136E1,1.2088596E1,6.0153217E0,6.4550138E0,9.609607E0,0E0,0E0,0E0,0E0,0E0,0E0,0E0,0E0],"parents":[2147483647,0,0,1,1,2,2,3,3,4,4,5,5,6,6],"right_children":[2,4,6,8,10,12,14,-1,-1,-1,-1,-1,-1,-1,-1],"split_conditions":[1.0720492E-1,1E0,-3.4022754E-1,-3.1492656E-1,-2.0805928E-1,1.5753318E-1,2.9386386E-1,-4.170368E-3,6.7875097E-3,3.0186996E-3,1.5249725E-2,-0E0,6.773125E-3,-4.062363E-3,7.2776736E-4],"split_indices":[5,11,3,6,9,5,3,0,0,0,0,0,0,0,0],"split_type":[0,0,0,0,0,0,0,0,0,0,0,0,0,0,0],"sum_hessian":[3.1303873E2,6.191119E1,2.5112753E2,3.4641937E1,2.7269249E1,5.3769394E1,1.9735814E2,1.5621315E1,1.9020624E1,1.41210785E1,1.3148171E1,2.5986322E1,2.7783073E1,1.4924889E2,4.8109245E1],"tree_param":{"num_deleted":"0","num_feature":"28","num_nodes":"15","size_leaf_vector":"1"}},{"base_weights":[-6.959582E-3,-6.160403E-1,1.5325385E-1,-0E0,-7.832028E-3,6.281177E-2,1.2459636E-2,4.52792E-3,-5.135073E-4],"categories":[],"categories_nodes":[],"categories_segments":[],"categories_sizes":[],"default_left":[0,0,0,0,0,0,0,0,0],"id":34,"left_children":[1,3,5,-1,-1,7,-1,-1,-1],"loss_changes":[3.1759047E1,6.079174E0,2.1699175E1,0E0,0E0,1.1200729E1,0E0,0E0,0E0],"parents":[2147483647,0,0,1,1,2,2,5,5],"right_children":[2,4,6,-1,-1,8,-1,-1,-1],"split_conditions":[-3.0444184E-1,-3.0966356E-1,1.6770152E0,-0E0,-7.832028E-3,1.264937E-1,1.2459636E-2,4.52792E-3,-5.135073E-4],"split_indices":[4,2,10,0,0,5,0,0,0],"split_type":[0,0,0,0,0,0,0,0,0],"sum_hessian":[3.1203708E2,6.639967E1,2.456374E2,1.6171295E1,5.0228382E1,2.3050417E2,1.5133237E1,5.482113E1,1.7568303E2],"tree_param":{"num_deleted":"0","num_feature":"28","num_nodes":"9","size_leaf_vector":"1"}},{"base_weights":[1.2491166E-2,-3.234013E-1,4.674115E-1,4.2378747E-1,-4.9555045E-1,3.4190106E-1,1.4712007E-2,9.333814E-3,-0E0,-6.030551E-3,7.6531695E-4,1.0518126E-5,5.718344E-3],"categories":[],"categories_nodes":[],"categories_segments":[],"categories_sizes":[],"default_left":[0,0,0,0,0,0,0,0,0,0,0,0,0],"id":35,"left_children":[1,3,5,7,9,11,-1,-1,-1,-1,-1,-1,-1],"loss_changes":[4.9640057E1,2.4142149E1,1.2966557E1,6.2009697E0,1.0498562E1,8.927022E0,0E0,0E0,0E0,0E0,0E0,0E0,0E0],"parents":[2147483647,0,0,1,1,2,2,3,3,4,4,5,5],"right_children":[2,4,6,8,10,12,-1,-1,-1,-1,-1,-1,-1],"split_conditions":[-1.8285346E-1,-4.226994E-1,1.6770152E0,1.3463962E-1,4.379269E-1,-8.841286E-2,1.4712007E-2,9.333814E-3,-0E0,-6.030551E-3,7.6531695E-4,1.0518126E-5,5.718344E-3],"split_indices":[4,1,10,5,18,0,0,0,0,0,0,0,0],"split_type":[0,0,0,0,0,0,0,0,0,0,0,0,0],"sum_hessian":[3.1899692E2,1.8130867E2,1.3768825E2,3.1227747E1,1.5008092E2,1.265398E2,1.1148441E1,1.1967542E1,1.9260204E1,1.2919124E2,2.0889679E1,5.5288456E1,7.125134E1],"tree_param":{"num_deleted":"0","num_feature":"28","num_nodes":"13","size_leaf_vector":"1"}},{"base_weights":[4.611091E-3,-6.870762E-1,1.9004896E-1,-0E0,-8.290195E-3,1.00398585E-1,1.11995945E-2,4.14071E-3,-1.6289267E-4],"categories":[],"categories_nodes":[],"categories_segments":[],"categories_sizes":[],"default_left":[0,0,0,0,0,0,0,0,0],"id":36,"left_children":[1,3,5,-1,-1,7,-1,-1,-1],"loss_changes":[3.9297756E1,5.1303444E0,1.8172672E1,0E0,0E0,9.305728E0,0E0,0E0,0E0],"parents":[2147483647,0,0,1,1,2,2,5,5],"right_children":[2,4,6,-1,-1,8,-1,-1,-1],"split_conditions":[-3.1051373E-1,-3.0966356E-1,1.4893341E0,-0E0,-8.290195E-3,-4.5620704E-1,1.11995945E-2,4.14071E-3,-1.6289267E-4],"split_indices":[4,2,10,0,0,1,0,0,0],"split_type":[0,0,0,0,0,0,0,0,0],"sum_hessian":[3.1009332E2,6.2134537E1,2.4795877E2,1.2617077E1,4.951746E1,2.3013838E2,1.7820396E1,6.566495E1,1.6447343E2],"tree_param":{"num_deleted":"0","num_feature":"28","num_nodes":"9","size_leaf_vector":"1"}},{"base_weights":[1.4266499E-2,-4.9144349E-1,3.0698407E-1,4.5930115E-3,-6.157266E-1,1.9603027E-1,9.149262E-1,-0E0,-6.977226E-3,-1.578855E-3,4.2168754E-3,2.680161E-3,1.1714127E-2],"categories":[],"categories_nodes":[],"categories_segments":[],"categories_sizes":[],"default_left":[0,0,0,0,0,0,0,0,0,0,0,0,0],"id":37,"left_children":[1,3,5,-1,7,9,11,-1,-1,-1,-1,-1,-1],"loss_changes":[4.676717E1,1.437911E1,1.1188522E1,0E0,5.7808037E0,1.4872534E1,1.1685467E0,0E0,0E0,0E0,0E0,0E0,0E0],"parents":[2147483647,0,0,1,1,2,2,4,4,5,5,6,6],"right_children":[2,4,6,-1,8,10,12,-1,-1,-1,-1,-1,-1],"split_conditions":[-2.6320207E-1,-4.119816E-1,6.4134645E-1,4.5930115E-3,-3.487557E-1,-8.841286E-2,-2.4263287E-1,-0E0,-6.977226E-3,-1.578855E-3,4.2168754E-3,2.680161E-3,1.1714127E-2],"split_indices":[4,1,10,0,7,0,7,0,0,0,0,0,0],"split_type":[0,0,0,0,0,0,0,0,0,0,0,0,0],"sum_hessian":[3.1438382E2,1.1225592E2,2.0212791E2,1.049413E1,1.01761795E2,1.759504E2,2.6177525E1,1.1080329E1,9.0681465E1,6.528949E1,1.106609E2,1.08071995E1,1.5370326E1],"tree_param":{"num_deleted":"0","num_feature":"28","num_nodes":"13","size_leaf_vector":"1"}},{"base_weights":[-1.2818115E-2,-5.0872934E-1,2.8270477E-1,2.82944E-3,-6.2304384E-1,1.9663362E-1,1.1198201E-2,-7.0895473E-3,-0E0,-5.773072E-4,4.032118E-3],"categories":[],"categories_nodes":[],"categories_segments":[],"categories_sizes":[],"default_left":[0,0,0,0,0,0,0,0,0,0,0],"id":38,"left_children":[1,3,5,-1,7,9,-1,-1,-1,-1,-1],"loss_changes":[4.6509613E1,1.1879915E1,1.0937191E1,0E0,6.283787E0,1.0243862E1,0E0,0E0,0E0,0E0,0E0],"parents":[2147483647,0,0,1,1,2,2,4,4,5,5],"right_children":[2,4,6,-1,8,10,-1,-1,-1,-1,-1],"split_conditions":[-2.5542367E-1,-4.336342E-1,1.6770152E0,2.82944E-3,2.1219562E-1,-8.841286E-2,1.1198201E-2,-7.0895473E-3,-0E0,-5.773072E-4,4.032118E-3],"split_indices":[4,1,10,0,5,0,0,0,0,0,0],"split_type":[0,0,0,0,0,0,0,0,0,0,0],"sum_hessian":[3.1030942E2,1.1785835E2,1.9245107E2,1.2291174E1,1.0556718E2,1.7891428E2,1.3536797E1,9.357896E1,1.1988222E1,7.648997E1,1.0242431E2],"tree_param":{"num_deleted":"0","num_feature":"28","num_nodes":"11","size_leaf_vector":"1"}},{"base_weights":[1.164182E-2,-4.6641064E-1,2.9900008E-1,2.5830388E-3,-5.756699E-1,1.391042E-1,1.0115224E-2,-0E0,-6.9842367E-3,-3.8945593E-3,3.3611872E-3],"categories":[],"categories_nodes":[],"categories_segments":[],"categories_sizes":[],"default_left":[0,0,0,0,0,0,0,0,0,0,0],"id":39,"left_children":[1,3,5,-1,7,9,-1,-1,-1,-1,-1],"loss_changes":[4.1009876E1,9.673681E0,1.912535E1,0E0,8.243389E0,1.68404E1,0E0,0E0,0E0,0E0,0E0],"parents":[2147483647,0,0,1,1,2,2,4,4,5,5],"right_children":[2,4,6,-1,8,10,-1,-1,-1,-1,-1],"split_conditions":[-2.6320207E-1,-3.9593711E-1,3.5214362E-1,2.5830388E-3,-3.247971E-1,-3.4079865E-1,1.0115224E-2,-0E0,-6.9842367E-3,-3.8945593E-3,3.3611872E-3],"split_indices":[4,1,10,0,9,0,0,0,0,0,0],"split_type":[0,0,0,0,0,0,0,0,0,0,0],"sum_hessian":[2.969378E2,1.08398575E2,1.8853923E2,1.144575E1,9.695282E1,1.5822878E2,3.0310457E1,1.4827564E1,8.212526E1,3.9676804E1,1.1855197E2],"tree_param":{"num_deleted":"0","num_feature":"28","num_nodes":"11","size_leaf_vector":"1"}},{"base_weights":[-1.4052152E-3,4.736582E-1,-1.5673046E-1,-0E0,8.9847225E-1,3.271059E-1,-3.0432293E-1,4.733167E-3,-3.1317414E-3,1.159568E-2,1.0458799E-3,5.077748E-3,-3.3759593E-4,-4.011167E-3,1.0119549E-3],"categories":[],"categories_nodes":[],"categories_segments":[],"categories_sizes":[],"default_left":[0,0,0,0,0,0,0,0,0,0,0,0,0,0,0],"id":40,"left_children":[1,3,5,7,9,11,13,-1,-1,-1,-1,-1,-1,-1,-1],"loss_changes":[2.227167E1,1.34186535E1,1.7084347E1,6.213778E0,4.8981247E0,4.4517865E0,7.9769707E0,0E0,0E0,0E0,0E0,0E0,0E0,0E0,0E0],"parents":[2147483647,0,0,1,1,2,2,3,3,4,4,5,5,6,6],"right_children":[2,4,6,8,10,12,14,-1,-1,-1,-1,-1,-1,-1,-1],"split_conditions":[1.1992738E-1,1E0,-3.3564562E-1,-4.790296E-2,9.700714E-2,1.1340294E0,4.1662526E-1,4.733167E-3,-3.1317414E-3,1.159568E-2,1.0458799E-3,5.077748E-3,-3.3759593E-4,-4.011167E-3,1.0119549E-3],"split_indices":[5,11,3,5,5,15,2,0,0,0,0,0,0,0,0],"split_type":[0,0,0,0,0,0,0,0,0,0,0,0,0,0,0],"sum_hessian":[3.0640567E2,7.131452E1,2.3509114E2,3.631628E1,3.499824E1,5.1215042E1,1.838761E2,1.5940638E1,2.0375643E1,2.3747543E1,1.1250698E1,3.7279114E1,1.3935931E1,1.5244293E2,3.1433165E1],"tree_param":{"num_deleted":"0","num_feature":"28","num_nodes":"15","size_leaf_vector":"1"}},{"base_weights":[1.092014E-2,5.079963E-1,-1.3227627E-1,7.425067E-1,1.558038E-1,3.2483777E-1,-2.7675495E-1,9.145151E-3,1.0026667E-3,-2.8505023E-3,4.7565023E-3,5.2384213E-3,-1.5541638E-3,-3.6692913E-3,3.8877067E-3],"categories":[],"categories_nodes":[],"categories_segments":[],"categories_sizes":[],"default_left":[0,0,0,0,0,0,0,0,0,0,0,0,0,0,0],"id":41,"left_children":[1,3,5,7,9,11,13,-1,-1,-1,-1,-1,-1,-1,-1],"loss_changes":[2.2937138E1,3.9866657E0,1.5866344E1,2.181017E0,5.5943336E0,6.155027E0,1.1403333E1,0E0,0E0,0E0,0E0,0E0,0E0,0E0,0E0],"parents":[2147483647,0,0,1,1,2,2,3,3,4,4,5,5,6,6],"right_children":[2,4,6,8,10,12,14,-1,-1,-1,-1,-1,-1,-1,-1],"split_conditions":[-3.3564562E-1,-2.9677466E-1,1.1992738E-1,-3.4663826E-2,-8.542075E-2,9.364362E-2,9.1916555E-1,9.145151E-3,1.0026667E-3,-2.8505023E-3,4.7565023E-3,5.2384213E-3,-1.5541638E-3,-3.6692913E-3,3.8877067E-3],"split_indices":[3,6,5,23,6,9,2,0,0,0,0,0,0,0,0],"split_type":[0,0,0,0,0,0,0,0,0,0,0,0,0,0,0],"sum_hessian":[3.077985E2,7.082302E1,2.3697546E2,3.7775013E1,3.3048008E1,5.298798E1,1.8398749E2,2.6670084E1,1.1104928E1,1.1357795E1,2.1690212E1,4.0279984E1,1.2707997E1,1.6546991E2,1.8517582E1],"tree_param":{"num_deleted":"0","num_feature":"28","num_nodes":"15","size_leaf_vector":"1"}},{"base_weights":[1.80411E-2,-4.1704062E-1,3.0127057E-1,5.3515644E-3,-5.542678E-1,1.2805554E-1,5.73911E-1,-0E0,-6.5278183E-3,-0E0,6.772207E-3,9.868578E-3,2.0972646E-3],"categories":[],"categories_nodes":[],"categories_segments":[],"categories_sizes":[],"default_left":[0,0,0,0,0,0,0,0,0,0,0,0,0],"id":42,"left_children":[1,3,5,-1,7,9,11,-1,-1,-1,-1,-1,-1],"loss_changes":[3.8608906E1,1.6511503E1,7.5929775E0,0E0,6.22237E0,9.833761E0,7.7444954E0,0E0,0E0,0E0,0E0,0E0,0E0],"parents":[2147483647,0,0,1,1,2,2,4,4,5,5,6,6],"right_children":[2,4,6,-1,8,10,12,-1,-1,-1,-1,-1,-1],"split_conditions":[-2.5542367E-1,-4.119816E-1,-8.931436E-3,5.3515644E-3,-3.247971E-1,2.8648064E-1,1.4138196E-1,-0E0,-6.5278183E-3,-0E0,6.772207E-3,9.868578E-3,2.0972646E-3],"split_indices":[4,1,27,0,9,6,5,0,0,0,0,0,0],"split_type":[0,0,0,0,0,0,0,0,0,0,0,0,0],"sum_hessian":[3.1115262E2,1.1953032E2,1.9162228E2,1.2490038E1,1.0704028E2,1.2346014E2,6.816215E1,1.582579E1,9.121449E1,9.953261E1,2.3927525E1,2.776655E1,4.03956E1],"tree_param":{"num_deleted":"0","num_feature":"28","num_nodes":"13","size_leaf_vector":"1"}},{"base_weights":[-4.600828E-3,5.357206E-1,-1.9153218E-1,8.3763754E-1,2.3184656E-1,2.7292728E-1,-3.170203E-1,3.5651587E-3,1.2028396E-2,-5.966252E-4,4.4649458E-3,-1.2851573E-3,7.320079E-3,-4.9064513E-3,1.5877073E-6],"categories":[],"categories_nodes":[],"categories_segments":[],"categories_sizes":[],"default_left":[0,0,0,0,0,0,0,0,0,0,0,0,0,0,0],"id":43,"left_children":[1,3,5,7,9,11,13,-1,-1,-1,-1,-1,-1,-1,-1],"loss_changes":[3.1247166E1,4.676935E0,1.41111E1,2.2300682E0,3.6553695E0,1.0283729E1,1.1521357E1,0E0,0E0,0E0,0E0,0E0,0E0,0E0,0E0],"parents":[2147483647,0,0,1,1,2,2,3,3,4,4,5,5,6,6],"right_children":[2,4,6,8,10,12,14,-1,-1,-1,-1,-1,-1,-1,-1],"split_conditions":[-4.5620704E-1,1.3931862E-1,1.1885765E-1,-8.841286E-2,-3.3462608E-1,-1.647708E-1,2.0138976E-1,3.5651587E-3,1.2028396E-2,-5.966252E-4,4.4649458E-3,-1.2851573E-3,7.320079E-3,-4.9064513E-3,1.5877073E-6],"split_indices":[1,5,5,0,6,17,1,0,0,0,0,0,0,0,0],"split_type":[0,0,0,0,0,0,0,0,0,0,0,0,0,0,0],"sum_hessian":[3.1215228E2,7.652562E1,2.3562665E2,3.332275E1,4.320287E1,4.6230328E1,1.8939633E2,1.844799E1,1.4874758E1,1.4982267E1,2.82206E1,2.3107533E1,2.3122795E1,1.2576432E2,6.3632004E1],"tree_param":{"num_deleted":"0","num_feature":"28","num_nodes":"15","size_leaf_vector":"1"}},{"base_weights":[-4.481772E-2,-6.8485194E-1,1.3398999E-1,-1.1026507E-3,-8.420788E-3,5.654763E-1,-2.7793434E-2,2.440175E-3,1.0308241E-2,-1.0979952E-3,6.7549753E-3],"categories":[],"categories_nodes":[],"categories_segments":[],"categories_sizes":[],"default_left":[0,0,0,0,0,0,0,0,0,0,0],"id":44,"left_children":[1,3,5,-1,-1,7,9,-1,-1,-1,-1],"loss_changes":[3.6379227E1,4.2092247E0,1.7785048E1,0E0,0E0,7.2117176E0,8.95425E0,0E0,0E0,0E0,0E0],"parents":[2147483647,0,0,1,1,2,2,5,5,6,6],"right_children":[2,4,6,-1,-1,8,10,-1,-1,-1,-1],"split_conditions":[-3.0444184E-1,-3.3551455E-1,1.2853971E-1,-1.1026507E-3,-8.420788E-3,-2.2845667E-2,6.848481E-1,2.440175E-3,1.0308241E-2,-1.0979952E-3,6.7549753E-3],"split_indices":[4,6,5,0,0,27,10,0,0,0,0],"split_type":[0,0,0,0,0,0,0,0,0,0,0],"sum_hessian":[3.0465018E2,6.773189E1,2.3691827E2,1.8015865E1,4.9716022E1,6.6617355E1,1.7030092E2,4.3745144E1,2.2872211E1,1.5657524E2,1.3725673E1],"tree_param":{"num_deleted":"0","num_feature":"28","num_nodes":"11","size_leaf_vector":"1"}},{"base_weights":[-0E0,-4.6178406E-1,2.7659813E-1,4.1164374E-3,-6.2396425E-1,7.039242E-1,1.23436E-1,-0E0,-7.0316545E-3,7.958381E-4,1.1330002E-2,-0E0,7.268936E-3],"categories":[],"categories_nodes":[],"categories_segments":[],"categories_sizes":[],"default_left":[0,0,0,0,0,0,0,0,0,0,0,0,0],"id":45,"left_children":[1,3,5,-1,7,9,11,-1,-1,-1,-1,-1,-1],"loss_changes":[4.0060085E1,1.7668139E1,1.0896818E1,0E0,5.6222954E0,1.0100273E1,1.1608591E1,0E0,0E0,0E0,0E0,0E0,0E0],"parents":[2147483647,0,0,1,1,2,2,4,4,5,5,6,6],"right_children":[2,4,6,-1,8,10,12,-1,-1,-1,-1,-1,-1],"split_conditions":[-2.5542367E-1,-3.786331E-1,1.0720492E-1,4.1164374E-3,-3.487557E-1,1E0,1.2291672E0,-0E0,-7.0316545E-3,7.958381E-4,1.1330002E-2,-0E0,7.268936E-3],"split_indices":[4,1,5,0,7,11,21,0,0,0,0,0,0],"split_type":[0,0,0,0,0,0,0,0,0,0,0,0,0],"sum_hessian":[3.0853195E2,1.1610435E2,1.924276E2,1.5769381E1,1.0033497E2,4.542917E1,1.4699843E2,1.0383753E1,8.995121E1,2.1368464E1,2.4060705E1,1.2273145E2,2.4266981E1],"tree_param":{"num_deleted":"0","num_feature":"28","num_nodes":"13","size_leaf_vector":"1"}},{"base_weights":[2.8606847E-2,4.9179202E-1,-1.1890929E-1,5.6329256E-1,-0E0,-2.7180052E-1,2.0777516E-1,7.832177E-3,1.2361044E-3,-3.7776236E-3,1.6365633E-3,-0E0,7.4410387E-3],"categories":[],"categories_nodes":[],"categories_segments":[],"categories_sizes":[],"default_left":[0,0,0,0,0,0,0,0,0,0,0,0,0],"id":46,"left_children":[1,3,5,7,-1,9,11,-1,-1,-1,-1,-1,-1],"loss_changes":[2.2101555E1,2.4466019E0,1.1933205E1,4.5426216E0,0E0,8.142125E0,9.338361E0,0E0,0E0,0E0,0E0,0E0,0E0],"parents":[2147483647,0,0,1,1,2,2,3,3,5,5,6,6],"right_children":[2,4,6,8,-1,10,12,-1,-1,-1,-1,-1,-1],"split_conditions":[-4.336342E-1,4.6017453E-2,3.10016E-1,-6.751624E-1,-0E0,6.763287E-2,2.0888345E-1,7.832177E-3,1.2361044E-3,-3.7776236E-3,1.6365633E-3,-0E0,7.4410387E-3],"split_indices":[1,9,1,1,0,2,19,0,0,0,0,0,0],"split_type":[0,0,0,0,0,0,0,0,0,0,0,0,0],"sum_hessian":[3.088397E2,7.67483E1,2.3209138E2,6.5736275E1,1.1012022E1,1.6249867E2,6.959271E1,3.974485E1,2.5991426E1,1.3460295E2,2.789573E1,4.9145058E1,2.044765E1],"tree_param":{"num_deleted":"0","num_feature":"28","num_nodes":"13","size_leaf_vector":"1"}},{"base_weights":[4.730967E-2,-2.5819054E-1,4.2803606E-1,3.440152E-1,-3.8978434E-1,2.9263785E-1,1.453772E-2,7.0301066E-3,-0E0,-4.8257345E-3,1.1875307E-3,-2.6229795E-3,4.8639257E-3],"categories":[],"categories_nodes":[],"categories_segments":[],"categories_sizes":[],"default_left":[0,0,0,0,0,0,0,0,0,0,0,0,0],"id":47,"left_children":[1,3,5,7,9,11,-1,-1,-1,-1,-1,-1,-1],"loss_changes":[3.6691544E1,1.3885365E1,1.5371996E1,2.7920637E0,7.6245575E0,1.4641562E1,0E0,0E0,0E0,0E0,0E0,0E0,0E0],"parents":[2147483647,0,0,1,1,2,2,3,3,4,4,5,5],"right_children":[2,4,6,8,10,12,-1,-1,-1,-1,-1,-1,-1],"split_conditions":[-1.8285346E-1,-4.226994E-1,1.6770152E0,1.3254285E-1,1.169802E0,-6.531301E-1,1.453772E-2,7.0301066E-3,-0E0,-4.8257345E-3,1.1875307E-3,-2.6229795E-3,4.8639257E-3],"split_indices":[4,1,10,5,26,0,0,0,0,0,0,0,0],"split_type":[0,0,0,0,0,0,0,0,0,0,0,0,0],"sum_hessian":[3.0863715E2,1.6867805E2,1.3995908E2,2.694488E1,1.4173318E2,1.2763194E2,1.2327134E1,1.0580505E1,1.6364374E1,1.2327503E2,1.8458147E1,3.0175625E1,9.7456314E1],"tree_param":{"num_deleted":"0","num_feature":"28","num_nodes":"13","size_leaf_vector":"1"}},{"base_weights":[3.830379E-2,-3.5466334E-1,2.6758826E-1,2.0760642E-2,-5.270581E-1,7.85124E-1,9.118024E-2,4.1733733E-3,-2.6102124E-3,-0E0,-6.1487816E-3,2.5675402E-3,1.1435471E-2,-0E0,6.3431254E-3],"categories":[],"categories_nodes":[],"categories_segments":[],"categories_sizes":[],"default_left":[0,0,0,0,0,0,0,0,0,0,0,0,0,0,0],"id":48,"left_children":[1,3,5,7,9,11,13,-1,-1,-1,-1,-1,-1,-1,-1],"loss_changes":[2.82277E1,8.349333E0,1.6554863E1,4.312092E0,4.30023E0,5.7458916E0,7.763899E0,0E0,0E0,0E0,0E0,0E0,0E0,0E0,0E0],"parents":[2147483647,0,0,1,1,2,2,3,3,4,4,5,5,6,6],"right_children":[2,4,6,8,10,12,14,-1,-1,-1,-1,-1,-1,-1,-1],"split_conditions":[-2.6183376E-1,-3.35196E-1,1.0720492E-1,-2.207809E-1,1.00830145E-1,1E0,3.294249E-1,4.1733733E-3,-2.6102124E-3,-0E0,-6.1487816E-3,2.5675402E-3,1.1435471E-2,-0E0,6.3431254E-3],"split_indices":[4,6,5,9,5,11,10,0,0,0,0,0,0,0,0],"split_type":[0,0,0,0,0,0,0,0,0,0,0,0,0,0,0],"sum_hessian":[3.1111487E2,1.1102108E2,2.0009378E2,3.1840317E1,7.918076E1,4.622956E1,1.5386421E2,1.5774716E1,1.6065601E1,1.0159292E1,6.902148E1,2.2327753E1,2.3901806E1,1.3334732E2,2.0516897E1],"tree_param":{"num_deleted":"0","num_feature":"28","num_nodes":"15","size_leaf_vector":"1"}},{"base_weights":[4.8224017E-2,-5.4144007E-1,2.3000059E-1,-0E0,-7.166701E-1,6.7172676E-1,9.4053246E-2,-3.0369484E-3,-9.858342E-3,2.7279642E-3,9.786084E-3,-5.695375E-4,3.1155986E-3],"categories":[],"categories_nodes":[],"categories_segments":[],"categories_sizes":[],"default_left":[0,0,0,0,0,0,0,0,0,0,0,0,0],"id":49,"left_children":[1,3,5,-1,7,9,11,-1,-1,-1,-1,-1,-1],"loss_changes":[3.3017086E1,6.321167E0,1.288126E1,0E0,2.7207413E0,3.4750004E0,6.8155375E0,0E0,0E0,0E0,0E0,0E0,0E0],"parents":[2147483647,0,0,1,1,2,2,4,4,5,5,6,6],"right_children":[2,4,6,-1,8,10,12,-1,-1,-1,-1,-1,-1],"split_conditions":[-2.9882735E-1,-3.35196E-1,1.0720492E-1,-0E0,-2.0896103E-3,1E0,-2.0805928E-1,-3.0369484E-3,-9.858342E-3,2.7279642E-3,9.786084E-3,-5.695375E-4,3.1155986E-3],"split_indices":[4,6,5,0,3,11,9,0,0,0,0,0,0],"split_type":[0,0,0,0,0,0,0,0,0,0,0,0,0],"sum_hessian":[3.0951974E2,6.940794E1,2.4011179E2,1.834314E1,5.1064804E1,5.1189816E1,1.8892197E2,2.4761114E1,2.630369E1,2.6733145E1,2.4456673E1,1.0695096E2,8.1971016E1],"tree_param":{"num_deleted":"0","num_feature":"28","num_nodes":"13","size_leaf_vector":"1"}},{"base_weights":[4.4282656E-2,-2.514951E-1,4.1734582E-1,-6.9696796E-1,-5.7105403E-2,5.5359995E-1,7.1450346E-3,-8.149998E-3,-4.2053068E-4,5.6328326E-3,-2.6621365E-3,6.3220463E-3,-0E0,-1.1222594E-3,4.3773437E-3],"categories":[],"categories_nodes":[],"categories_segments":[],"categories_sizes":[],"default_left":[0,0,0,0,0,0,0,0,0,0,0,0,0,0,0],"id":50,"left_children":[1,3,5,7,9,11,13,-1,-1,-1,-1,-1,-1,-1,-1],"loss_changes":[3.465235E1,1.3192664E1,6.7204437E0,1.9702568E0,1.5809508E1,5.3112144E0,2.8415308E0,0E0,0E0,0E0,0E0,0E0,0E0,0E0,0E0],"parents":[2147483647,0,0,1,1,2,2,3,3,4,4,5,5,6,6],"right_children":[2,4,6,8,10,12,14,-1,-1,-1,-1,-1,-1,-1,-1],"split_conditions":[-1.8285346E-1,-3.2074565E-1,6.1500084E-1,1.2236515E0,1.2717699E-1,2.23605E-1,2.0888345E-1,-8.149998E-3,-4.2053068E-4,5.6328326E-3,-2.6621365E-3,6.3220463E-3,-0E0,-1.1222594E-3,4.3773437E-3],"split_indices":[4,4,1,22,5,5,19,0,0,0,0,0,0,0,0],"split_type":[0,0,0,0,0,0,0,0,0,0,0,0,0,0,0],"sum_hessian":[3.071314E2,1.6868369E2,1.3844772E2,4.6549393E1,1.22134285E2,9.97421E1,3.8705616E1,3.6439404E1,1.010999E1,2.7523836E1,9.461045E1,8.930345E1,1.0438652E1,2.7825558E1,1.0880058E1],"tree_param":{"num_deleted":"0","num_feature":"28","num_nodes":"15","size_leaf_vector":"1"}},{"base_weights":[-1.3193778E-2,-4.618886E-1,2.2667274E-1,3.1538692E-4,-5.515502E-1,1.5474881E-1,9.839287E-3,-6.4057903E-3,1.3451892E-4,2.7941412E-4,5.7057757E-3],"categories":[],"categories_nodes":[],"categories_segments":[],"categories_sizes":[],"default_left":[0,0,0,0,0,0,0,0,0,0,0],"id":51,"left_children":[1,3,5,-1,7,9,-1,-1,-1,-1,-1],"loss_changes":[3.400404E1,6.0043945E0,8.322134E0,0E0,6.192425E0,8.664433E0,0E0,0E0,0E0,0E0,0E0],"parents":[2147483647,0,0,1,1,2,2,4,4,5,5],"right_children":[2,4,6,-1,8,10,-1,-1,-1,-1,-1],"split_conditions":[-2.6183376E-1,-3.786331E-1,1.6770152E0,3.1538692E-4,1.9616652E-1,5.45856E-1,9.839287E-3,-6.4057903E-3,1.3451892E-4,2.7941412E-4,5.7057757E-3],"split_indices":[4,1,10,0,1,19,0,0,0,0,0],"split_type":[0,0,0,0,0,0,0,0,0,0,0],"sum_hessian":[3.0762726E2,1.0942443E2,1.9820282E2,1.3595551E1,9.582888E1,1.856223E2,1.2580523E1,8.561119E1,1.0217694E1,1.4756596E2,3.8056328E1],"tree_param":{"num_deleted":"0","num_feature":"28","num_nodes":"11","size_leaf_vector":"1"}},{"base_weights":[-9.227611E-3,-6.3591945E-1,1.5867288E-1,-4.97058E-4,-8.016533E-3,7.688192E-2,7.307127E-1,2.5598367E-3,-1.6580184E-3,-0E0,1.08791655E-2],"categories":[],"categories_nodes":[],"categories_segments":[],"categories_sizes":[],"default_left":[0,0,0,0,0,0,0,0,0,0,0],"id":52,"left_children":[1,3,5,-1,-1,7,9,-1,-1,-1,-1],"loss_changes":[3.3991344E1,4.9072227E0,9.744815E0,0E0,0E0,9.819794E0,5.6887436E0,0E0,0E0,0E0,0E0],"parents":[2147483647,0,0,1,1,2,2,5,5,6,6],"right_children":[2,4,6,-1,-1,8,10,-1,-1,-1,-1],"split_conditions":[-3.0221078E-1,-3.35196E-1,1.0068153E0,-4.97058E-4,-8.016533E-3,-3.0229726E-1,-1.2078098E-1,2.5598367E-3,-1.6580184E-3,-0E0,1.08791655E-2],"split_indices":[4,6,10,0,0,6,4,0,0,0,0],"split_type":[0,0,0,0,0,0,0,0,0,0,0],"sum_hessian":[3.1005536E2,6.685493E1,2.4320042E2,1.7968018E1,4.8886906E1,2.1782115E2,2.5379276E1,1.3000697E2,8.781418E1,1.0221191E1,1.5158085E1],"tree_param":{"num_deleted":"0","num_feature":"28","num_nodes":"11","size_leaf_vector":"1"}},{"base_weights":[-4.015736E-2,3.988863E-1,-1.9033216E-1,-0E0,4.9960986E-1,-4.308438E-1,4.9849045E-2,6.5852404E-3,-0E0,-5.1634195E-3,4.7514774E-4,-2.5825233E-3,2.7849716E-3],"categories":[],"categories_nodes":[],"categories_segments":[],"categories_sizes":[],"default_left":[0,0,0,0,0,0,0,0,0,0,0,0,0],"id":53,"left_children":[1,3,5,-1,7,9,11,-1,-1,-1,-1,-1,-1],"loss_changes":[2.0227615E1,3.8587914E0,1.4457652E1,0E0,4.9785233E0,5.9951286E0,8.348056E0,0E0,0E0,0E0,0E0,0E0,0E0],"parents":[2147483647,0,0,1,1,2,2,4,4,5,5,6,6],"right_children":[2,4,6,-1,8,10,12,-1,-1,-1,-1,-1,-1],"split_conditions":[-4.456901E-1,-3.421381E-1,-1.36807915E-2,-0E0,1.0994983E0,1.5775523E-1,-2.081538E-1,6.5852404E-3,-0E0,-5.1634195E-3,4.7514774E-4,-2.5825233E-3,2.7849716E-3],"split_indices":[1,9,1,0,15,10,21,0,0,0,0,0,0],"split_type":[0,0,0,0,0,0,0,0,0,0,0,0,0],"sum_hessian":[3.0881235E2,7.446883E1,2.343435E2,1.2265601E1,6.2203228E1,1.2045859E2,1.1388492E2,4.6435616E1,1.57676115E1,1.05605606E2,1.4852979E1,4.4677013E1,6.920791E1],"tree_param":{"num_deleted":"0","num_feature":"28","num_nodes":"13","size_leaf_vector":"1"}},{"base_weights":[4.390162E-2,-5.170216E-1,2.1367967E-1,-0E0,-6.2203085E-1,1.4467597E-1,1.1063333E-2,-7.418988E-3,-1.1998573E-3,5.302408E-3,4.1576134E-4],"categories":[],"categories_nodes":[],"categories_segments":[],"categories_sizes":[],"default_left":[0,0,0,0,0,0,0,0,0,0,0],"id":54,"left_children":[1,3,5,-1,7,9,-1,-1,-1,-1,-1],"loss_changes":[2.9164858E1,4.4755516E0,1.2105988E1,0E0,1.7023277E0,7.929099E0,0E0,0E0,0E0,0E0,0E0],"parents":[2147483647,0,0,1,1,2,2,4,4,5,5],"right_children":[2,4,6,-1,8,10,-1,-1,-1,-1,-1],"split_conditions":[-3.0444184E-1,-3.3617958E-1,1.6770152E0,-0E0,-2.2227214E-1,-6.751624E-1,1.1063333E-2,-7.418988E-3,-1.1998573E-3,5.302408E-3,4.1576134E-4],"split_indices":[4,1,10,0,26,1,0,0,0,0,0],"split_type":[0,0,0,0,0,0,0,0,0,0,0],"sum_hessian":[3.082996E2,6.794572E1,2.4035388E2,1.0055592E1,5.789012E1,2.2734442E2,1.3009463E1,4.274512E1,1.5145001E1,4.2124783E1,1.8521964E2],"tree_param":{"num_deleted":"0","num_feature":"28","num_nodes":"11","size_leaf_vector":"1"}},{"base_weights":[2.3418345E-4,-2.6295516E-1,3.347688E-1,5.3717685E-3,-3.6837438E-1,1.6150978E-1,9.202518E-3,-4.6786354E-3,7.716889E-4,-4.1713244E-3,3.4342285E-3],"categories":[],"categories_nodes":[],"categories_segments":[],"categories_sizes":[],"default_left":[0,0,0,0,0,0,0,0,0,0,0],"id":55,"left_children":[1,3,5,-1,7,9,-1,-1,-1,-1,-1],"loss_changes":[2.706095E1,1.4208597E1,1.1533845E1,0E0,7.5746574E0,1.1877757E1,0E0,0E0,0E0,0E0,0E0],"parents":[2147483647,0,0,1,1,2,2,4,4,5,5],"right_children":[2,4,6,-1,8,10,-1,-1,-1,-1,-1],"split_conditions":[-1.8285346E-1,-5.243054E-1,3.294249E-1,5.3717685E-3,2.7589104E-1,-5.2857E-1,9.202518E-3,-4.6786354E-3,7.716889E-4,-4.1713244E-3,3.4342285E-3],"split_indices":[4,2,10,0,13,0,0,0,0,0,0],"split_type":[0,0,0,0,0,0,0,0,0,0,0],"sum_hessian":[3.0171942E2,1.6576004E2,1.3595938E2,1.6134678E1,1.4962537E2,1.09517975E2,2.6441402E1,1.25900635E2,2.3724726E1,2.2946802E1,8.657117E1],"tree_param":{"num_deleted":"0","num_feature":"28","num_nodes":"11","size_leaf_vector":"1"}},{"base_weights":[1.1334042E-3,-4.189147E-1,2.37794E-1,2.631609E-3,-5.2337444E-1,1.2524441E-1,6.9787586E-1,-6.2084626E-3,9.6352596E-4,2.7996316E-3,-9.3926577E-4,1.1723002E-3,8.747697E-3],"categories":[],"categories_nodes":[],"categories_segments":[],"categories_sizes":[],"default_left":[0,0,0,0,0,0,0,0,0,0,0,0,0],"id":56,"left_children":[1,3,5,-1,7,9,11,-1,-1,-1,-1,-1,-1],"loss_changes":[3.050909E1,8.552834E0,8.622079E0,0E0,7.065647E0,6.120373E0,1.4786377E0,0E0,0E0,0E0,0E0,0E0,0E0],"parents":[2147483647,0,0,1,1,2,2,4,4,5,5,6,6],"right_children":[2,4,6,-1,8,10,12,-1,-1,-1,-1,-1,-1],"split_conditions":[-2.6183376E-1,-4.119816E-1,3.5214362E-1,2.631609E-3,1.9616652E-1,-3.147307E-1,-1.00732975E-1,-6.2084626E-3,9.6352596E-4,2.7996316E-3,-9.3926577E-4,1.1723002E-3,8.747697E-3],"split_indices":[4,1,10,0,1,10,4,0,0,0,0,0,0],"split_type":[0,0,0,0,0,0,0,0,0,0,0,0,0],"sum_hessian":[3.0654504E2,1.0687025E2,1.996748E2,1.1247088E1,9.562316E1,1.659661E2,3.37087E1,8.541287E1,1.0210289E1,1.02311905E2,6.3654194E1,1.1287999E1,2.2420698E1],"tree_param":{"num_deleted":"0","num_feature":"28","num_nodes":"13","size_leaf_vector":"1"}},{"base_weights":[4.696279E-2,6.684449E-1,-1.0374762E-1,2.1395062E-1,1.1121164E-2,-4.0057397E-1,1.7860998E-1,7.5427997E-3,-1.9642273E-3,7.4145553E-4,-4.6624634E-3,3.1627587E-3,-1.6547119E-3],"categories":[],"categories_nodes":[],"categories_segments":[],"categories_sizes":[],"default_left":[0,0,0,0,0,0,0,0,0,0,0,0,0],"id":57,"left_children":[1,3,5,7,-1,9,11,-1,-1,-1,-1,-1,-1],"loss_changes":[3.0209286E1,9.608963E0,2.1357534E1,9.373511E0,0E0,4.746813E0,6.32438E0,0E0,0E0,0E0,0E0,0E0,0E0],"parents":[2147483647,0,0,1,1,2,2,3,3,5,5,6,6],"right_children":[2,4,6,8,-1,10,12,-1,-1,-1,-1,-1,-1],"split_conditions":[1.0720492E-1,1E0,-2.150579E-1,-4.790296E-2,1.1121164E-2,-2.8782967E-1,1.2187458E0,7.5427997E-3,-1.9642273E-3,7.4145553E-4,-4.6624634E-3,3.1627587E-3,-1.6547119E-3],"split_indices":[5,11,4,5,0,3,15,0,0,0,0,0,0],"split_type":[0,0,0,0,0,0,0,0,0,0,0,0,0],"sum_hessian":[3.069901E2,6.1164974E1,2.4582512E2,3.39051E1,2.7259872E1,1.2288697E2,1.22938156E2,1.6015455E1,1.7889647E1,1.1201746E1,1.1168522E2,9.207387E1,3.0864286E1],"tree_param":{"num_deleted":"0","num_feature":"28","num_nodes":"13","size_leaf_vector":"1"}},{"base_weights":[-8.541151E-3,-4.1665173E-1,2.0057638E-1,3.2854117E-3,-5.2669173E-1,6.14597E-1,2.7518755E-2,-0E0,-5.889702E-3,2.777939E-3,9.706193E-3,2.9361153E-3,-9.442097E-4],"categories":[],"categories_nodes":[],"categories_segments":[],"categories_sizes":[],"default_left":[0,0,0,0,0,0,0,0,0,0,0,0,0],"id":58,"left_children":[1,3,5,-1,7,9,11,-1,-1,-1,-1,-1,-1],"loss_changes":[2.6806292E1,9.592644E0,1.3094195E1,0E0,3.1443233E0,3.654129E0,5.235116E0,0E0,0E0,0E0,0E0,0E0,0E0],"parents":[2147483647,0,0,1,1,2,2,4,4,5,5,6,6],"right_children":[2,4,6,-1,8,10,12,-1,-1,-1,-1,-1,-1],"split_conditions":[-2.6320207E-1,-4.119816E-1,1.2276854E-1,3.2854117E-3,-3.5216415E-1,-1.9315976E-1,-3.3564562E-1,-0E0,-5.889702E-3,2.777939E-3,9.706193E-3,2.9361153E-3,-9.442097E-4],"split_indices":[4,1,5,0,7,16,3,0,0,0,0,0,0],"split_type":[0,0,0,0,0,0,0,0,0,0,0,0,0],"sum_hessian":[3.0507822E2,1.0592864E2,1.9914958E2,1.077997E1,9.514867E1,5.3793976E1,1.453556E2,1.039459E1,8.475408E1,3.23595E1,2.1434473E1,4.9947567E1,9.5408035E1],"tree_param":{"num_deleted":"0","num_feature":"28","num_nodes":"13","size_leaf_vector":"1"}},{"base_weights":[-0E0,-3.7593466E-1,2.266256E-1,3.2369124E-3,-4.9448636E-1,6.4063704E-1,7.509663E-2,5.1382878E-5,-5.7140836E-3,-0E0,9.083479E-3,-2.2171637E-4,5.8771693E-3],"categories":[],"categories_nodes":[],"categories_segments":[],"categories_sizes":[],"default_left":[0,0,0,0,0,0,0,0,0,0,0,0,0],"id":59,"left_children":[1,3,5,-1,7,9,11,-1,-1,-1,-1,-1,-1],"loss_changes":[2.6607567E1,1.0339016E1,1.0831519E1,0E0,5.0971413E0,8.52986E0,8.637599E0,0E0,0E0,0E0,0E0,0E0,0E0],"parents":[2147483647,0,0,1,1,2,2,4,4,5,5,6,6],"right_children":[2,4,6,-1,8,10,12,-1,-1,-1,-1,-1,-1],"split_conditions":[-2.5542367E-1,-3.9593711E-1,1.0720492E-1,3.2369124E-3,-3.5216415E-1,-3.5817885E-1,1.2291672E0,5.1382878E-5,-5.7140836E-3,-0E0,9.083479E-3,-2.2171637E-4,5.8771693E-3],"split_indices":[4,1,5,0,7,13,21,0,0,0,0,0,0],"split_type":[0,0,0,0,0,0,0,0,0,0,0,0,0],"sum_hessian":[3.0968326E2,1.1467582E2,1.9500745E2,1.3670298E1,1.0100552E2,4.698349E1,1.4802396E2,1.0256098E1,9.074942E1,1.42803E1,3.270319E1,1.22745346E2,2.5278614E1],"tree_param":{"num_deleted":"0","num_feature":"28","num_nodes":"13","size_leaf_vector":"1"}},{"base_weights":[-4.7020268E-4,-6.6001415E-1,1.4754505E-1,-8.233384E-3,-0E0,6.393716E-1,-1.5631445E-2,7.541204E-3,-0E0,4.171617E-3,-1.2401901E-3],"categories":[],"categories_nodes":[],"categories_segments":[],"categories_sizes":[],"default_left":[0,0,0,0,0,0,0,0,0,0,0],"id":60,"left_children":[1,3,5,-1,-1,7,9,-1,-1,-1,-1],"loss_changes":[3.187067E1,5.0167637E0,2.17793E1,0E0,0E0,3.893938E0,8.468039E0,0E0,0E0,0E0,0E0],"parents":[2147483647,0,0,1,1,2,2,5,5,6,6],"right_children":[2,4,6,-1,-1,8,10,-1,-1,-1,-1],"split_conditions":[-3.1051373E-1,8.707764E-2,1.2276854E-1,-8.233384E-3,-0E0,5.27682E-1,-6.231276E-1,7.541204E-3,-0E0,4.171617E-3,-1.2401901E-3],"split_indices":[4,26,5,0,0,1,1,0,0,0,0],"split_type":[0,0,0,0,0,0,0,0,0,0,0],"sum_hessian":[3.1197418E2,5.838945E1,2.5358472E2,4.4207664E1,1.4181785E1,6.4773254E1,1.8881146E2,5.2845634E1,1.1927625E1,3.297839E1,1.5583307E2],"tree_param":{"num_deleted":"0","num_feature":"28","num_nodes":"11","size_leaf_vector":"1"}},{"base_weights":[-2.9315382E-2,-3.2785496E-1,2.9753667E-1,7.063141E-3,-4.1579372E-1,1.6009346E-1,9.573724E-3,-5.082224E-3,-0E0,-1.7741612E-3,4.1905693E-3],"categories":[],"categories_nodes":[],"categories_segments":[],"categories_sizes":[],"default_left":[0,0,0,0,0,0,0,0,0,0,0],"id":61,"left_children":[1,3,5,-1,7,9,-1,-1,-1,-1,-1],"loss_changes":[3.0796452E1,1.5260065E1,1.0813462E1,0E0,6.941288E0,1.1713171E1,0E0,0E0,0E0,0E0,0E0],"parents":[2147483647,0,0,1,1,2,2,4,4,5,5],"right_children":[2,4,6,-1,8,10,-1,-1,-1,-1,-1],"split_conditions":[-1.8285346E-1,-6.6659766E-1,1.0068153E0,7.063141E-3,4.1049425E-3,-8.841286E-2,9.573724E-3,-5.082224E-3,-0E0,-1.7741612E-3,4.1905693E-3],"split_indices":[4,1,10,0,23,0,0,0,0,0,0],"split_type":[0,0,0,0,0,0,0,0,0,0,0],"sum_hessian":[3.1098688E2,1.6572766E2,1.452592E2,1.0103424E1,1.5562424E2,1.2478327E2,2.0475937E1,1.3037857E2,2.524567E1,5.109603E1,7.368724E1],"tree_param":{"num_deleted":"0","num_feature":"28","num_nodes":"11","size_leaf_vector":"1"}},{"base_weights":[-0E0,4.2750108E-1,-1.5199368E-1,5.4600614E-1,-0E0,2.9437476E-1,-2.755148E-1,8.896312E-3,2.8857158E-3,-2.4162969E-3,3.7850956E-3,-2.5253466E-3,9.117841E-3,-3.8257614E-3,2.921469E-3],"categories":[],"categories_nodes":[],"categories_segments":[],"categories_sizes":[],"default_left":[0,0,0,0,0,0,0,0,0,0,0,0,0,0,0],"id":62,"left_children":[1,3,5,7,9,11,13,-1,-1,-1,-1,-1,-1,-1,-1],"loss_changes":[2.0322145E1,3.3026037E0,1.2898787E1,2.5520248E0,2.4639926E0,1.7877182E1,1.1709243E1,0E0,0E0,0E0,0E0,0E0,0E0,0E0,0E0],"parents":[2147483647,0,0,1,1,2,2,3,3,4,4,5,5,6,6],"right_children":[2,4,6,8,10,12,14,-1,-1,-1,-1,-1,-1,-1,-1],"split_conditions":[-4.226994E-1,4.828E-1,1.1992738E-1,-9.7435087E-1,-8.6434625E-2,1E0,9.20402E-1,8.896312E-3,2.8857158E-3,-2.4162969E-3,3.7850956E-3,-2.5253466E-3,9.117841E-3,-3.8257614E-3,2.921469E-3],"split_indices":[1,17,5,1,13,11,1,0,0,0,0,0,0,0,0],"split_type":[0,0,0,0,0,0,0,0,0,0,0,0,0,0,0],"sum_hessian":[3.095976E2,7.991026E1,2.2968733E2,5.929117E1,2.0619093E1,4.5674694E1,1.8401263E2,1.9963413E1,3.9327755E1,1.0524917E1,1.0094176E1,2.3129173E1,2.2545519E1,1.5832733E2,2.5685303E1],"tree_param":{"num_deleted":"0","num_feature":"28","num_nodes":"15","size_leaf_vector":"1"}},{"base_weights":[5.7693534E-3,-4.4528577E-1,2.5783807E-1,2.105343E-3,-5.5473363E-1,1.4865427E-1,8.375042E-3,4.449061E-4,-6.535093E-3,-2.7003388E-3,2.813477E-3],"categories":[],"categories_nodes":[],"categories_segments":[],"categories_sizes":[],"default_left":[0,0,0,0,0,0,0,0,0,0,0],"id":63,"left_children":[1,3,5,-1,7,9,-1,-1,-1,-1,-1],"loss_changes":[3.4944798E1,8.712173E0,1.0569409E1,0E0,6.9685726E0,9.919247E0,0E0,0E0,0E0,0E0,0E0],"parents":[2147483647,0,0,1,1,2,2,4,4,5,5],"right_children":[2,4,6,-1,8,10,-1,-1,-1,-1,-1],"split_conditions":[-2.6183376E-1,-3.487557E-1,6.4134645E-1,2.105343E-3,-3.9593711E-1,-5.2857E-1,8.375042E-3,4.449061E-4,-6.535093E-3,-2.7003388E-3,2.813477E-3],"split_indices":[4,7,10,0,1,0,0,0,0,0,0],"split_type":[0,0,0,0,0,0,0,0,0,0,0],"sum_hessian":[3.0662823E2,1.0653166E2,2.0009659E2,1.2358399E1,9.417326E1,1.7339894E2,2.6697634E1,1.0616911E1,8.355635E1,3.760413E1,1.3579482E2],"tree_param":{"num_deleted":"0","num_feature":"28","num_nodes":"11","size_leaf_vector":"1"}},{"base_weights":[-3.4058336E-4,-4.008133E-1,2.1708159E-1,3.117586E-3,-5.417074E-1,-2.4076961E-2,3.7697163E-1,-6.378255E-3,-0E0,2.1777493E-3,-2.240612E-3,2.0321638E-3,8.902068E-3],"categories":[],"categories_nodes":[],"categories_segments":[],"categories_sizes":[],"default_left":[0,0,0,0,0,0,0,0,0,0,0,0,0],"id":64,"left_children":[1,3,5,-1,7,9,11,-1,-1,-1,-1,-1,-1],"loss_changes":[2.751389E1,1.2136602E1,8.390665E0,0E0,4.7791195E0,3.7939157E0,8.568945E0,0E0,0E0,0E0,0E0,0E0,0E0],"parents":[2147483647,0,0,1,1,2,2,4,4,5,5,6,6],"right_children":[2,4,6,-1,8,10,12,-1,-1,-1,-1,-1,-1],"split_conditions":[-2.5542367E-1,-3.786331E-1,-3.30511E-1,3.117586E-3,2.4412394E-2,1.4138196E-1,2.7571642E-1,-6.378255E-3,-0E0,2.1777493E-3,-2.240612E-3,2.0321638E-3,8.902068E-3],"split_indices":[4,1,6,0,23,5,27,0,0,0,0,0,0],"split_type":[0,0,0,0,0,0,0,0,0,0,0,0,0],"sum_hessian":[3.0777255E2,1.10940865E2,1.968317E2,1.5570835E1,9.537003E1,7.4163216E1,1.2266848E2,7.998205E1,1.53879795E1,2.896072E1,4.52025E1,9.663989E1,2.6028582E1],"tree_param":{"num_deleted":"0","num_feature":"28","num_nodes":"13","size_leaf_vector":"1"}},{"base_weights":[5.999683E-3,-5.657044E-1,1.6845839E-1,-0E0,-6.8278384E-1,5.9960586E-1,1.14582945E-2,-8.155989E-3,-1.7295046E-3,2.3833744E-3,8.434377E-3,5.16546E-3,-3.7499217E-4],"categories":[],"categories_nodes":[],"categories_segments":[],"categories_sizes":[],"default_left":[0,0,0,0,0,0,0,0,0,0,0,0,0],"id":65,"left_children":[1,3,5,-1,7,9,11,-1,-1,-1,-1,-1,-1],"loss_changes":[2.8227877E1,4.8340034E0,1.5415804E1,0E0,1.5305958E0,2.915928E0,5.590549E0,0E0,0E0,0E0,0E0,0E0,0E0],"parents":[2147483647,0,0,1,1,2,2,4,4,5,5,6,6],"right_children":[2,4,6,-1,8,10,12,-1,-1,-1,-1,-1,-1],"split_conditions":[-3.0444184E-1,-3.2579234E-1,1.1992738E-1,-0E0,-5.7285596E-2,1E0,-9.7435087E-1,-8.155989E-3,-1.7295046E-3,2.3833744E-3,8.434377E-3,5.16546E-3,-3.7499217E-4],"split_indices":[4,1,5,0,26,11,1,0,0,0,0,0,0],"split_type":[0,0,0,0,0,0,0,0,0,0,0,0,0],"sum_hessian":[3.0842526E2,6.4426956E1,2.439983E2,1.0458686E1,5.396827E1,6.022731E1,1.83771E2,3.8751038E1,1.5217235E1,2.9168188E1,3.1059122E1,1.81606E1,1.656104E2],"tree_param":{"num_deleted":"0","num_feature":"28","num_nodes":"13","size_leaf_vector":"1"}},{"base_weights":[-1.3164622E-2,3.855285E-1,-1.6003202E-1,4.693785E-1,-0E0,-3.225799E-1,1.22348525E-1,7.708885E-3,2.2944552E-3,9.596479E-4,-4.157544E-3,-6.3293475E-5,6.8296087E-3],"categories":[],"categories_nodes":[],"categories_segments":[],"categories_sizes":[],"default_left":[0,0,0,0,0,0,0,0,0,0,0,0,0],"id":66,"left_children":[1,3,5,7,-1,9,11,-1,-1,-1,-1,-1,-1],"loss_changes":[1.799967E1,3.5371666E0,1.1211478E1,2.7689457E0,0E0,6.7030954E0,7.3042974E0,0E0,0E0,0E0,0E0,0E0,0E0],"parents":[2147483647,0,0,1,1,2,2,3,3,5,5,6,6],"right_children":[2,4,6,8,-1,10,12,-1,-1,-1,-1,-1,-1],"split_conditions":[-4.456901E-1,8.87293E-1,2.0138976E-1,-9.7435087E-1,-0E0,9.700714E-2,3.428402E-1,7.708885E-3,2.2944552E-3,9.596479E-4,-4.157544E-3,-6.3293475E-5,6.8296087E-3],"split_indices":[1,17,1,1,0,5,27,0,0,0,0,0,0],"split_type":[0,0,0,0,0,0,0,0,0,0,0,0,0],"sum_hessian":[3.1099225E2,7.9179665E1,2.3181259E2,6.8821304E1,1.035836E1,1.5143777E2,8.037482E1,2.4842117E1,4.397919E1,2.3654701E1,1.27783066E2,6.407704E1,1.6297771E1],"tree_param":{"num_deleted":"0","num_feature":"28","num_nodes":"13","size_leaf_vector":"1"}},{"base_weights":[1.0058928E-2,-3.67148E-1,2.3431383E-1,1.9330826E-3,-4.7256476E-1,4.9557975E-1,7.7761E-2,-5.7009906E-3,-0E0,-3.1475935E-4,6.3460055E-3,-1.4711459E-3,2.9889762E-3],"categories":[],"categories_nodes":[],"categories_segments":[],"categories_sizes":[],"default_left":[0,0,0,0,0,0,0,0,0,0,0,0,0],"id":67,"left_children":[1,3,5,-1,7,9,11,-1,-1,-1,-1,-1,-1],"loss_changes":[2.6217794E1,7.4426346E0,6.9409885E0,0E0,5.2080936E0,6.348543E0,6.9547305E0,0E0,0E0,0E0,0E0,0E0,0E0],"parents":[2147483647,0,0,1,1,2,2,4,4,5,5,6,6],"right_children":[2,4,6,-1,8,10,12,-1,-1,-1,-1,-1,-1],"split_conditions":[-2.5542367E-1,-3.786331E-1,-3.459729E-1,1.9330826E-3,5.1488996E-2,-3.4471384E-1,-3.1908053E-1,-5.7009906E-3,-0E0,-3.1475935E-4,6.3460055E-3,-1.4711459E-3,2.9889762E-3],"split_indices":[4,1,3,0,23,9,6,0,0,0,0,0,0],"split_type":[0,0,0,0,0,0,0,0,0,0,0,0,0],"sum_hessian":[3.0904443E2,1.1142675E2,1.9761766E2,1.4372806E1,9.705395E1,6.763591E1,1.2998175E2,8.208456E1,1.496939E1,1.143696E1,5.6198948E1,6.02938E1,6.968796E1],"tree_param":{"num_deleted":"0","num_feature":"28","num_nodes":"13","size_leaf_vector":"1"}},{"base_weights":[-2.3251375E-2,-6.316932E-1,1.293711E-1,-7.404085E-1,-0E0,3.746917E-2,7.920987E-1,-8.73735E-3,-2.3817348E-3,-1.9098369E-4,7.817289E-3,1.5091039E-3,1.0864061E-2],"categories":[],"categories_nodes":[],"categories_segments":[],"categories_sizes":[],"default_left":[0,0,0,0,0,0,0,0,0,0,0,0,0],"id":68,"left_children":[1,3,5,7,-1,9,11,-1,-1,-1,-1,-1,-1],"loss_changes":[2.969375E1,4.082487E0,1.3179937E1,1.0058403E0,0E0,1.0799363E1,2.3001766E0,0E0,0E0,0E0,0E0,0E0,0E0],"parents":[2147483647,0,0,1,1,2,2,3,3,5,5,6,6],"right_children":[2,4,6,8,-1,10,12,-1,-1,-1,-1,-1,-1],"split_conditions":[-3.0221078E-1,-4.7069833E-2,1.0068153E0,-3.2074565E-1,-0E0,1.5193187E0,-9.386502E-2,-8.73735E-3,-2.3817348E-3,-1.9098369E-4,7.817289E-3,1.5091039E-3,1.0864061E-2],"split_indices":[4,23,10,4,0,18,4,0,0,0,0,0,0],"split_type":[0,0,0,0,0,0,0,0,0,0,0,0,0],"sum_hessian":[3.051837E2,6.2569946E1,2.4261374E2,5.2447254E1,1.0122692E1,2.1757327E2,2.5040472E1,3.7129128E1,1.5318125E1,2.015183E2,1.6054974E1,1.0967482E1,1.407299E1],"tree_param":{"num_deleted":"0","num_feature":"28","num_nodes":"13","size_leaf_vector":"1"}},{"base_weights":[-1.1532766E-2,-5.831498E-1,1.3752608E-1,-5.616576E-4,-7.496854E-1,6.502535E-1,-0E0,-8.597305E-3,-1.311495E-3,3.176368E-3,1.1322957E-2,3.1904303E-3,-9.3002734E-4],"categories":[],"categories_nodes":[],"categories_segments":[],"categories_sizes":[],"default_left":[0,0,0,0,0,0,0,0,0,0,0,0,0],"id":69,"left_children":[1,3,5,-1,7,9,11,-1,-1,-1,-1,-1,-1],"loss_changes":[2.7496084E1,4.214838E0,1.8496094E1,0E0,1.0688858E0,5.151678E0,5.3417063E0,0E0,0E0,0E0,0E0,0E0,0E0],"parents":[2147483647,0,0,1,1,2,2,4,4,5,5,6,6],"right_children":[2,4,6,-1,8,10,12,-1,-1,-1,-1,-1,-1],"split_conditions":[-3.0444184E-1,-3.35196E-1,1.0720492E-1,-5.616576E-4,-1.9403899E-1,-2.2845667E-2,-6.231276E-1,-8.597305E-3,-1.311495E-3,3.176368E-3,1.1322957E-2,3.1904303E-3,-9.3002734E-4],"split_indices":[4,6,5,0,6,27,1,0,0,0,0,0,0],"split_type":[0,0,0,0,0,0,0,0,0,0,0,0,0],"sum_hessian":[3.083641E2,6.5350075E1,2.4301404E2,1.9218662E1,4.613141E1,5.270324E1,1.903108E2,3.5756554E1,1.0374854E1,3.5603302E1,1.7099937E1,3.7307007E1,1.530038E2],"tree_param":{"num_deleted":"0","num_feature":"28","num_nodes":"13","size_leaf_vector":"1"}},{"base_weights":[-1.4806762E-2,-5.705922E-1,1.3506612E-1,-0E0,-7.377573E-1,4.492015E-2,5.343325E-1,-1.1006594E-3,-8.508141E-3,-5.2533136E-4,3.6952293E-3,-0E0,6.537461E-3],"categories":[],"categories_nodes":[],"categories_segments":[],"categories_sizes":[],"default_left":[0,0,0,0,0,0,0,0,0,0,0,0,0],"id":70,"left_children":[1,3,5,-1,7,9,11,-1,-1,-1,-1,-1,-1],"loss_changes":[2.6826048E1,6.521824E0,7.5303154E0,0E0,1.6703777E0,7.135575E0,1.4548349E0,0E0,0E0,0E0,0E0,0E0,0E0],"parents":[2147483647,0,0,1,1,2,2,4,4,5,5,6,6],"right_children":[2,4,6,-1,8,10,12,-1,-1,-1,-1,-1,-1],"split_conditions":[-3.0221078E-1,-3.0966356E-1,2.8648064E-1,-0E0,-2.816594E-1,2.7740425E-1,-2.1966569E-1,-1.1006594E-3,-8.508141E-3,-5.2533136E-4,3.6952293E-3,-0E0,6.537461E-3],"split_indices":[4,2,6,0,9,27,4,0,0,0,0,0,0],"split_type":[0,0,0,0,0,0,0,0,0,0,0,0,0],"sum_hessian":[3.0774472E2,6.700289E1,2.4074184E2,1.5745071E1,5.125782E1,2.0230077E2,3.844107E1,1.1125631E1,4.0132187E1,1.521398E2,5.0160954E1,1.0020623E1,2.8420446E1],"tree_param":{"num_deleted":"0","num_feature":"28","num_nodes":"13","size_leaf_vector":"1"}},{"base_weights":[6.309365E-3,-2.739151E-1,3.255741E-1,-6.5896314E-1,-9.4964534E-2,1.6366379E-1,9.011993E-3,-7.976994E-3,-0E0,4.8679127E-3,-1.8250928E-3,-3.6839251E-3,4.26272E-3],"categories":[],"categories_nodes":[],"categories_segments":[],"categories_sizes":[],"default_left":[0,0,0,0,0,0,0,0,0,0,0,0,0],"id":71,"left_children":[1,3,5,7,9,11,-1,-1,-1,-1,-1,-1,-1],"loss_changes":[2.8203783E1,9.664676E0,1.1567979E1,3.0427837E0,5.569712E0,1.7522478E1,0E0,0E0,0E0,0E0,0E0,0E0,0E0],"parents":[2147483647,0,0,1,1,2,2,3,3,4,4,5,5],"right_children":[2,4,6,8,10,12,-1,-1,-1,-1,-1,-1,-1],"split_conditions":[-1.9237998E-1,-3.2074565E-1,3.294249E-1,-2.2227214E-1,-6.047152E-1,-2.3888066E-1,9.011993E-3,-7.976994E-3,-0E0,4.8679127E-3,-1.8250928E-3,-3.6839251E-3,4.26272E-3],"split_indices":[4,4,10,26,1,0,0,0,0,0,0,0,0],"split_type":[0,0,0,0,0,0,0,0,0,0,0,0,0],"sum_hessian":[3.100981E2,1.6196136E2,1.4813675E2,4.6140285E1,1.15821075E2,1.20332954E2,2.7803799E1,3.5633102E1,1.0507184E1,1.0968219E1,1.0485286E2,3.6982716E1,8.3350235E1],"tree_param":{"num_deleted":"0","num_feature":"28","num_nodes":"13","size_leaf_vector":"1"}},{"base_weights":[-2.2774737E-2,-5.42422E-1,1.0344656E-1,-6.882823E-1,-0E0,4.7148642E-1,-9.833248E-3,-1.012151E-3,-8.519149E-3,5.894352E-3,-0E0,1.3891077E-3,-2.2375754E-3],"categories":[],"categories_nodes":[],"categories_segments":[],"categories_sizes":[],"default_left":[0,0,0,0,0,0,0,0,0,0,0,0,0],"id":72,"left_children":[1,3,5,7,-1,9,11,-1,-1,-1,-1,-1,-1],"loss_changes":[2.1340075E1,5.796303E0,1.1280679E1,2.9180202E0,0E0,4.1834183E0,6.201105E0,0E0,0E0,0E0,0E0,0E0,0E0],"parents":[2147483647,0,0,1,1,2,2,3,3,5,5,6,6],"right_children":[2,4,6,8,-1,10,12,-1,-1,-1,-1,-1,-1],"split_conditions":[-3.0444184E-1,-9.64417E-2,1.2276854E-1,-3.3462608E-1,-0E0,2.2322537E-1,1.6297969E-3,-1.012151E-3,-8.519149E-3,5.894352E-3,-0E0,1.3891077E-3,-2.2375754E-3],"split_indices":[4,23,5,6,0,9,15,0,0,0,0,0,0],"split_type":[0,0,0,0,0,0,0,0,0,0,0,0,0],"sum_hessian":[3.082566E2,6.2049995E1,2.4620659E2,5.0015E1,1.2034999E1,6.0612152E1,1.8559444E2,1.4271725E1,3.5743275E1,5.010219E1,1.0509964E1,1.04374115E2,8.122032E1],"tree_param":{"num_deleted":"0","num_feature":"28","num_nodes":"13","size_leaf_vector":"1"}},{"base_weights":[-0E0,-3.6885956E-1,1.9826187E-1,3.4131769E-3,-4.9593574E-1,5.64132E-1,6.1180644E-2,-0E0,-5.907677E-3,-0E0,8.3404565E-3,-1.8691746E-4,4.926148E-3],"categories":[],"categories_nodes":[],"categories_segments":[],"categories_sizes":[],"default_left":[0,0,0,0,0,0,0,0,0,0,0,0,0],"id":73,"left_children":[1,3,5,-1,7,9,11,-1,-1,-1,-1,-1,-1],"loss_changes":[2.2685081E1,1.056485E1,8.5482855E0,0E0,4.814686E0,8.74589E0,6.1127157E0,0E0,0E0,0E0,0E0,0E0,0E0],"parents":[2147483647,0,0,1,1,2,2,4,4,5,5,6,6],"right_children":[2,4,6,-1,8,10,12,-1,-1,-1,-1,-1,-1],"split_conditions":[-2.5542367E-1,-3.9593711E-1,1.0720492E-1,3.4131769E-3,-3.2303575E-1,-3.5817885E-1,-5.9123173E-2,-0E0,-5.907677E-3,-0E0,8.3404565E-3,-1.8691746E-4,4.926148E-3],"split_indices":[4,1,5,0,9,13,9,0,0,0,0,0,0],"split_type":[0,0,0,0,0,0,0,0,0,0,0,0,0],"sum_hessian":[3.026417E2,1.0788861E2,1.9475308E2,1.3474519E1,9.441409E1,4.740596E1,1.4734712E2,1.4673648E1,7.974044E1,1.4230645E1,3.3175316E1,1.220326E2,2.5314526E1],"tree_param":{"num_deleted":"0","num_feature":"28","num_nodes":"13","size_leaf_vector":"1"}},{"base_weights":[-0E0,-3.7459075E-1,2.0485164E-1,1.2782791E-1,-5.4151857E-1,1.22158706E-1,1.0172437E-2,-1.9969803E-3,4.821531E-3,-0E0,-6.1903093E-3,-5.5108307E-4,3.5366588E-3],"categories":[],"categories_nodes":[],"categories_segments":[],"categories_sizes":[],"default_left":[0,0,0,0,0,0,0,0,0,0,0,0,0],"id":74,"left_children":[1,3,5,7,9,11,-1,-1,-1,-1,-1,-1,-1],"loss_changes":[2.3983206E1,1.0323868E1,1.0802036E1,3.8278553E0,3.4311752E0,8.211496E0,0E0,0E0,0E0,0E0,0E0,0E0,0E0],"parents":[2147483647,0,0,1,1,2,2,3,3,4,4,5,5],"right_children":[2,4,6,8,10,12,-1,-1,-1,-1,-1,-1,-1],"split_conditions":[-2.5450602E-1,1.2717699E-1,1.6770152E0,-3.2074565E-1,-7.732732E-1,-2.0732363E-1,1.0172437E-2,-1.9969803E-3,4.821531E-3,-0E0,-6.1903093E-3,-5.5108307E-4,3.5366588E-3],"split_indices":[4,5,10,4,0,9,0,0,0,0,0,0,0],"split_type":[0,0,0,0,0,0,0,0,0,0,0,0,0],"sum_hessian":[3.0599655E2,1.09581085E2,1.9641547E2,2.445719E1,8.51239E1,1.8259213E2,1.3823347E1,1.0229584E1,1.4227607E1,1.149852E1,7.362538E1,9.938051E1,8.321162E1],"tree_param":{"num_deleted":"0","num_feature":"28","num_nodes":"13","size_leaf_vector":"1"}},{"base_weights":[4.9418796E-2,4.6123052E-1,-7.523239E-2,3.6855683E-2,8.2926404E-1,2.838686E-1,-2.0694435E-1,-3.1693347E-3,3.964843E-3,2.5131963E-3,1.1842093E-2,5.1210807E-3,-0E0,1.8839615E-3,-2.936388E-3],"categories":[],"categories_nodes":[],"categories_segments":[],"categories_sizes":[],"default_left":[0,0,0,0,0,0,0,0,0,0,0,0,0,0,0],"id":75,"left_children":[1,3,5,7,9,11,13,-1,-1,-1,-1,-1,-1,-1,-1],"loss_changes":[1.6786907E1,1.010565E1,1.1146954E1,5.499909E0,4.366808E0,4.6684756E0,6.4295735E0,0E0,0E0,0E0,0E0,0E0,0E0,0E0,0E0],"parents":[2147483647,0,0,1,1,2,2,3,3,4,4,5,5,6,6],"right_children":[2,4,6,8,10,12,14,-1,-1,-1,-1,-1,-1,-1,-1],"split_conditions":[1.1992738E-1,1E0,-2.7912283E-1,-3.1767675E-1,-2.207809E-1,1.4220078E-1,-5.600765E-1,-3.1693347E-3,3.964843E-3,2.5131963E-3,1.1842093E-2,5.1210807E-3,-0E0,1.8839615E-3,-2.936388E-3],"split_indices":[5,11,3,6,9,8,1,0,0,0,0,0,0,0,0],"split_type":[0,0,0,0,0,0,0,0,0,0,0,0,0,0,0],"sum_hessian":[3.0863E2,7.4185814E1,2.3444418E2,3.800142E1,3.618439E1,5.8219307E1,1.7622488E2,1.647252E1,2.15289E1,1.7211048E1,1.8973341E1,3.430452E1,2.3914785E1,2.7123165E1,1.4910172E2],"tree_param":{"num_deleted":"0","num_feature":"28","num_nodes":"15","size_leaf_vector":"1"}},{"base_weights":[-0E0,-5.31292E-1,1.3557222E-1,-0E0,-7.208059E-3,5.636317E-1,1.7138585E-2,8.360274E-3,1.6343361E-3,-5.040244E-4,4.158103E-3],"categories":[],"categories_nodes":[],"categories_segments":[],"categories_sizes":[],"default_left":[0,0,0,0,0,0,0,0,0,0,0],"id":76,"left_children":[1,3,5,-1,-1,7,9,-1,-1,-1,-1],"loss_changes":[2.279285E1,5.9234257E0,1.1199972E1,0E0,0E0,3.0914927E0,6.077599E0,0E0,0E0,0E0,0E0],"parents":[2147483647,0,0,1,1,2,2,5,5,6,6],"right_children":[2,4,6,-1,-1,8,10,-1,-1,-1,-1],"split_conditions":[-3.0444184E-1,-3.35196E-1,-6.751624E-1,-0E0,-7.208059E-3,-4.173733E-2,5.9265774E-1,8.360274E-3,1.6343361E-3,-5.040244E-4,4.158103E-3],"split_indices":[4,6,1,0,0,4,19,0,0,0,0],"split_type":[0,0,0,0,0,0,0,0,0,0,0],"sum_hessian":[3.0506033E2,6.2846283E1,2.4221405E2,1.821528E1,4.4631E1,4.72026E1,1.9501146E2,2.3816353E1,2.3386248E1,1.6396396E2,3.104749E1],"tree_param":{"num_deleted":"0","num_feature":"28","num_nodes":"11","size_leaf_vector":"1"}},{"base_weights":[4.2562097E-2,-6.428856E-1,1.6713504E-1,-8.105007E-3,-4.8097584E-4,6.614623E-3,2.2700584E-2,4.411516E-3,-4.8081804E-4],"categories":[],"categories_nodes":[],"categories_segments":[],"categories_sizes":[],"default_left":[0,0,0,0,0,0,0,0,0],"id":77,"left_children":[1,3,5,-1,-1,-1,7,-1,-1],"loss_changes":[2.5935448E1,2.7890072E0,1.7763437E1,0E0,0E0,0E0,7.134361E0,0E0,0E0],"parents":[2147483647,0,0,1,1,2,2,6,6],"right_children":[2,4,6,-1,-1,-1,8,-1,-1],"split_conditions":[-3.2074565E-1,-1.7701603E-1,1.0720492E-1,-8.105007E-3,-4.8097584E-4,6.614623E-3,-6.751624E-1,4.411516E-3,-4.8081804E-4],"split_indices":[4,13,5,0,0,0,1,0,0],"split_type":[0,0,0,0,0,0,0,0,0],"sum_hessian":[3.1036215E2,4.3981716E1,2.6638043E2,3.112313E1,1.2858584E1,5.5483063E1,2.1089735E2,3.3086624E1,1.7781073E2],"tree_param":{"num_deleted":"0","num_feature":"28","num_nodes":"9","size_leaf_vector":"1"}},{"base_weights":[-1.954596E-2,-5.477035E-1,1.14792705E-1,-0E0,-7.628758E-1,1.029132E-2,7.290699E-1,-9.162543E-3,-1.5350959E-3,4.836277E-3,-8.238011E-4,9.35788E-3,5.9745996E-4],"categories":[],"categories_nodes":[],"categories_segments":[],"categories_sizes":[],"default_left":[0,0,0,0,0,0,0,0,0,0,0,0,0],"id":78,"left_children":[1,3,5,-1,7,9,11,-1,-1,-1,-1,-1,-1],"loss_changes":[2.2621984E1,7.647238E0,1.4020142E1,0E0,1.9475498E0,1.0153019E1,2.3697186E0,0E0,0E0,0E0,0E0,0E0,0E0],"parents":[2147483647,0,0,1,1,2,2,4,4,5,5,6,6],"right_children":[2,4,6,-1,8,10,12,-1,-1,-1,-1,-1,-1],"split_conditions":[-3.0444184E-1,-3.3462608E-1,6.848481E-1,-0E0,-5.7285596E-2,1.0720492E-1,8.1673324E-2,-9.162543E-3,-1.5350959E-3,4.836277E-3,-8.238011E-4,9.35788E-3,5.9745996E-4],"split_indices":[4,6,10,0,26,5,21,0,0,0,0,0,0],"split_type":[0,0,0,0,0,0,0,0,0,0,0,0,0],"sum_hessian":[3.0286E2,6.3183872E1,2.3967612E2,1.8445045E1,4.473883E1,2.0935059E2,3.032554E1,3.23156E1,1.2423228E1,3.6428658E1,1.7292192E2,2.0278345E1,1.0047195E1],"tree_param":{"num_deleted":"0","num_feature":"28","num_nodes":"13","size_leaf_vector":"1"}},{"base_weights":[-7.3582144E-3,-9.78945E-2,6.301781E-1,2.6488078E-1,-2.3589337E-1,8.41236E-3,-0E0,8.340843E-3,-0E0,-3.9439253E-3,1.1773768E-4],"categories":[],"categories_nodes":[],"categories_segments":[],"categories_sizes":[],"default_left":[0,0,0,0,0,0,0,0,0,0,0],"id":79,"left_children":[1,3,5,7,9,-1,-1,-1,-1,-1,-1],"loss_changes":[1.6819239E1,1.377985E1,3.4749222E0,9.312885E0,8.762265E0,0E0,0E0,0E0,0E0,0E0,0E0],"parents":[2147483647,0,0,1,1,2,2,3,3,4,4],"right_children":[2,4,6,8,10,-1,-1,-1,-1,-1,-1],"split_conditions":[6.4134645E-1,-3.8147295E-1,1.5664259E-1,1.2523876E-1,1.777633E-2,8.41236E-3,-0E0,8.340843E-3,-0E0,-3.9439253E-3,1.1773768E-4],"split_indices":[10,2,8,5,19,0,0,0,0,0,0],"split_type":[0,0,0,0,0,0,0,0,0,0,0],"sum_hessian":[3.056988E2,2.7191434E2,3.3784473E1,7.043117E1,2.0148315E2,2.299132E1,1.0793155E1,1.8691185E1,5.1739983E1,1.2705954E2,7.4423615E1],"tree_param":{"num_deleted":"0","num_feature":"28","num_nodes":"11","size_leaf_vector":"1"}},{"base_weights":[2.434548E-4,-3.5913846E-1,2.0910041E-1,2.5072836E-4,-4.594744E-1,1.00982554E-1,6.288882E-1,-5.567407E-3,-0E0,-3.2327923E-3,2.9119106E-3,8.2853595E-3,-0E0],"categories":[],"categories_nodes":[],"categories_segments":[],"categories_sizes":[],"default_left":[0,0,0,0,0,0,0,0,0,0,0,0,0],"id":80,"left_children":[1,3,5,-1,7,9,11,-1,-1,-1,-1,-1,-1],"loss_changes":[2.276E1,5.1092978E0,7.391692E0,0E0,4.905569E0,1.3316473E1,3.6999235E0,0E0,0E0,0E0,0E0,0E0,0E0],"parents":[2147483647,0,0,1,1,2,2,4,4,5,5,6,6],"right_children":[2,4,6,-1,8,10,12,-1,-1,-1,-1,-1,-1],"split_conditions":[-2.5542367E-1,1.1378564E-1,3.294249E-1,2.5072836E-4,2.0972757E-1,-3.0743885E-1,5.3718185E-1,-5.567407E-3,-0E0,-3.2327923E-3,2.9119106E-3,8.2853595E-3,-0E0],"split_indices":[4,5,10,0,5,0,21,0,0,0,0,0,0],"split_type":[0,0,0,0,0,0,0,0,0,0,0,0,0],"sum_hessian":[3.0322333E2,1.0740155E2,1.9582178E2,1.8422895E1,8.897865E1,1.6147797E2,3.4343807E1,7.5792854E1,1.31858015E1,4.6297344E1,1.15180626E2,2.4328703E1,1.0015103E1],"tree_param":{"num_deleted":"0","num_feature":"28","num_nodes":"13","size_leaf_vector":"1"}},{"base_weights":[1.7619308E-2,-5.009104E-1,1.6041596E-1,-6.221962E-1,-0E0,5.2469563E-1,2.2487363E-2,-8.409513E-3,-2.439242E-3,6.4217923E-3,-0E0,-2.2904747E-3,1.6531079E-3],"categories":[],"categories_nodes":[],"categories_segments":[],"categories_sizes":[],"default_left":[0,0,0,0,0,0,0,0,0,0,0,0,0],"id":81,"left_children":[1,3,5,7,-1,9,11,-1,-1,-1,-1,-1,-1],"loss_changes":[2.2266104E1,4.1127415E0,1.1233681E1,1.7267208E0,0E0,4.499176E0,6.5723495E0,0E0,0E0,0E0,0E0,0E0,0E0],"parents":[2147483647,0,0,1,1,2,2,3,3,5,5,6,6],"right_children":[2,4,6,8,-1,10,12,-1,-1,-1,-1,-1,-1],"split_conditions":[-3.0444184E-1,-4.7069833E-2,1.1992738E-1,-3.30339E-1,-0E0,2.2322537E-1,-3.3412412E-1,-8.409513E-3,-2.439242E-3,6.4217923E-3,-0E0,-2.2904747E-3,1.6531079E-3],"split_indices":[4,23,5,4,0,9,6,0,0,0,0,0,0],"split_type":[0,0,0,0,0,0,0,0,0,0,0,0,0],"sum_hessian":[3.0573984E2,6.1909523E1,2.4383032E2,5.004572E1,1.1863803E1,6.1443913E1,1.8238641E2,2.6808723E1,2.3236998E1,5.126369E1,1.0180221E1,6.0545467E1,1.2184094E2],"tree_param":{"num_deleted":"0","num_feature":"28","num_nodes":"13","size_leaf_vector":"1"}},{"base_weights":[-0E0,-5.9245065E-2,9.568923E-3,2.8331554E-1,-1.879267E-1,-5.70317E-4,4.545561E-3,2.9290977E-3,-2.8324556E-3],"categories":[],"categories_nodes":[],"categories_segments":[],"categories_sizes":[],"default_left":[0,0,0,0,0,0,0,0,0],"id":82,"left_children":[1,3,-1,5,7,-1,-1,-1,-1],"loss_changes":[1.6783789E1,1.3037576E1,0E0,5.3834615E0,1.031394E1,0E0,0E0,0E0,0E0],"parents":[2147483647,0,0,1,1,3,3,4,4],"right_children":[2,4,-1,6,8,-1,-1,-1,-1],"split_conditions":[1.6770152E0,-4.336342E-1,9.568923E-3,-6.531301E-1,-3.548671E-1,-5.70317E-4,4.545561E-3,2.9290977E-3,-2.8324556E-3],"split_indices":[10,1,0,0,7,0,0,0,0],"split_type":[0,0,0,0,0,0,0,0,0],"sum_hessian":[3.1086353E2,2.9567456E2,1.5188971E1,7.5839165E1,2.198354E2,2.1922256E1,5.3916904E1,3.2212288E1,1.8762311E2],"tree_param":{"num_deleted":"0","num_feature":"28","num_nodes":"9","size_leaf_vector":"1"}},{"base_weights":[-0E0,-2.780186E-1,2.9815975E-1,3.2174313E-1,-4.1340628E-1,1.5953363E-1,7.8768283E-1,6.309887E-3,-0E0,-6.133469E-3,-1.4245432E-3,5.851691E-4,9.143739E-3,1.26889665E-2,3.1191122E-4],"categories":[],"categories_nodes":[],"categories_segments":[],"categories_sizes":[],"default_left":[0,0,0,0,0,0,0,0,0,0,0,0,0,0,0],"id":83,"left_children":[1,3,5,7,9,11,13,-1,-1,-1,-1,-1,-1,-1,-1],"loss_changes":[2.6170773E1,1.3871055E1,8.079002E0,2.8203075E0,5.8138885E0,7.3347363E0,8.081537E0,0E0,0E0,0E0,0E0,0E0,0E0,0E0,0E0],"parents":[2147483647,0,0,1,1,2,2,3,3,4,4,5,5,6,6],"right_children":[2,4,6,8,10,12,14,-1,-1,-1,-1,-1,-1,-1,-1],"split_conditions":[-1.8690366E-1,-4.226994E-1,-5.9123173E-2,1.39796E-1,-3.1019625E-1,1.6770152E0,1.9105944E-1,6.309887E-3,-0E0,-6.133469E-3,-1.4245432E-3,5.851691E-4,9.143739E-3,1.26889665E-2,3.1191122E-4],"split_indices":[4,1,9,5,12,10,9,0,0,0,0,0,0,0,0],"split_type":[0,0,0,0,0,0,0,0,0,0,0,0,0,0,0],"sum_hessian":[3.1196402E2,1.6329123E2,1.486728E2,2.6844763E1,1.3644647E2,1.21112755E2,2.7560041E1,1.25832615E1,1.4261501E1,7.280992E1,6.3636543E1,1.1105536E2,1.0057403E1,1.4400949E1,1.3159093E1],"tree_param":{"num_deleted":"0","num_feature":"28","num_nodes":"15","size_leaf_vector":"1"}},{"base_weights":[9.378577E-3,-5.22619E-1,1.4460337E-1,-0E0,-6.795494E-1,4.8146668E-1,4.3181665E-2,-8.688213E-3,-1.7821386E-3,5.998657E-3,-0E0,-3.1026793E-3,1.4068766E-3],"categories":[],"categories_nodes":[],"categories_segments":[],"categories_sizes":[],"default_left":[0,0,0,0,0,0,0,0,0,0,0,0,0],"id":84,"left_children":[1,3,5,-1,7,9,11,-1,-1,-1,-1,-1,-1],"loss_changes":[2.1426321E1,4.0188065E0,7.407551E0,0E0,1.7615299E0,2.7428503E0,6.5699778E0,0E0,0E0,0E0,0E0,0E0,0E0],"parents":[2147483647,0,0,1,1,2,2,4,4,5,5,6,6],"right_children":[2,4,6,-1,8,10,12,-1,-1,-1,-1,-1,-1],"split_conditions":[-3.0444184E-1,-3.3462608E-1,-6.751624E-1,-0E0,6.918053E-2,1.2187458E0,-3.3845165E-1,-8.688213E-3,-1.7821386E-3,5.998657E-3,-0E0,-3.1026793E-3,1.4068766E-3],"split_indices":[4,6,1,0,14,15,6,0,0,0,0,0,0],"split_type":[0,0,0,0,0,0,0,0,0,0,0,0,0],"sum_hessian":[3.0424734E2,5.7502563E1,2.4674478E2,1.5606219E1,4.1896347E1,5.0800705E1,1.9594406E2,2.6453747E1,1.5442598E1,3.963694E1,1.1163766E1,3.6988556E1,1.589555E2],"tree_param":{"num_deleted":"0","num_feature":"28","num_nodes":"13","size_leaf_vector":"1"}},{"base_weights":[2.0587966E-2,-2.2524288E-1,2.9943624E-1,-3.3999E-1,2.5762078E-1,1.7547017E-1,8.981206E-3,-0E0,-4.7742636E-3,-3.2614293E-3,8.001443E-3,-3.628368E-4,4.73933E-3],"categories":[],"categories_nodes":[],"categories_segments":[],"categories_sizes":[],"default_left":[0,0,0,0,0,0,0,0,0,0,0,0,0],"id":85,"left_children":[1,3,5,7,9,11,-1,-1,-1,-1,-1,-1,-1],"loss_changes":[2.109088E1,9.130318E0,8.439324E0,5.3897667E0,1.0418027E1,8.932725E0,0E0,0E0,0E0,0E0,0E0,0E0,0E0],"parents":[2147483647,0,0,1,1,2,2,3,3,4,4,5,5],"right_children":[2,4,6,8,10,12,-1,-1,-1,-1,-1,-1,-1],"split_conditions":[-1.9237998E-1,2.7589104E-1,1.0068153E0,-3.3462608E-1,-3.4222743E-1,-2.0732363E-1,8.981206E-3,-0E0,-4.7742636E-3,-3.2614293E-3,8.001443E-3,-3.628368E-4,4.73933E-3],"split_indices":[4,13,10,6,10,9,0,0,0,0,0,0,0],"split_type":[0,0,0,0,0,0,0,0,0,0,0,0,0],"sum_hessian":[3.015412E2,1.566509E2,1.448903E2,1.303972E2,2.625369E1,1.24945435E2,1.9944872E1,4.160863E1,8.8788574E1,1.12546835E1,1.4999007E1,7.019749E1,5.474795E1],"tree_param":{"num_deleted":"0","num_feature":"28","num_nodes":"13","size_leaf_vector":"1"}},{"base_weights":[-1.4061379E-2,6.0361457E-1,-1.474276E-1,2.6036835E-1,9.44972E-3,-3.2874817E-1,9.0237655E-2,-1.9501717E-3,5.7803653E-3,-4.139761E-3,7.146106E-4,-0E0,7.933185E-3],"categories":[],"categories_nodes":[],"categories_segments":[],"categories_sizes":[],"default_left":[0,0,0,0,0,0,0,0,0,0,0,0,0],"id":86,"left_children":[1,3,5,7,-1,9,11,-1,-1,-1,-1,-1,-1],"loss_changes":[2.5024593E1,3.3372898E0,1.1802715E1,5.6549244E0,0E0,5.9800262E0,7.7655253E0,0E0,0E0,0E0,0E0,0E0,0E0],"parents":[2147483647,0,0,1,1,2,2,3,3,5,5,6,6],"right_children":[2,4,6,8,-1,10,12,-1,-1,-1,-1,-1,-1],"split_conditions":[-6.751624E-1,-7.256302E-2,-1.939546E-1,-1.15848795E-1,9.44972E-3,4.2423838E-1,1.1331807E0,-1.9501717E-3,5.7803653E-3,-4.139761E-3,7.146106E-4,-0E0,7.933185E-3],"split_indices":[1,0,4,8,0,18,10,0,0,0,0,0,0],"split_type":[0,0,0,0,0,0,0,0,0,0,0,0,0],"sum_hessian":[3.1069592E2,5.1256565E1,2.5943933E2,3.0236855E1,2.101971E1,1.5150287E2,1.0793648E2,1.0155295E1,2.008156E1,1.2896687E2,2.2535994E1,9.61752E1,1.1761276E1],"tree_param":{"num_deleted":"0","num_feature":"28","num_nodes":"13","size_leaf_vector":"1"}},{"base_weights":[4.327282E-2,-3.380585E-1,2.4127461E-1,2.7977529E-3,-4.4076043E-1,6.1496824E-1,1.1951288E-1,7.8532327E-4,-5.3420747E-3,2.6576093E-3,9.450128E-3,1.4438177E-4,5.671602E-3],"categories":[],"categories_nodes":[],"categories_segments":[],"categories_sizes":[],"default_left":[0,0,0,0,0,0,0,0,0,0,0,0,0],"id":87,"left_children":[1,3,5,-1,7,9,11,-1,-1,-1,-1,-1,-1],"loss_changes":[2.3292955E1,7.1014137E0,7.8459167E0,0E0,5.451584E0,2.4452724E0,6.5043344E0,0E0,0E0,0E0,0E0,0E0,0E0],"parents":[2147483647,0,0,1,1,2,2,4,4,5,5,6,6],"right_children":[2,4,6,-1,8,10,12,-1,-1,-1,-1,-1,-1],"split_conditions":[-2.6183376E-1,-3.9593711E-1,9.700714E-2,2.7977529E-3,-3.487557E-1,-1.5211442E-1,1.2291672E0,7.8532327E-4,-5.3420747E-3,2.6576093E-3,9.450128E-3,1.4438177E-4,5.671602E-3],"split_indices":[4,1,5,0,7,16,21,0,0,0,0,0,0],"split_type":[0,0,0,0,0,0,0,0,0,0,0,0,0],"sum_hessian":[3.069016E2,1.0095565E2,2.0594595E2,1.1122547E1,8.983311E1,4.458509E1,1.6136086E2,1.048482E1,7.934828E1,2.6362354E1,1.8222736E1,1.35976E2,2.5384863E1],"tree_param":{"num_deleted":"0","num_feature":"28","num_nodes":"13","size_leaf_vector":"1"}},{"base_weights":[1.3344819E-2,-3.0249822E-1,2.4864388E-1,3.0489452E-3,-4.2453456E-1,1.1173747E-1,7.050698E-1,-5.0529656E-3,-0E0,-3.1639098E-3,2.9248793E-3,9.320172E-3,-0E0],"categories":[],"categories_nodes":[],"categories_segments":[],"categories_sizes":[],"default_left":[0,0,0,0,0,0,0,0,0,0,0,0,0],"id":88,"left_children":[1,3,5,-1,7,9,11,-1,-1,-1,-1,-1,-1],"loss_changes":[2.2944946E1,1.0048232E1,9.539569E0,0E0,4.608076E0,1.1376235E1,5.411709E0,0E0,0E0,0E0,0E0,0E0,0E0],"parents":[2147483647,0,0,1,1,2,2,4,4,5,5,6,6],"right_children":[2,4,6,-1,8,10,12,-1,-1,-1,-1,-1,-1],"split_conditions":[-2.2991714E-1,-4.119816E-1,3.294249E-1,3.0489452E-3,1.169802E0,-3.4079865E-1,5.3718185E-1,-5.0529656E-3,-0E0,-3.1639098E-3,2.9248793E-3,9.320172E-3,-0E0],"split_indices":[4,1,10,0,26,0,21,0,0,0,0,0,0],"split_type":[0,0,0,0,0,0,0,0,0,0,0,0,0],"sum_hessian":[3.0616705E2,1.268392E2,1.7932785E2,1.7977451E1,1.08861755E2,1.4323543E2,3.6092434E1,9.4303444E1,1.4558305E1,3.8790287E1,1.0444514E2,2.602991E1,1.0062525E1],"tree_param":{"num_deleted":"0","num_feature":"28","num_nodes":"13","size_leaf_vector":"1"}},