tree
version=v4
num_class=1
num_tree_per_iteration=1
label_index=0
max_feature_idx=11
objective=binary sigmoid:1
feature_names=revenue_t1 cagr_2y growth_recent growth_acceleration growth_volatility profitable_years capex_intensity capex_trend capex_vs_industry operating_margin debt_ratio rnd_intensity
feature_infos=[7920000:5367473556072] [-0.87187836975585953:18.689252567496482] [-0.97614041679661678:149] [-147.41555555555556:149.99623589476374] [0.00092664121144620003:85.461167416628243] [0:2] [-2.1545188564201543:822.86473017676769] [-29.249209685785932:3127.6846419310577] [-29116044980.166668:426068486920.83331] [-175.33876262626262:0.68604651162790697] [0.0110051031605344:2006.4224054189433] [0:295.93406174242426]
tree_sizes=1067 1136 1152 1187 1236 944 1092 1216 1248 1282 1348 1325 1329 1261 1461 1305 1282 1112 1218 1200 1118 1143 1216 1261 1292 1249 1217 1419 1208 1181 1301 1294 1208 1104 1305 1218 1187 1143 1321 1303 1325 1268 1226 1292 1309 1079 1309 1186 1409 1220 1360 1303 1476 1221 1432 1384 1311 1404 1418 1299 1178 1378 1195 1276 1244 1005 1123 1265 1400 1420 1409 1332 1322 1156 1385 1373 1504 1517 1408 1207 1369 1318 1492 1388 1396 1431 1218 1435 1329 1470 1387 1218 1313 1316 1538 1228 1340 1507 1515 1435 1297 1382 1330 1412 1331 1278 1305 1418 1271 1446 1463 1192 1552 1317 1294 1541 1397 1431 1365 1504 1341 1318 1527 1413 1312 1272 1265 1064 1390 1457 1510 1537 1498 1310 1335 1314 1220 1385 1398

Tree=0
num_leaves=9
num_cat=0
split_feature=2 3 7 3 7 2 0 8
split_gain=55.3974 24.6478 7.79277 6.03136 4.23096 3.39519 3.12365 0.120464
threshold=-0.20785671683107951 0.46694132542376465 0.2550821266955029 -0.21819506306280959 -0.50790669298886926 0.74595745069500885 12760269830.500002 -1886041897.7994504
decision_type=2 2 2 2 2 2 2 2
left_child=-1 2 4 -4 -2 -3 -5 -8
right_child=1 5 3 6 -6 -7 7 -9
leaf_value=-0.80836714079332206 -0.85431543304585011 -0.81806531691077033 -0.83133041763724669 -0.87156473239166576 -0.87584033289547969 -0.85074743079029014 -0.85431543304585011 -0.85062189145187195
leaf_weight=27.851422563195229 17.171553760766983 13.402188301086428 9.4234136492013914 15.496280223131178 57.37811866402626 14.449234262108801 9.2140044569969159 9.2140044569969195
leaf_count=133 82 64 45 74 274 69 44 44
internal_value=-0.850616 -0.858108 -0.865159 -0.854315 -0.871539 -0.831635 -0.860588 -0.854315
internal_weight=173.6 145.749 117.897 43.3477 74.5497 27.8514 33.9243 18.428
internal_count=829 696 563 207 356 133 162 88
is_linear=0
shrinkage=1


Tree=1
num_leaves=10
num_cat=0
split_feature=1 4 6 1 7 3 7 10 9
split_gain=77.3305 20.56 10.5127 8.10343 6.98944 3.72639 1.96207 0.656754 0.604195
threshold=-0.16726573278209403 0.16688507088196966 0.030644339502932404 -0.039419568370570542 0.19190893931910458 -0.004350431920869949 -0.23355374009378851 0.99625196019571927 0.097440207011793914
decision_type=2 2 2 2 2 2 2 2 2
left_child=-1 3 5 -2 7 -3 -5 -4 -8
right_child=1 2 4 6 -6 -7 8 -9 -10
leaf_value=0.061258147279294309 0 -0.021902211490484755 -0.0025208286245052415 0 0.026662473721256602 0 -0.030233897280685609 0.0063464599898753696 -0.0075178511958809485
leaf_weight=21.651992917060852 12.781064659357069 11.766988545656206 10.251410260796549 9.1810913383960706 28.023459032177925 15.953711450099943 34.526973277330399 15.515617176890371 14.160963520407675
leaf_count=102 61 56 49 44 133 76 166 74 68
internal_value=0.00358486 -0.0040822 0.0062651 -0.017296 0.0152893 -0.00795762 -0.0226591 0 -0.025546
internal_weight=173.813 152.161 81.5112 70.6501 53.7905 27.7207 57.869 25.767 48.6879
internal_count=829 727 388 339 256 132 278 123 234
is_linear=0
shrinkage=0.032603


Tree=2
num_leaves=10
num_cat=0
split_feature=1 4 6 2 0 7 2 1 4
split_gain=70.7744 19.4084 9.79096 8.28047 8.51583 6.42529 1.26223 0.561519 0.0351992
threshold=-0.16726573278209403 0.16688507088196966 0.030644339502932404 -0.08689473606268884 47063768740.000008 0.19190893931910458 0.21758632677443512 0.024290126874756904 0.30778691604499681
decision_type=2 2 2 2 2 2 2 2 2
left_child=-1 3 6 -2 -5 7 -3 -4 -7
right_child=1 2 5 4 -6 8 -8 -9 -10
leaf_value=0.057917499862203368 0.0028549722927503334 -0.014858439141431826 0.0077714851929167024 -0.028174672864047064 0 0.0047293484661403307 0 -0.00034611501955890162 0.031167385436409012
leaf_weight=22.155409827828407 10.686787083745001 13.341473460197451 9.6781905293464678 47.466700941324234 12.021324679255484 9.5620024502277392 14.275646030902861 16.117838233709335 18.754889816045761
leaf_count=102 51 64 46 230 58 45 68 77 88
internal_value=0.00343654 -0.00396551 0.00602254 -0.0168829 -0.0219576 0.0147037 -0.00768625 0 0.0255283
internal_weight=174.06 151.905 81.73 70.1748 59.488 54.1129 27.6171 25.796 28.3169
internal_count=829 727 388 339 288 256 132 123 133
is_linear=0
shrinkage=0.032603


Tree=3
num_leaves=11
num_cat=0
split_feature=1 7 2 7 2 7 1 2 1 9
split_gain=64.9233 12.4357 8.04817 6.36835 6.14885 5.32844 2.44597 2.33255 3.86532 0.21939
threshold=-0.18207434631521521 0.2550821266955029 -0.095798953829726682 -0.50790669298886926 0.1629846530082539 0.70283488307484276 0.060505344451904558 -0.11913001478484934 -0.027771446041346796 0.049739582572363057
decision_type=2 2 2 2 2 2 2 2 2 2
left_child=-1 3 -3 9 6 -6 -4 -5 -9 -2
right_child=1 2 4 7 5 -7 -8 8 -10 -11
leaf_value=0.056109676617931946 0.004723304173802326 0.034051568700628962 -0.018964430925490577 0 0.029747218726565675 0 0 0 -0.023484639690863202 0
leaf_weight=21.724834084510803 10.280893459916117 9.6265239715576154 14.39881579577923 10.333379298448561 10.630707725882532 17.797514796257019 9.2396785914897901 9.2974308580160123 46.583903476595879 14.23455026745796
leaf_count=98 49 45 70 49 50 84 44 45 227 68
internal_value=0.00334075 -0.00363664 0.00673562 -0.0116936 0 0.0116707 -0.0105307 -0.0170059 -0.0196659 0
internal_weight=174.148 152.423 61.6932 90.7302 52.0667 28.4282 23.6385 66.2147 55.8813 24.5154
internal_count=829 731 293 438 248 134 114 321 272 117
is_linear=0
shrinkage=0.032603


Tree=4
num_leaves=11
num_cat=0
split_feature=4 10 10 4 3 9 9 11 7 9
split_gain=32.6846 12.0213 10.0953 3.86034 2.84281 1.8054 1.55832 2.76037 0.626516 0.194193
threshold=0.16688507088196966 1.6603995875518274 0.51734412333190971 0.27847773495311806 0.067706054270566265 0.013946856420410152 0.13253754030852913 0.056349347490340103 0.11165207811154106 0.07295788029853166
decision_type=2 2 2 2 2 2 2 2 2 2
left_child=2 5 -1 -3 -5 -2 7 -7 -4 -10
right_child=1 3 8 4 -6 6 -8 -9 9 -11
leaf_value=0.0029489444302501218 0.010889550500049749 0 -0.029284960352002495 0.042636468250480675 0.011191206358141997 -0.017198141800551393 0.0032666129535929801 0 0 -0.015968586457473774
leaf_weight=12.771218806505201 15.091327667236326 11.513488560914992 35.705435335636139 16.589076980948448 16.740499064326286 15.102775961160662 16.873038187623024 14.933873951435087 12.140586897730829 10.727677986025808
leaf_count=62 70 54 175 77 78 71 79 70 59 52
internal_value=0 0.0108872 -0.017562 0.0237833 0.0297073 5.07965e-05 -0.00152329 -0.00724074 -0.0235844 -0.0105675
internal_weight=178.189 106.844 71.3449 44.8431 33.3296 62.001 46.9097 30.0366 58.5737 22.8683
internal_count=847 499 348 209 155 290 220 141 286 111
is_linear=0
shrinkage=0.032603


Tree=5
num_leaves=8
num_cat=0
split_feature=4 2 10 10 3 9 2
split_gain=30.9795 13.2681 9.72782 6.67259 5.02353 4.97789 3.31837
threshold=0.16688507088196966 -0.095798953829726682 0.51734412333190971 1.4302273075504981 0.36242247777688474 0.032358183479010004 -0.093993509080003632
decision_type=2 2 2 2 2 2 2
left_child=2 -2 -1 4 -3 -5 -4
right_child=1 3 6 5 -6 -7 -8
leaf_value=0.0028505598545874263 0.027654540766982597 -0.017666405999847527 0 0 0.002427778012467166 0.022562821219672378 -0.026607480330744709
leaf_weight=12.786931648850439 33.821900099515915 21.349122479557991 9.2854124605655652 12.017911747097967 18.429576337337494 21.531687751412392 48.765809342265129
leaf_count=62 154 102 44 56 86 101 242
internal_value=0 0.0105944 -0.0171492 0.00143664 -0.00610019 0.0130668 -0.0231186
internal_weight=177.988 107.15 70.8382 73.3283 39.7787 33.5496 58.0512
internal_count=847 499 348 345 188 157 286
is_linear=0
shrinkage=0.032603


Tree=6
num_leaves=10
num_cat=0
split_feature=1 1 1 3 10 3 10 7 10
split_gain=45.8894 7.25845 10.396 5.11313 4.0262 2.93121 1.92508 1.65929 0.696093
threshold=-0.17649727824737158 0.18873610519267178 -0.059469423662573143 0.46694132542376465 1.4302273075504981 -0.31142438947876999 0.42247257850936787 0.22849549474163688 0.56368680394003301
decision_type=2 2 2 2 2 2 2 2 2
left_child=-1 2 7 5 8 -4 -7 -2 -3
right_child=1 4 3 -5 -6 6 -8 -9 -10
leaf_value=0.040554631752852302 0 0 0 0 0.01631876111070232 0 -0.024388769262217211 0.015332731013782944 -0.008319053385735185
leaf_weight=24.788363993167877 15.404162883758547 9.4435831308364886 9.4320188015699369 9.8128850758075696 16.933473363518715 9.2089753001928312 60.638597875833511 9.4186386764049512 12.714673444628714
leaf_count=109 73 45 44 46 79 45 301 44 61
internal_value=0 -0.00710215 -0.0114719 -0.0169262 0.00329973 -0.0197557 -0.0220762 0.004432 -0.00260844
internal_weight=177.795 153.007 113.915 89.0925 39.0917 79.2796 69.8476 24.8228 22.1583
internal_count=847 738 553 436 185 390 346 117 106
is_linear=0
shrinkage=0.032603


Tree=7
num_leaves=11
num_cat=0
split_feature=4 2 2 9 3 4 4 7 6 9
split_gain=27.606 11.6271 7.10161 4.25238 2.48682 3.28068 1.74938 2.3153 2.83915 0.97725
threshold=0.16688507088196966 -0.095798953829726682 -0.11600066878920783 0.11200480250288776 0.49245804147421685 0.44595353990996739 0.69876959623136403 1.0000000180025095e-35 0.27773826521062178 0.0017343522815765503
decision_type=2 2 2 2 2 2 2 2 2 2
left_child=2 -2 -1 9 6 -6 7 -3 -9 -4
right_child=1 4 3 -5 5 -7 -8 8 -10 -11
leaf_value=0.0017725864424049172 0.025767942537838515 0 -0.0014830647999789202 0 0.023889984177769202 0 0.005903140598890892 0 -0.027080823035164792 -0.029534237443399235
leaf_weight=10.060058906674383 34.317774072289467 15.339561998844145 8.8950283080339414 14.625789389014242 10.449511110782625 18.62229511141777 9.959306135773657 9.4584300369024294 9.6046181917190534 36.217573419213295
leaf_count=47 154 74 45 73 48 86 47 45 45 183
internal_value=0 0.00993744 -0.0163419 -0.0209133 0.00125556 0.0093834 -0.00203567 -0.00699349 -0.0146921 -0.0260468
internal_weight=177.55 107.751 69.7985 59.7384 73.4337 29.0718 44.3619 34.4026 19.063 45.1126
internal_count=847 499 348 301 345 134 211 164 90 228
is_linear=0
shrinkage=0.032603


Tree=8
num_leaves=11
num_cat=0
split_feature=1 1 3 2 8 8 3 2 0 0
split_gain=39.4426 10.0512 6.19752 4.46613 3.49187 7.84316 4.48538 1.85388 1.49954 0.265871
threshold=-0.11423692631808514 0.077538560705348564 0.32193799433026477 -0.12178455475205793 -2672619811.5369182 -4566803196.308218 -0.26984488447926913 -0.091669761007336287 31922098125.500004 29029197815.500004
decision_type=2 2 2 2 2 2 2 2 2 2
left_child=7 2 3 -2 5 -3 -6 -1 -8 -5
right_child=1 4 -4 9 6 -7 8 -9 -10 -11
leaf_value=0.042628744703364981 0 0.0048321082018117009 0 -0.026915623956897422 0.022559566365511236 -0.027760382205537521 -0.0063595893533181453 0.0076396193932396998 0.0086342228473561024 -0.0020120091825371242
leaf_weight=19.200531095266346 12.242475807666777 12.229339987039568 11.438477322459219 41.745397999882698 13.525773152709005 12.236333087086676 16.81324236094952 9.8124132007360441 11.993997588753698 8.9599042534828168
leaf_count=84 57 59 54 211 63 59 80 44 58 45
internal_value=0 -0.00757422 -0.0158736 -0.02005 0.000321115 -0.00784175 0.00720015 0.0340395 0 -0.0243319
internal_weight=170.198 141.185 74.3863 62.9478 66.7987 24.4657 42.333 29.0129 28.8072 50.7053
internal_count=814 686 367 313 319 118 201 128 138 256
is_linear=0
shrinkage=0.032603


Tree=9
num_leaves=11
num_cat=0
split_feature=1 1 1 6 8 0 10 0 10 1
split_gain=36.8566 9.56044 5.44168 3.76452 4.16363 2.80542 1.05651 0.882919 0.817842 0.762225
threshold=-0.11423692631808514 0.077538560705348564 -0.027771446041346796 0.063961279883879965 -4566803196.308218 12594093762.000002 1.6826424962921014 22015380461.000004 1.0616965086692083 -0.21087459387730073
decision_type=2 2 2 2 2 2 2 2 2 2
left_child=9 2 8 4 -3 6 -5 -4 -2 -1
right_child=1 3 7 5 -6 -7 -8 -9 -10 -11
leaf_value=0.041207699114592072 0.0040829055671386481 0.0019702106118354825 -0.025588044665948908 -0.0076256294410109978 -0.018740475966502024 0.017720009080228846 0.0064641543506608118 -0.0034292675419540339 -0.0070382651042464632 0.010302398916087393
leaf_weight=18.199017181992534 9.7905585467815417 10.308433502912523 36.974569872021675 9.871702507138254 16.650193393230438 17.238596633076668 12.72659584879875 13.074717760086058 14.024339869618414 11.066508471965788
leaf_count=78 47 50 187 47 81 82 59 65 68 50
internal_value=0 -0.00734551 -0.0154858 0.000309069 -0.00749241 0.00788089 0 -0.0216496 0 0.0327523
internal_weight=169.925 140.66 73.8642 66.7955 26.9586 39.8369 22.5983 50.0493 23.8149 29.2655
internal_count=814 686 367 319 131 188 106 252 115 128
is_linear=0
shrinkage=0.032603


Tree=10
num_leaves=12
num_cat=0
split_feature=1 4 1 8 10 8 3 10 1 2 8
split_gain=34.4974 15.184 6.25924 3.88049 4.69269 6.00584 4.72854 1.80971 1.57711 1.57078 0.0769709
threshold=-0.11423692631808514 0.11585736690199151 -0.027771446041346796 4268749203.535285 1.6826424962921014 -4566803196.308218 -0.26984488447926913 3.1881588360408037 -0.0056138624630689494 -0.091669761007336287 -2457228278.5780139
decision_type=2 2 2 2 2 2 2 2 2 2 2
left_child=9 2 -2 4 5 -3 -6 -8 -7 -1 -10
right_child=1 3 -4 -5 6 8 7 -9 10 -11 -12
leaf_value=0.039481632905117713 0 0.0079589647017313716 -0.029228690146488798 0.019945094594687379 0.022709602051890588 0 0.0036139314920328011 -0.013140563973525156 -0.032222544867370126 0.006437667283823445 -0.0092144621385977388
leaf_weight=19.573045045137409 9.1883881241083127 9.7269919365644437 34.867912530899048 9.3066436946392042 11.538394838571547 9.9136268496513313 16.332799717783931 9.719779431819914 9.5854941457509977 9.9162370562553388 20.001640200614936
leaf_count=84 46 47 181 44 53 47 78 47 47 44 96
internal_value=0 -0.00713343 -0.0229435 0 -0.00201751 -0.00936121 0.00517975 0 -0.0159445 0.0315511 -0.0198809
internal_weight=169.671 140.182 44.0563 96.1254 86.8187 49.2278 37.591 26.0526 39.5008 29.4893 29.5871
internal_count=814 686 227 459 415 237 178 125 190 128 143
is_linear=0
shrinkage=0.032603


Tree=11
num_leaves=12
num_cat=0
split_feature=1 4 1 6 11 8 8 6 9 11 1
split_gain=32.286 14.4373 6.01919 4.92499 10.5551 4.39783 3.9838 1.68787 1.05458 0.768545 0.607489
threshold=-0.11423692631808514 0.11585736690199151 -0.027771446041346796 0.11494197228613541 0.17469385997403411 -4566803196.308218 568134712.62061584 0.037884724677259653 0.097440207011793914 1.3653971690507591 -0.21087459387730073
decision_type=2 2 2 2 2 2 2 2 2 2 2
left_child=10 2 -2 5 -5 -3 -6 -7 -4 -8 -1
right_child=1 3 8 4 6 7 9 -9 -10 -11 -12
leaf_value=0.038270016392017173 0 0.0014701899092297416 -0.034369180950592826 0.030424237381841527 0.01239486948668277 -0.021342307971406922 -0.014444401793367081 0 -0.0046725674878946941 0 0.0090092323916803954
leaf_weight=18.503218293190006 9.1883881241083127 15.803095832467077 24.665676787495613 14.703714191913603 12.021763756871222 19.848839476704601 15.060557499527933 9.1663911789655668 9.7133728712797147 9.4800591170787794 11.195095136761664
leaf_count=78 46 76 131 69 56 97 72 44 50 45 50
internal_value=0 -0.00691701 -0.0224456 0 0.00704077 -0.00772543 0 -0.0158422 -0.0286873 -0.00977481 0.030413
internal_weight=169.35 139.652 43.5674 96.0844 51.2661 44.8183 36.5624 29.0152 34.379 24.5406 29.6983
internal_count=814 686 227 459 242 217 173 141 181 117 128
is_linear=0
shrinkage=0.032603


Tree=12
num_leaves=12
num_cat=0
split_feature=1 4 10 11 6 1 4 2 6 11 1
split_gain=37.1618 15.543 5.60652 3.34032 3.18463 3.23013 3.0921 2.46378 1.49623 0.202594 0.148763
threshold=-0.21087459387730073 0.096679559634501713 1.4805181407039181 0.129024243208779 0.097229216605589766 0.13548300669769492 0.28355331206051754 0.27389844734595165 2.4546748201425812 0.038952499103140407 -0.022279615681563697
decision_type=2 2 2 2 2 2 2 2 2 2 2
left_child=-1 10 3 4 5 -3 9 -8 -5 -4 -2
right_child=1 2 6 8 -6 -7 7 -9 -10 -11 -12
leaf_value=0.046229681836833195 -0.0013146485916426141 0 -0.0032984617283691878 -0.021121480832317074 0.013445260256363924 -0.018220723695733507 0.025384438704222953 0 0 0.0027418304974179191 -0.0256253913721434
leaf_weight=16.526234790682793 8.8535168617963773 15.755029290914537 9.7993475347757357 15.350319415330889 13.374540627002714 12.989876657724379 15.486591815948488 12.970725819468496 9.1470087319612485 14.042528554797171 30.999791905283928
leaf_count=69 45 75 48 74 62 64 71 60 44 68 166
internal_value=0 -0.00489857 0.000269319 -0.00516796 0 -0.00569002 0.00893002 0.0161542 -0.0147049 0 -0.0225355
internal_weight=175.296 158.769 118.916 66.6168 42.1194 28.7449 52.2992 28.4573 24.4973 23.8419 39.8533
internal_count=846 777 566 319 201 139 247 131 118 116 211
is_linear=0
shrinkage=0.032603


Tree=13
num_leaves=11
num_cat=0
split_feature=1 4 10 4 7 9 9 1 4 0
split_gain=34.5268 14.8565 5.2667 2.90132 2.86359 2.44114 5.17619 2.83203 0.682951 0.0897338
threshold=-0.21087459387730073 0.096679559634501713 1.4805181407039181 0.28355331206051754 0.15195660673594502 0.084845589947952757 0.0056607500459868506 0.13965511999853689 0.76141934391805188 9674894315.5000019
decision_type=2 2 2 2 2 2 2 2 2 2
left_child=-1 4 5 9 -2 6 -3 -7 -5 -4
right_child=1 2 3 8 -6 7 -8 -9 -10 -11
leaf_value=0.044342578423559938 -0.028784566386242615 0.0016147192890956102 -0.0017751529578751103 0.020349412871088095 -0.00048789625072483307 0.014168379332989828 -0.019187396916205315 -0.0058570561841940968 0 0.0021676734004975381
leaf_weight=16.672605127096176 26.86751201748848 10.79479895532131 11.634447962045671 18.551992982625965 12.58085076510906 11.785562545061113 26.259879648685455 17.606637001037598 10.040981531143187 12.209465533494948
leaf_count=69 145 51 57 85 66 56 127 85 46 59
internal_value=0 -0.00475202 0.00026316 0.00865809 -0.0221068 -0.004996 -0.0106944 0 0.0156305 0
internal_weight=175.005 158.332 118.884 52.4369 39.4484 66.4469 37.0547 29.3922 28.593 23.8439
internal_count=846 777 566 247 211 319 178 141 131 116
is_linear=0
shrinkage=0.032603


Tree=14
num_leaves=13
num_cat=0
split_feature=1 4 10 4 7 2 8 6 6 10 6 2
split_gain=32.1023 14.2193 4.93352 2.72502 2.68171 2.23583 1.98259 5.15542 4.57539 1.34889 0.0803337 0.0185584
threshold=-0.21087459387730073 0.096679559634501713 1.4805181407039181 0.28355331206051754 0.15195660673594502 0.27389844734595165 -4347079208.6406183 0.093754120051600373 0.29933412787006519 0.80894594503763262 0.016168938298797703 0.10326717919471802
decision_type=2 2 2 2 2 2 2 2 2 2 2 2
left_child=-1 4 6 11 -2 -5 -3 10 -9 -10 -8 -4
right_child=1 2 3 5 -6 -7 7 8 9 -11 -12 -13
leaf_value=0.042589259350363354 -0.028269958297402843 0.0018877932431366278 -0.00044932549013277842 0.023809025101973774 -0.0004723156791425109 0 -0.0024363487307327422 0.018044953579618873 0 -0.017931523167244577 -0.028475537548248071 0.001345644418985784
leaf_weight=16.797944620251656 26.474336341023445 13.463424652814863 14.792429164052011 15.692664936184885 12.577888935804365 13.031517401337622 9.6088301688432711 10.024076163768767 13.036171510815622 9.0869861990213376 11.049397096037863 9.0536221861839277
leaf_count=69 145 64 72 71 66 60 47 47 63 44 54 44
internal_value=0 -0.00459837 0.00027293 0.0083984 -0.0216868 0.0151321 -0.00480329 -0.00823388 0 -0.00832005 -0.0208687 0
internal_weight=174.689 157.891 118.839 52.5702 39.0522 28.7242 66.2689 52.8055 32.1472 22.1232 20.6582 23.8461
internal_count=846 777 566 247 211 131 319 255 154 107 101 116
is_linear=0
shrinkage=0.032603


Tree=15
num_leaves=12
num_cat=0
split_feature=1 2 2 1 2 3 2 6 7 1 2
split_gain=29.9157 6.21816 12.4084 3.90224 1.88492 2.26143 2.0025 1.70399 1.40539 0.683515 0.0214371
threshold=-0.20500812337263977 -0.095798953829726682 0.1629846530082539 0.16056111601373049 0.25951504328497194 0.32193799433026477 0.74595745069500885 2.0174214283079812 0.2550821266955029 -0.026443275407030047 -0.21093004732844048
decision_type=2 2 2 2 2 2 2 2 2 2 2
left_child=-1 8 3 7 -4 -6 -7 9 10 -3 -2
right_child=1 2 4 -5 5 6 -8 -9 -10 -11 -12
leaf_value=0.039198011403971798 0.0015054640187802664 -0.0032208469622155341 0.013064187480370177 0 -0.011900909833823019 0.013336186475534932 0 0 0.015494945236821505 -0.026426693698441705 0
leaf_weight=18.303295001387596 9.8819306790828723 11.449010789394377 12.789739072322844 10.3114797770977 13.966403737664221 14.052516877651216 13.564263164997099 8.4925684034824354 12.067316025495527 40.097121864557266 9.4214045554399508
leaf_count=75 45 57 63 50 67 66 64 44 54 216 45
internal_value=0 -0.00467267 -0.00828684 -0.0174839 0.00195584 0 0.00380031 -0.0206622 0.00676775 -0.0230663 0
internal_weight=174.397 156.094 124.723 70.3502 54.3729 41.5832 27.6168 60.0387 31.3707 51.5461 19.3033
internal_count=846 771 627 367 260 197 130 317 144 273 90
is_linear=0
shrinkage=0.032603


Tree=16
num_leaves=12
num_cat=0
split_feature=2 2 1 6 10 6 4 4 6 4 0
split_gain=24.786 11.2449 7.80011 5.13922 5.77484 3.4848 2.87269 1.99504 1.84885 1.03972 2.49808
threshold=-0.10389567407008449 0.15497194882458379 -0.17649727824737158 0.458677285657836 1.6603995875518274 1.6704317502807948 0.54803439235462637 0.26181079999482465 0.06109813476433601 0.29032101153213913 46185197139.000008
decision_type=2 2 2 2 2 2 2 2 2 2 2
left_child=2 5 -1 4 8 9 -5 -4 -3 10 -2
right_child=1 3 7 6 -6 -7 -8 -9 -10 -11 -12
leaf_value=0.040920339537287409 -0.026585909412149118 -0.0059172164039485555 0 -0.020694473781291627 0.028163601047926531 0 0 0.016085417684830766 0.011827739201793133 0 0
leaf_weight=15.740892782807348 36.561714664101601 15.407629668712618 15.569802820682527 11.090352147817613 12.428481414914129 9.8671073019504529 9.8553138077259046 12.978974774479864 9.9765343815088254 10.775494635105131 8.4872779697179777
leaf_count=64 198 76 73 53 58 50 45 58 47 51 44
internal_value=0 -0.00733753 0.0210156 0.00166416 0.0100757 -0.0167592 -0.00915439 0.00668127 0 -0.0199126 -0.0227032
internal_weight=168.74 124.45 44.2897 58.7583 37.8126 65.6916 20.9457 28.5488 25.3842 55.8245 45.049
internal_count=817 622 195 279 181 343 98 131 123 293 242
is_linear=0
shrinkage=0.032603


Tree=17
num_leaves=10
num_cat=0
split_feature=2 2 0 10 0 2 8 2 0
split_gain=23.3112 10.9634 5.89662 5.64711 4.1749 2.33819 1.86439 1.48908 1.3753
threshold=-0.1007833809100336 0.11079550865566397 11575411242.500002 1.6603995875518274 18243771211.500004 -0.29386394370963081 -2880911148.0780139 0.31635373350381329 3257000000.0000005
decision_type=2 2 2 2 2 2 2 2 2
left_child=4 8 7 6 5 -1 -4 -3 -2
right_child=1 2 3 -5 -6 -7 -8 -9 -10
leaf_value=0.039614011391968233 0 -0.021333138891925389 -0.0066992168779021642 0.028734888832064237 0 0.010445337513567179 0.009169343909484786 0 -0.020228496330929682
leaf_weight=14.600717648863787 9.085976764559744 9.2498897910118121 14.016343861818314 11.429245665669439 11.548053830862044 18.894500598311428 15.825062438845634 16.192148804664612 47.58242093026638
leaf_count=61 47 46 69 53 52 85 76 75 253
internal_value=0 -0.00721914 0.000454973 0.00928981 0.0201397 0.0260105 0 -0.0102768 -0.0178343
internal_weight=168.424 123.381 66.7127 41.2707 45.0433 33.4952 29.8414 25.442 56.6684
internal_count=817 619 319 198 198 146 145 121 300
is_linear=0
shrinkage=0.032603


Tree=18
num_leaves=11
num_cat=0
split_feature=1 4 8 6 11 8 6 3 4 3
split_gain=19.7881 10.8879 4.77836 3.40499 2.84815 2.69186 4.86671 2.32772 1.85902 0.256708
threshold=-0.11423692631808514 0.26715173206766624 -3368140380.7814236 2.5187348246898797 0.94463301605269023 1888757469.6774802 0.031989048168776658 0.070549245705648259 0.48507805249772601 -0.0027397845667279496
decision_type=2 2 2 2 2 2 2 2 2 2
left_child=7 3 -3 5 8 6 9 -1 -4 -2
right_child=1 2 4 -5 -6 -7 -8 -9 -10 -11
leaf_value=0.032479630291802029 0 -0.0073928525375372405 0.029964896866909282 0 0 0 -0.026079323207441156 0.004873275349973033 0.00038065790409448343 -0.0054344964572500083
leaf_weight=17.938284784555435 11.214109629392626 15.639291763305662 11.356236740946771 8.8582530319690687 15.872724950313566 10.237221941351889 38.123240604996681 15.494951531291006 11.720308303833006 11.702385887503622
leaf_count=75 58 75 53 45 73 52 203 66 55 62
internal_value=0 -0.00546645 0.0045515 -0.0134232 0.0116936 -0.0159115 -0.0185004 0.0224935 0.018982 -0.00183599
internal_weight=168.157 134.724 54.5886 80.1352 38.9493 71.277 61.0397 33.4332 23.0765 22.9165
internal_count=817 676 256 420 181 375 323 141 108 120
is_linear=0
shrinkage=0.032603


Tree=19
num_leaves=11
num_cat=0
split_feature=2 2 0 10 0 4 4 2 8 11
split_gain=21.1016 10.15 5.57895 5.22786 3.7852 2.26351 2.16896 1.83434 1.65749 0.685675
threshold=-0.1007833809100336 0.11079550865566397 11575411242.500002 1.6603995875518274 18243771211.500004 0.29032101153213913 0.6467101002393062 -0.29386394370963081 -2880911148.0780139 0.53945660574068344
decision_type=2 2 2 2 2 2 2 2 2 2
left_child=4 5 6 8 7 9 -3 -1 -4 -2
right_child=1 2 3 -5 -6 -7 -8 -9 -10 -11
leaf_value=0.037293762343305378 -0.023578017533814603 -0.017482290247886223 -0.0062500786099575168 0.027643164764545768 0 0 0 0.0098810309335485135 0.0086798834542061321 0
leaf_weight=14.724188342690463 35.314814552664757 15.737867027521135 13.922222658991814 11.529913917183874 11.551244631409643 12.027772948145865 9.590651407837866 18.972339585423473 15.905073001980782 8.5511968284845334
leaf_count=61 197 77 69 53 52 57 44 85 76 46
internal_value=0 -0.00688336 0.000422499 0.00902828 0.0191255 -0.0172034 -0.0100137 0.0246848 0 -0.0207708
internal_weight=167.827 122.58 66.6857 41.3572 45.2478 55.8938 25.3285 33.6965 29.8273 43.866
internal_count=817 619 319 198 198 300 121 146 145 243
is_linear=0
shrinkage=0.032603


Tree=20
num_leaves=10
num_cat=0
split_feature=2 2 7 9 11 11 4 6 2
split_gain=25.2016 11.3066 3.87321 4.72541 3.24874 4.10878 2.88908 1.81611 0.0777126
threshold=-0.1007833809100336 0.16968334980180988 -0.32975264793654285 0.11200480250288776 0.040388810487728154 1.3361531682774073 0.38750207891868232 0.030644339502932404 -0.20785671683107951
decision_type=2 2 2 2 2 2 2 2 2
left_child=8 2 -2 -4 7 6 -6 -3 -1
right_child=1 4 3 -5 5 -7 -8 -9 -10
leaf_value=0.025339614139773651 0 0 -0.024580747348622738 0 0 0.012017684377057435 -0.023411031950290113 0.023185954754256867 0.006247084778943768
leaf_weight=31.38702529668808 11.996340066194533 10.493987798690798 44.127606570720673 13.306417331099508 13.600999861955644 10.623847112059591 10.652544632554052 10.475773483514784 15.45063568651676
leaf_count=133 61 51 240 71 66 48 50 48 71
internal_value=0.00017156 -0.006917 -0.0159137 -0.0194281 0.00265199 -0.00123569 -0.0108242 0.0133956 0.0210303
internal_weight=172.115 125.278 69.4304 57.434 55.8472 34.8774 24.2535 20.9698 46.8377
internal_count=839 635 372 311 263 164 116 99 204
is_linear=0
shrinkage=0.032603


Tree=21
num_leaves=10
num_cat=0
split_feature=2 2 1 1 11 11 4 9 1
split_gain=23.6199 10.749 6.36018 5.50009 3.04935 3.86695 2.7365 1.40547 0.913554
threshold=-0.1007833809100336 0.16968334980180988 -0.16726573278209403 -0.039419568370570542 0.040388810487728154 1.3361531682774073 0.38750207891868232 0.11200480250288776 0.0080119311252600505
decision_type=2 2 2 2 2 2 2 2 2
left_child=2 3 -1 -2 -3 6 -6 -5 -4
right_child=1 4 8 7 5 -7 -8 -9 -10
leaf_value=0.037610739940783441 0 0.012968675805728516 0 -0.024030023316479313 0 0.01158812205916479 -0.022861307567066683 -0.0014196520253034236 0.015028857564646482
leaf_weight=17.370248839259148 14.552267700433729 21.052671939134598 19.068635717034343 41.336583614349365 13.600999861955644 10.664152354001997 10.558739796280859 13.000373736023901 10.574608981609343
leaf_count=70 71 99 87 231 66 48 50 70 47
internal_value=0.000183419 -0.00669623 0.0203343 -0.0155295 0.00257877 -0.00112544 -0.0105332 -0.0203175 0.00698874
internal_weight=171.779 124.766 47.0135 68.8892 55.8766 34.8239 24.1597 54.337 29.6432
internal_count=839 635 204 372 263 164 116 301 134
is_linear=0
shrinkage=0.032603


Tree=22
num_leaves=11
num_cat=0
split_feature=2 2 6 9 10 10 10 9 10 10
split_gain=22.2662 10.2184 2.58933 2.12826 1.62051 1.23933 1.52817 1.06558 0.030987 3.73278
threshold=-0.1007833809100336 0.16968334980180988 0.014148576824107402 0.11200480250288776 1.8212470756928687 0.91471257702579523 0.31545128449177434 0.042149150642861406 0.51734412333190971 1.1853623303485661
decision_type=2 2 2 2 2 2 2 2 2 2
left_child=8 2 -2 -4 5 6 -3 -6 -1 -10
right_child=1 4 3 -5 7 -7 -8 -9 9 -11
leaf_value=0.031888739288632818 0 -0.00035267461904771877 -0.022086648568900032 0 0 -0.0094785315448557422 0.011668384573663643 0.016964190748973384 0 0.019730409757236455
leaf_weight=12.649939000606535 11.378517746925352 9.6380202919244784 42.442068263888359 14.538889348506926 9.6240809857845324 12.925696611404417 12.782405838370321 10.95315934717655 10.524886354804037 23.918330743908882
leaf_count=54 62 46 233 77 44 62 61 50 46 104
internal_value=0.000190527 -0.00649998 -0.0151711 -0.018004 0.00248528 0 0.0024948 0.00998571 0.0197391 0.012502
internal_weight=171.376 124.283 68.3595 56.981 55.9234 35.3461 22.4204 20.5772 47.0932 34.4432
internal_count=839 635 372 310 263 169 107 94 204 150
is_linear=0
shrinkage=0.032603


Tree=23
num_leaves=11
num_cat=0
split_feature=1 4 0 2 4 8 2 1 2 1
split_gain=21.6526 7.98707 9.06709 3.6053 2.35706 1.84457 2.0843 0.448726 0.2186 0.129182
threshold=-0.088067234105779033 0.26715173206766624 45487698107.000008 -0.060886025779732844 0.18454714963996635 -2880911148.0780139 0.043001361026096453 -0.16726573278209403 0.50884296969930187 0.19108895541839518
decision_type=2 2 2 2 2 2 2 2 2 2
left_child=3 2 4 7 -2 9 -7 -1 -8 -3
right_child=1 5 -4 -5 -6 6 8 -9 -10 -11
leaf_value=0.035080237771107754 -0.023030923528856637 -0.0053405470942195611 0.0042697295349451618 0.00026695939924783444 0 0.019702376852282447 -0.00078577532004682222 0.0066259154101366621 0.0040937884712066623 0
leaf_weight=17.892823025584221 46.417795240879059 10.050698772072794 16.082392558455467 14.661930963397024 12.070568591356276 10.854803353548048 9.6111941635608691 10.380836844444277 13.33231285214424 9.7957849204540235
leaf_count=72 263 48 83 65 59 49 45 46 62 47
internal_value=0.000161184 -0.00600778 -0.0131198 0.0206523 -0.0194568 0.00219167 0.00779658 0.0279472 0 -0.00277589
internal_weight=171.151 128.216 74.5708 42.9356 58.4884 53.6448 33.7983 28.2737 22.9435 19.8465
internal_count=839 656 405 183 322 251 156 118 107 95
is_linear=0
shrinkage=0.032603


Tree=24
num_leaves=12
num_cat=0
split_feature=1 0 11 11 8 11 4 10 8 10 4
split_gain=16.7469 4.97527 8.89422 5.69394 4.95923 2.87543 2.56271 4.41695 2.0861 1.26715 1.13076
threshold=-0.18207434631521521 22975230439.000004 1.3653971690507591 0.11381411731828502 664811925.11415541 0.022203642108701103 0.10675105742952191 0.7484452433205997 -2880911148.0780139 2.7718428572508933 0.16954265581797415
decision_type=2 2 2 2 2 2 2 2 2 2 2
left_child=-1 2 3 5 -4 -2 -3 -8 -9 -5 -7
right_child=1 6 4 9 -6 10 7 8 -10 -11 -12
leaf_value=0.028247210124831387 -0.014853225285387827 -0.0023580943163897332 0.025885014768239283 -0.025086167665808626 0 0 0 0 0.02765013672393914 0 0.012279172492799213
leaf_weight=22.861211389303207 11.871161773800848 11.867251962423323 10.743010282516481 29.257808148860931 11.24163895845413 11.442410096526148 16.334046646952629 10.36952793598175 14.721418619155884 8.6901941001415235 10.449098750948904
leaf_count=93 63 66 52 151 55 65 78 50 69 45 50
internal_value=0.00218937 -0.0012711 -0.00628618 -0.0124385 0.0096002 0 0.00582967 0.010371 0.0190511 -0.0212254 0.00425516
internal_weight=169.849 146.988 93.6953 71.7107 21.9846 33.7627 53.2922 41.425 25.0909 37.948 21.8915
internal_count=837 744 481 374 107 178 263 197 119 196 115
is_linear=0
shrinkage=0.032603


Tree=25
num_leaves=11
num_cat=0
split_feature=11 11 4 2 10 11 6 10 4 11
split_gain=8.7089 7.71356 6.78139 6.36772 3.20039 8.42893 4.19491 2.92503 2.64514 0.678807
threshold=3.0430372207321139 0.12608095003938671 0.10675105742952191 -0.19137323948948548 0.7484452433205997 0.036829080156341308 0.027626432242783452 1.4805181407039181 0.56800695086730857 0.036013520419379254
decision_type=2 2 2 2 2 2 2 2 2 2
left_child=1 2 7 -3 9 6 -6 -1 -5 -4
right_child=-2 3 4 8 5 -7 -8 -9 -10 -11
leaf_value=0 0.023855919274229174 0.0080880288659953628 0.0064168807618748963 -0.020806555358542592 -0.0054325854911537776 0.037240649949739607 0.016564724540278936 -0.019017294983619922 0 -0.0031878994625104792
leaf_weight=12.555560290813448 17.396883189678192 9.9490709155797941 14.095182925462725 33.461265996098518 14.713496595621111 14.602496102452276 15.345045998692511 12.291409671306608 12.331901356577871 13.020000532269476
leaf_count=71 78 42 66 179 70 68 71 72 58 62
internal_value=0.00208878 0 0.00513975 -0.0100452 0.0107839 0.016202 0.00280627 -0.00747604 -0.0159874 0
internal_weight=169.762 152.365 96.6232 55.7422 71.7762 44.661 30.0585 24.847 45.7932 27.1152
internal_count=837 759 480 279 337 209 141 143 237 128
is_linear=0
shrinkage=0.032603


Tree=26
num_leaves=11
num_cat=0
split_feature=11 11 4 2 6 10 4 10 10 11
split_gain=8.10025 7.2024 6.32564 6.07731 3.07684 2.7971 2.4975 2.47187 2.22982 0.549496
threshold=3.0430372207321139 0.12608095003938671 0.10675105742952191 -0.19137323948948548 0.12432801476827586 1.4805181407039181 0.56800695086730857 0.90495067609971591 2.8702030336939948 0.036013520419379254
decision_type=2 2 2 2 2 2 2 2 2 2
left_child=1 2 5 -3 7 -1 -5 9 -9 -4
right_child=-2 3 4 6 -6 -7 -8 8 -10 -11
leaf_value=0 0.022946728975508809 0.0078195076002971556 0 -0.020339479999377793 0.023708489014835816 -0.018597453065891369 0 0.017141747073759192 0 -0.0071638348902438439
leaf_weight=12.555560290813448 17.501550257205963 9.9609221518039686 13.496962562203409 33.123263388872147 17.732686087489128 12.165097981691359 12.331901356577871 20.283257573843006 9.2938908338546735 11.215436011552809
leaf_count=71 78 42 64 179 81 72 58 93 45 54
internal_value=0.00202424 0 0.00495221 -0.00974511 0.0103989 -0.0072094 -0.0156109 0.0043133 0.0110621 -0.000114302
internal_weight=169.661 152.159 96.7429 55.4161 72.0222 24.7207 45.4552 54.2895 29.5771 24.7124
internal_count=837 759 480 279 337 143 237 256 138 118
is_linear=0
shrinkage=0.032603


Tree=27
num_leaves=13
num_cat=0
split_feature=1 7 8 7 7 9 1 10 11 11 11 10
split_gain=14.8056 3.78545 5.56173 4.39619 3.43062 3.20636 2.57848 2.53201 1.77617 2.38458 1.19741 0.0589682
threshold=-0.18207434631521521 0.2550821266955029 1762678399.8761106 0.45885369413078231 -0.21911787659782181 0.097440207011793914 -0.0024824390167582995 0.60653186954344773 0.087140915715274422 0.023919668707943854 0.039687218993710756 1.0616965086692083
decision_type=2 2 2 2 2 2 2 2 2 2 2 2
left_child=-1 4 3 -3 8 7 -5 -6 9 -2 -8 -7
right_child=1 2 -4 6 5 11 10 -9 -10 -11 -12 -13
leaf_value=0.026457904194644017 0 0.015278298303272254 0.024632282570942691 0 0 -0.00097806328828235864 0 -0.020504654152063713 -0.0068985850343267971 0.017864078727464049 -0.021467247813450219 0.0024638367968111466
leaf_weight=22.9206652790308 11.40347643196583 12.618194028735159 11.523302823305128 9.2286197841167432 8.2675135284662229 8.2730695456266421 9.2743165343999916 30.316136986017227 12.944071948528288 11.730705484747885 12.19864274561405 8.8225346803665143
leaf_count=93 56 62 53 44 45 45 45 167 63 58 62 44
internal_value=0.00197295 -0.00125946 0.00463972 0 -0.00578099 -0.0109681 -0.00739282 -0.0161649 0 0.00736377 -0.0143032 0
internal_weight=169.521 146.601 54.8431 43.3198 91.7575 55.6793 30.7016 38.5837 36.0783 23.1342 21.473 17.0956
internal_count=837 744 266 213 478 301 151 212 177 114 107 89
is_linear=0
shrinkage=0.032603


Tree=28
num_leaves=11
num_cat=0
split_feature=4 7 7 0 9 10 10 11 11 8
split_gain=7.71454 6.04184 5.23194 4.99413 3.90546 3.27763 3.32537 2.49807 1.65802 1.42956
threshold=0.6467101002393062 -0.19951720656553917 0.2550821266955029 2550562325.0000005 0.015204613710509801 1.8392874171767903 0.61096881116663881 0.12223926432243731 0.023919668707943854 -3032076189.4570098
decision_type=2 2 2 2 2 2 2 2 2 2
left_child=1 7 3 -3 -4 6 -6 8 -1 -2
right_child=9 2 4 -5 5 -7 -8 -9 -10 -11
leaf_value=0 0 0 0.015451351279394482 -0.02125683077488295 0 0.0030987815741162291 -0.02155625319757799 -0.00054251347749952343 0.020500769636368429 0.019794084223343337
leaf_weight=11.141524896025659 10.604432970285417 8.8245716840028745 11.496357247233389 39.023842677474022 10.485217452049257 12.348336189985273 17.612541541457176 9.1478169560432416 13.915043920278547 19.724166184663773
leaf_count=54 49 43 53 214 51 61 87 45 66 88
internal_value=0 -0.00378716 -0.00827253 -0.0160708 0 -0.00579821 -0.0129341 0.00661789 0.0128382 0.0143444
internal_weight=164.324 133.995 99.7909 47.8484 51.9425 40.4461 28.0978 34.2044 25.0566 30.3286
internal_count=811 674 509 257 252 199 138 165 120 137
is_linear=0
shrinkage=0.032603


Tree=29
num_leaves=11
num_cat=0
split_feature=4 7 7 0 9 10 6 6 11 11
split_gain=7.19978 5.61989 4.9857 4.80433 3.61542 3.1119 4.97631 3.07132 2.38808 1.68561
threshold=0.6467101002393062 -0.19951720656553917 0.2550821266955029 2550562325.0000005 0.015204613710509801 1.8392874171767903 0.21436166664026376 0.070936868119004223 0.10358280666609056 0.0261988013924952
decision_type=2 2 2 2 2 2 2 2 2 2
left_child=1 8 3 -3 -4 6 -6 -2 9 -1
right_child=7 2 4 -5 5 -7 -8 -9 -10 -11
leaf_value=0 0 0 0.014893244573757652 -0.020782377865277212 -0.02590667151069689 0.0029955209948183911 0 0.022209036886172807 0 0.021386699436335158
leaf_weight=11.734690368175508 12.042152956128122 8.8245716840028745 11.543950036168097 38.623990565538406 14.324148863554003 12.363212585449217 13.622131511569021 18.396016910672188 10.243687763810156 12.31846112012863
leaf_count=57 56 43 53 214 71 61 67 81 50 58
internal_value=0 -0.00362637 -0.00798969 -0.0156407 0 -0.00554416 -0.0125655 0.0138761 0.00633409 0.0127228
internal_weight=164.037 133.599 99.302 47.4486 51.8534 40.3095 27.9463 30.4382 34.2968 24.0532
internal_count=811 674 509 257 252 199 138 137 165 115
is_linear=0
shrinkage=0.032603


Tree=30
num_leaves=12
num_cat=0
split_feature=1 7 7 10 7 6 9 10 9 9 6
split_gain=24.2619 4.19933 3.91218 3.08133 4.57237 2.71822 1.53559 2.09483 0.906519 0.585952 0.68335
threshold=-0.21087459387730073 0.26372430436160293 -0.21911787659782181 1.6826424962921014 0.64887664359256725 1.9032989190122462 0.030975984800860702 0.61096881116663881 0.12178054119448135 0.0079608461682075023 0.045331482265716205
decision_type=2 2 2 2 2 2 2 2 2 2 2
left_child=-1 2 9 6 -5 8 -3 -8 -4 -2 -11
right_child=1 3 5 4 -6 -7 7 -9 -10 10 -12
leaf_value=0.033817655681585367 0.0054222602513951607 0.0016214166650817055 -0.022909614331703916 0.026137399577734088 0 0 0 -0.015829901102702187 0 -0.0087230664399572284 0
leaf_weight=19.3256476521492 9.4351536184549314 9.2975286990404111 30.229709953069687 11.04086819291115 10.949264422059057 10.371184214949606 10.421933695673944 17.063601315021515 10.034015297889708 13.847137287259104 11.721706837415693
leaf_count=78 46 44 172 54 52 50 51 85 54 69 56
internal_value=0 -0.00491376 -0.00962222 0.000405559 0.0112403 -0.0154345 -0.00362249 -0.00869773 -0.0192557 0 -0.00363638
internal_weight=163.738 144.412 85.6389 58.7732 21.9901 50.6349 36.7831 27.4855 40.2637 35.004 25.5688
internal_count=811 733 447 286 106 276 180 136 226 171 125
is_linear=0
shrinkage=0.032603


Tree=31
num_leaves=12
num_cat=0
split_feature=2 3 7 3 2 0 9 7 9 8 9
split_gain=7.67626 9.03679 2.51446 2.46677 2.2832 2.14967 1.7136 1.1145 0.908676 0.812383 3.19964
threshold=-0.13632098084246788 0.46694132542376465 -0.40551147317897823 -0.12652973079284952 0.77202002683624038 19064035506.000004 0.073547570652904307 0.22849549474163688 0.11200480250288776 -3073867678.6950545 0.060356582804236905
decision_type=2 2 2 2 2 2 2 2 2 2 2
left_child=2 3 -1 6 -3 8 -2 -4 -5 -7 -11
right_child=1 4 7 5 -6 9 -8 -9 -10 10 -12
leaf_value=0.027385845847396104 0.0061983984858007138 0.017492657985853314 0 -0.021552850249093095 0 0 -0.010266324883372733 0.0099554288171460927 0 0 -0.022281397582191935
leaf_weight=11.152747005224226 14.658995389938356 17.210189819335941 12.03406558930874 31.276557087898254 14.574751526117323 11.577307358384134 11.703642338514326 13.732253551483153 8.1863298714160901 8.5702781677246112 8.6665700227022153
leaf_count=47 76 77 53 178 67 61 58 58 46 44 46
internal_value=0 -0.00411666 0.0127336 -0.00966643 0.00951283 -0.0129512 0 0.00273063 -0.0185529 -0.00206376 -0.00752954
internal_weight=163.344 126.425 36.9191 94.6397 31.7849 68.277 26.3626 25.7663 39.4629 28.8142 17.2368
internal_count=811 653 158 509 144 375 134 111 224 151 90
is_linear=0
shrinkage=0.032603


Tree=32
num_leaves=11
num_cat=0
split_feature=4 1 1 9 0 4 2 10 1 0
split_gain=21.1883 6.85279 5.54275 2.91733 2.71584 1.28124 1.12471 0.61099 0.318916 0.00448803
threshold=0.17220988594714223 -0.11423692631808514 -0.052891746316954043 0.05616787831123906 8833347635.0000019 0.26715173206766624 0.58243567426317933 1.5065897494797731 0.11305105917429126 12141448154.500002
decision_type=2 2 2 2 2 2 2 2 2 2
left_child=2 9 -1 4 8 -5 -7 -6 -3 -2
right_child=1 3 -4 5 7 6 -8 -9 -10 -11
leaf_value=0 0.024128620087489658 -0.022238227659628986 -0.023435880860661364 0 -0.0022759138040280903 0.014522558953009282 0 0.0077470975850240601 0 0.0021708643378936304
leaf_weight=11.323130786418913 17.723914772272114 9.090377628803255 47.613725304603577 10.226872637867926 10.218703374266626 20.233183994889259 12.462361887097357 9.752213776111601 9.5459271520376188 10.658671677112578
leaf_count=53 73 44 285 51 50 94 58 44 44 44
internal_value=-0.00244809 0.00537546 -0.0185567 0 -0.00591077 0.00636546 0.00972433 0 -0.0150173 0.0191441
internal_weight=168.849 109.912 58.9369 81.5296 38.6072 42.9224 32.6955 19.9709 18.6363 28.3826
internal_count=840 502 338 385 182 203 152 94 88 117
is_linear=0
shrinkage=0.032603


Tree=33
num_leaves=10
num_cat=0
split_feature=4 1 1 9 0 4 2 10 1
split_gain=20.0165 6.52007 5.33126 2.74934 2.60022 1.21624 1.0292 0.571197 0.250959
threshold=0.17220988594714223 -0.11423692631808514 -0.052891746316954043 0.05616787831123906 8833347635.0000019 0.26715173206766624 0.58243567426317933 1.5065897494797731 0.11305105917429126
decision_type=2 2 2 2 2 2 2 2 2
left_child=2 -2 -1 4 8 -5 -7 -6 -3
right_child=1 3 -4 5 7 6 -8 -9 -10
leaf_value=0 0.018618968359194923 -0.021717839721743477 -0.022980916627610669 0 -0.0022050111786187992 0.013981502337367033 0 0.0074804481556997567 0
leaf_weight=11.323130786418913 28.39822943508625 9.0101794451475161 46.987097710371017 10.226872637867926 10.209110781550409 20.335895761847496 12.462361887097357 9.7762860059738141 9.5459271520376188
leaf_count=53 117 44 285 51 50 94 58 44 44
internal_value=-0.00235736 0.00519626 -0.0181375 0 -0.00579543 0.00612798 0.00940274 0 -0.0147312
internal_weight=168.275 109.965 58.3102 81.5666 38.5415 43.0251 32.7983 19.9854 18.5561
internal_count=840 502 338 385 182 203 152 94 88
is_linear=0
shrinkage=0.032603


Tree=34
num_leaves=12
num_cat=0
split_feature=2 2 3 6 2 7 7 6 9 7 2
split_gain=8.62946 9.45976 4.84555 2.39029 1.64335 1.52844 1.99371 1.97147 1.09101 0.10762 0.00100497
threshold=-0.20785671683107951 0.15497194882458379 -0.17163696416612942 2.0674741533473302 -0.091669761007336287 0.2550821266955029 1.1005210433547024 0.48235067270419679 0.076108749251872207 -0.21911787659782181 -0.06393571918530809
decision_type=2 2 2 2 2 2 2 2 2 2 2
left_child=3 2 10 -1 -4 8 7 -7 -3 -6 -2
right_child=1 5 4 -5 9 6 -8 -9 -10 -11 -12
leaf_value=0.019094763638718953 0 -0.0085799834680066554 0 0 -0.00037013407318224194 0.024886705726692077 0 0 0.0013060817703730834 -0.023457111062391508 0.00034617066454153267
leaf_weight=19.67984759807587 10.241836905479433 15.828911900520326 8.6248731315135938 11.115793734788893 8.7226429134607297 9.6365396678447741 12.109060645103453 12.082385554909704 10.858586564660071 40.077429637312889 8.7421926856040937
leaf_count=83 50 77 41 46 48 44 56 55 52 243 45
internal_value=-0.00228693 -0.00624885 -0.0140588 0.0123162 -0.0187675 0.00211912 0.00739662 0.0134826 -0.00117451 -0.0212113 0
internal_weight=167.72 136.924 76.409 30.7956 57.4249 60.5155 33.828 21.7189 26.6875 48.8001 18.984
internal_count=840 711 427 129 332 284 155 99 129 291 95
is_linear=0
shrinkage=0.032603


Tree=35
num_leaves=11
num_cat=0
split_feature=4 1 1 0 8 10 10 10 8 0
split_gain=18.3861 6.01733 5.02451 1.79787 3.73112 2.49074 2.32676 1.24222 0.534756 0.0863116
threshold=0.17220988594714223 -0.11423692631808514 -0.076851459132027192 8833347635.0000019 -2672619811.5369182 0.80054106001179137 1.5944483455628555 0.86228859456006357 -4927135749.808218 12141448154.500002
decision_type=2 2 2 2 2 2 2 2 2 2
left_child=2 9 -1 6 8 -6 -3 -4 -5 -2
right_child=1 3 7 4 5 -7 -8 -9 -10 -11
leaf_value=0 0.022645087231591199 -0.0147465997332139 -0.0037841626995864129 0 0 0.024074665343577096 0 -0.026300425173134995 -0.006457857267148987 0.0012385854674303834
leaf_weight=8.3921632170677167 17.731731489300731 15.486663326621054 14.246509715914724 9.6057325154542941 10.30621273815632 12.857032775878904 18.843402728438377 34.675687149167061 14.443648234009741 10.683783918619154
leaf_count=38 73 77 83 45 48 58 87 217 70 44
internal_value=-0.00220766 0.00496042 -0.0175222 0 0.00454564 0.0144967 -0.00519723 -0.0216402 -0.00130282 0.0178474
internal_weight=167.273 109.958 57.3144 81.5427 47.2126 23.1632 34.3301 48.9222 24.0494 28.4155
internal_count=840 502 338 385 221 106 164 300 115 117
is_linear=0
shrinkage=0.032603


Tree=36
num_leaves=11
num_cat=0
split_feature=1 9 1 2 10 0 11 1 10 0
split_gain=11.7929 3.71406 3.34627 2.63152 1.55599 1.55194 1.36627 1.25262 1.60086 0.216081
threshold=-0.18207434631521521 0.11014570713981992 0.2606523874855588 -0.12421897492399338 1.3521544316618186 1881586735.0000002 0.012792681925621802 0.23801089469113587 0.95857640481690054 33614345027.000004
decision_type=2 2 2 2 2 2 2 2 2 2
left_child=4 2 3 -2 -1 -5 -7 8 -3 -8
right_child=1 7 -4 5 -6 6 9 -9 -10 -11
leaf_value=0 0 0 0 0 0.029095430654218771 0 -0.022555413609782995 -0.0045169613382096468 0.016127717779896921 -0.0018702879329429278
leaf_weight=10.809932902455332 17.896176353096962 13.988405182957651 16.719040736556053 7.3692931234836569 11.071488782763479 10.070418536663054 37.338708981871605 12.725317835807799 10.494950875639914 11.118357166647909
leaf_count=44 80 74 78 38 45 56 223 60 53 57
internal_value=-0.00226945 -0.00631206 -0.0096815 -0.0124401 0.0188838 -0.0154601 -0.0172373 0.000349127 0.0065966 -0.0197109
internal_weight=159.602 137.721 100.512 83.793 21.8814 65.8968 58.5275 37.2087 24.4834 48.4571
internal_count=808 719 532 454 89 374 336 187 127 280
is_linear=0
shrinkage=0.032603


Tree=37
num_leaves=10
num_cat=0
split_feature=11 6 6 4 0 6 10 7 4
split_gain=7.83744 5.58566 5.60106 5.04768 4.08132 3.8131 2.42908 2.28592 1.97691
threshold=2.7818977277891146 0.022716951813850205 0.077399551396763813 0.10950460345495867 10140970584.000002 1.3761994200327516 0.95857640481690054 0.029129584769213856 0.28633107862185975
decision_type=2 2 2 2 2 2 2 2 2
left_child=1 7 -3 -4 5 -5 -6 8 -1
right_child=-2 2 3 4 6 -7 -8 -9 -10
leaf_value=0 0.017609727107446262 -0.022626461358485415 -0.017724386737678146 -0.019945207768885316 0 0 0.021102697941280869 -0.0021437356901290263 0.020046437839157469
leaf_weight=12.450733304023744 16.800020053982735 27.855999380350113 19.557102158665657 12.957196548581125 13.005057886242868 16.971894681453705 12.743155032396315 14.554549172520636 12.277444213628767
leaf_count=67 74 146 127 65 59 82 57 75 56
internal_value=-0.00218891 -0.00518433 -0.00945383 -0.00332485 0.000136765 -0.00623404 0.0110579 0.00369765 0.0107949
internal_weight=159.173 142.373 103.09 75.2344 55.6773 29.9291 25.7482 39.2827 24.7282
internal_count=808 734 536 390 263 147 116 198 123
is_linear=0
shrinkage=0.032603


Tree=38
num_leaves=12
num_cat=0
split_feature=1 3 2 11 11 3 10 1 0 0 11
split_gain=10.9314 2.45197 2.75761 2.33394 3.72207 2.29416 1.37101 1.16343 2.7454 1.01655 0.437203
threshold=-0.18207434631521521 -0.15716265511911567 0.44518908149627306 0.03277320340262526 0.129024243208779 0.99751543335884063 1.3521544316618186 -0.10511544540559933 19064035506.000004 3074432463.0000005 0.043888109386341058
decision_type=2 2 2 2 2 2 2 2 2 2 2
left_child=6 3 7 -2 -5 -4 -1 -3 -9 -6 -10
right_child=1 2 5 4 9 -7 -8 8 10 -11 -12
leaf_value=0 -0.012358119339782026 0 0.012404337823530474 0.019459381020398795 0.0015623572852710844 -0.0090359665031976826 0.027982384472596891 -0.019103706775145758 0 -0.01039088923240938 -0.0073717869841058914
leaf_weight=10.803253412246706 11.02822086215019 7.3413673341274253 10.215268924832346 12.31040044128895 9.9555083811283129 10.119630739092825 11.049762696027754 39.997118271887302 17.494349211454395 9.6067299544811231 8.8468364477157575
leaf_count=44 53 34 47 57 44 48 45 245 94 47 50
internal_value=-0.00210259 -0.00603491 -0.00898226 0 0.00490296 0 0.0182423 -0.011941 -0.0133011 0 -0.00097861
internal_weight=158.768 136.915 94.0146 42.9009 31.8726 20.3349 21.853 73.6797 66.3383 19.5622 26.3412
internal_count=808 719 518 201 148 95 89 423 389 91 144
is_linear=0
shrinkage=0.032603


Tree=39
num_leaves=12
num_cat=0
split_feature=1 9 3 11 1 10 10 10 10 1 2
split_gain=10.3858 3.44953 4.10063 2.39003 1.70542 1.19714 1.10476 2.51281 2.16606 0.928704 0.719005
threshold=-0.18207434631521521 0.095694635555044857 -0.26984488447926913 0.0078241838059994514 -0.052891746316954043 1.3521544316618186 0.95857640481690054 1.8780632079923463 0.52525150190299985 0.19108895541839518 -0.12178455475205793
decision_type=2 2 2 2 2 2 2 2 2 2 2
left_child=5 2 10 -4 -5 -1 8 -8 -3 -6 -2
right_child=1 6 3 4 9 -7 7 -9 -10 -11 -12
leaf_value=0 -0.0014241753742537161 0.00061175522669117816 0 0 -0.021410380374135618 0.027125054952321839 0.019110728351388755 0 -0.015531044092953358 0 0.0087921240737872126
leaf_weight=10.803253412246706 13.47272001206875 14.107451409101488 8.0174417644739133 12.046301126480101 39.261730670928955 11.033074557781218 9.998091325163843 8.7880823910236341 9.8938154280185682 11.506856381893156 9.3567671030759794
leaf_count=44 59 71 43 58 240 45 51 44 53 55 45
internal_value=-0.00201433 -0.00587197 -0.00944876 -0.013393 -0.0155736 0.0177984 0 0.0074185 -0.00232752 -0.0183161 0
internal_weight=158.286 136.449 93.6618 70.8323 62.8149 21.8363 42.7874 18.7862 24.0013 50.7686 22.8295
internal_count=808 719 500 396 353 89 219 95 124 295 104
is_linear=0
shrinkage=0.032603


Tree=40
num_leaves=12
num_cat=0
split_feature=7 2 1 5 3 9 1 9 9 3 11
split_gain=8.71897 5.31609 5.50589 3.15281 3.00625 1.39773 1.10211 0.956219 3.44819 1.19096 0.228376
threshold=-0.50790669298886926 -0.095798953829726682 0.078709149659638003 1.5000000000000002 0.46694132542376465 0.051015947570421112 0.12185335172098487 0.077418570533608913 0.042764079964784353 -0.033103820223584345 0.076765092204214264
decision_type=2 2 2 2 2 2 2 2 2 2 2
left_child=6 3 4 -2 -3 -5 10 8 -4 -9 -1
right_child=1 2 7 5 -6 -7 -8 9 -10 -11 -12
leaf_value=0.023320671976266191 0.018952147251916799 -0.020097493148582633 -0.0013453335959423454 -0.011465489579315891 0 0.0031326126848036989 0 -0.013708468058016307 0.020690120967252427 0 0
leaf_weight=12.941637784242632 10.590661436319349 44.251555137336254 10.847060918807985 9.9727644920349139 11.475741878151892 15.328037738800047 10.846230968832968 9.9009641408920306 9.2530485540628415 13.674577638506888 9.1059263050556165
leaf_count=59 45 281 55 45 51 67 52 49 46 67 44
internal_value=-0.00111329 -0.00526757 -0.00945148 0.00377715 -0.0162427 0 0.0131499 0 0.00438277 -0.00513841 0.0176082
internal_weight=168.188 135.294 99.4029 35.8915 55.7273 25.3008 32.8938 43.6757 20.1001 23.5755 22.0476
internal_count=861 706 549 157 332 112 155 217 101 116 103
is_linear=0
shrinkage=0.032603


Tree=41
num_leaves=12
num_cat=0
split_feature=7 4 7 3 3 7 9 4 0 9 4
split_gain=8.28065 6.91759 2.80482 2.45792 2.37042 1.92432 1.52373 1.15203 1.77857 0.887889 0.622574
threshold=-0.50790669298886926 0.26715173206766624 0.31141250012389937 0.060530647661222257 -0.26984488447926913 1.493376010872657 0.060356582804236905 0.18167701889073543 47063768740.000008 0.025828220136990352 0.26270439083935726
decision_type=2 2 2 2 2 2 2 2 2 2 2
left_child=9 4 3 -3 -2 6 -4 8 -6 -1 -11
right_child=1 2 5 -5 7 -7 -8 -9 -10 10 -12
leaf_value=0.022137504367673793 0 0 0 -0.015341100213346594 -0.02050541275497909 0 0.02382513410958844 0 0 0.009431522283643707 0
leaf_weight=12.620911270380018 8.9701034277677518 16.228968814015392 14.145098567008974 13.376708433032034 38.887539476156235 11.595806077122687 10.694170400500296 12.702870547771452 8.1801033914089185 8.6595634222030657 11.683976426720617
leaf_count=57 43 75 62 64 251 52 48 64 47 44 54
internal_value=-0.00103769 -0.00511677 0.00121417 -0.00439827 -0.0125123 0.00826884 0.0134854 -0.0149003 -0.0175397 0.012824 0.0024569
internal_weight=167.746 134.781 66.0408 29.6057 68.7406 36.4351 24.8393 59.7705 47.0676 32.9645 20.3435
internal_count=861 706 301 139 405 162 110 362 298 155 98
is_linear=0
shrinkage=0.032603


Tree=42
num_leaves=11
num_cat=0
split_feature=4 9 6 10 7 6 4 9 0 7
split_gain=7.82731 6.60561 5.7557 4.89951 3.10468 2.55448 2.04237 1.9472 1.84035 0.932739
threshold=0.10675105742952191 0.013946856420410152 0.036901430925086257 1.4512680261740127 -0.50790669298886926 0.07330876966204887 0.26715173206766624 0.04726739682863796 3868000000.0000005 -0.056257720743743543
decision_type=2 2 2 2 2 2 2 2 2 2
left_child=2 8 -1 4 -3 -6 -7 -5 -2 -9
right_child=1 3 -4 7 5 6 -8 9 -10 -11
leaf_value=0 0 0.00023382303581533187 -0.023202687593168233 0 -0.023311901031652579 -0.014040384223334543 0.0012258152465935606 0 0.019422461541583214 0.015690595604147119
leaf_weight=10.105463840067385 12.202870190143583 11.658633381128309 25.828664377331734 10.577025800943373 18.173712730407715 11.23050630092621 14.561289072036741 10.522769257426264 24.574099436402321 17.920529916882515
leaf_count=64 55 55 174 50 89 60 67 50 115 82
internal_value=-0.000966175 0.00212929 -0.014773 -0.0015885 -0.00852408 -0.0129076 -0.00195279 0.0059619 0.0141316 0.0110006
internal_weight=167.356 131.421 35.9341 94.6445 55.6241 43.9655 25.7918 39.0203 36.777 28.4433
internal_count=861 623 238 453 271 216 127 182 170 132
is_linear=0
shrinkage=0.032603


Tree=43
num_leaves=12
num_cat=0
split_feature=7 7 9 8 11 2 1 1 9 1 11
split_gain=7.57853 4.85607 3.27407 3.25952 3.44432 3.98556 2.29534 3.0395 2.13056 0.963654 0.243101
threshold=-0.50790669298886926 0.2550821266955029 0.0085780399313397006 -4980070051.808218 1.5271640886692894 -0.11913001478484934 0.11444357218918232 -0.063585212627610341 0.096730101156273368 0.12185335172098487 0.076765092204214264
decision_type=2 2 2 2 2 2 2 2 2 2 2
left_child=9 3 -3 -2 5 -5 7 -4 -8 10 -1
right_child=1 2 6 4 -6 -7 8 -9 -10 -11 -12
leaf_value=0.02187620808574255 0 0.01531828996485329 0 0 0 -0.022506885478775912 0.015382372277399468 -0.01827990942368319 -3.0069008373162325e-06 0 0
leaf_weight=13.041968598961832 11.483640432357786 13.702718287706373 12.740080371499063 9.7217384576797468 8.2820025235414487 38.656993471086025 10.309017062187197 16.832457140088081 12.179952934384344 10.873850703239439 9.135601803660391
leaf_count=59 66 64 55 43 39 234 49 98 58 52 44
internal_value=-0.00089176 -0.00484502 0.000187555 -0.011027 -0.0143919 -0.0178289 -0.00208366 -0.00907809 0.0030825 0.012318 0.0164739
internal_weight=166.96 133.909 65.7642 68.1444 56.6607 48.3787 52.0615 29.5725 22.489 33.0514 22.1776
internal_count=861 706 324 382 316 277 260 153 107 155 103
is_linear=0
shrinkage=0.032603


Tree=44
num_leaves=12
num_cat=0
split_feature=4 7 10 4 4 3 10 11 2 11 9
split_gain=7.14186 4.84441 5.40982 2.94418 5.05319 1.98788 1.83476 1.61552 1.18039 0.614767 0.524684
threshold=0.26715173206766624 -0.19951720656553917 0.39788200070821894 0.47742118549108109 0.65434936450598447 0.023557520173811453 1.8545926205101904 0.0261988013924952 -0.095798953829726682 0.66502328308747083 0.011648552027197752
decision_type=2 2 2 2 2 2 2 2 2 2 2
left_child=1 6 -3 7 -5 -6 -1 -2 -4 -9 -10
right_child=3 2 8 4 5 -7 -8 9 10 -11 -12
leaf_value=0.012198422327444542 0 0.0041761757652248061 0 -0.018532617869717997 0.015380558160962706 0 -0.0030035448515125809 0.021277245819349633 0 0 -0.022333767586282374
leaf_weight=12.992103010416033 10.798029750585554 8.0504696965217573 10.914356902241705 11.877088770270346 13.972013458609583 16.971111267805099 8.4732931405305845 17.160726532340053 7.0661904811859122 11.953540623188017 35.588491819798946
leaf_count=65 50 44 52 53 62 77 44 77 47 54 228
internal_value=-0.000815109 -0.00801994 -0.0129845 0.00532036 0 0.00629481 0.00200029 0.0116884 -0.0172681 0.0156724 -0.0200867
internal_weight=165.817 83.0849 61.6195 82.7325 42.8202 30.9431 21.4654 39.9123 53.569 29.1143 42.6547
internal_count=853 480 371 373 192 139 109 181 327 131 275
is_linear=0
shrinkage=0.032603


Tree=45
num_leaves=10
num_cat=0
split_feature=1 4 10 7 10 9 0 2 7
split_gain=8.61378 4.17066 3.50386 3.90546 3.15517 2.93674 2.57095 2.45112 2.11659
threshold=-0.20500812337263977 0.26715173206766624 0.51734412333190971 -0.19951720656553917 1.5234931994827203 0.044337333441554251 2796393445.5000005 0.16968334980180988 -0.093908578034030785
decision_type=2 2 2 2 2 2 2 2 2
left_child=8 2 -2 -4 7 -6 -5 -3 -1
right_child=1 4 3 6 5 -7 -8 -9 -10
leaf_value=0.027604776601788786 0 -0.013857687369679949 0 0 0 0.019137043979716752 -0.020685025938670665 0 0
leaf_weight=11.46922115981579 14.375379033386706 16.8379797488451 15.241090893745421 7.3307285830378524 13.423463061451914 15.767301574349402 41.080309703946114 18.163614436984062 11.811246022582052
leaf_count=47 80 80 80 41 61 70 260 86 48
internal_value=-0.000765324 -0.0042993 -0.00948962 -0.0129881 0.000599142 0.00961723 -0.0175231 -0.00433538 0.0168024
internal_weight=165.5 142.22 78.0275 63.6521 64.1924 29.1908 48.411 35.0016 23.2805
internal_count=853 758 461 381 297 131 301 166 95
is_linear=0
shrinkage=0.032603


Tree=46
num_leaves=12
num_cat=0
split_feature=1 1 1 6 7 6 6 10 8 11 1
split_gain=8.12637 2.87711 2.68943 1.92451 1.92258 1.77633 5.94417 1.84331 1.60518 1.64611 0.460421
threshold=-0.20500812337263977 0.11305105917429126 -0.088067234105779033 0.019691854411319053 -0.093908578034030785 0.068817196622609059 0.458677285657836 1.1853623303485661 1358659550.6141806 1.5271640886692894 -0.13776242221007368
decision_type=2 2 2 2 2 2 2 2 2 2 2
left_child=4 2 10 -4 -1 7 -7 -3 9 -5 -2
right_child=1 5 3 8 -6 6 -8 -9 -10 -11 -12
leaf_value=0.026780463721766793 -0.0014540530998232684 -0.014462265060285633 0 -0.01955901441570497 0 0.021955992803346112 -0.0022115435103982647 0 0 0 0.0067816436140774499
leaf_weight=11.442541733384134 10.562994942069055 11.864115521311762 14.617767550051211 36.015938140451908 11.811246022582052 15.511927679181097 18.187983393669128 9.7727692127227765 7.3581609278917304 7.8726617544889441 9.9758207052946073
leaf_count=47 46 62 85 229 48 71 86 48 42 43 46
internal_value=-0.000677116 -0.00413579 -0.00795853 -0.0112396 0.0163814 0.000193835 0.00627125 -0.00505873 -0.0142136 -0.0165677 0
internal_weight=164.994 141.74 86.4033 65.8645 23.2538 55.3368 33.6999 21.6369 51.2468 43.8886 20.5388
internal_count=853 758 491 399 95 267 157 110 314 272 92
is_linear=0
shrinkage=0.032603


Tree=47
num_leaves=11
num_cat=0
split_feature=4 7 0 11 0 0 3 7 0 6
split_gain=6.14908 4.25304 4.48779 2.897 3.99142 5.03868 2.10803 2.10342 2.66365 0.142288
threshold=0.26715173206766624 -0.19951720656553917 24837376167.500004 1.3550184759407617 20627654669.500004 44621534651.500008 0.070549245705648259 1.2520439515605393 1922069536.5000002 0.022878534762465656
decision_type=2 2 2 2 2 2 2 2 2 2
left_child=1 2 -1 4 6 -6 -2 8 -3 -10
right_child=3 7 -4 -5 5 -7 -8 -9 9 -11
leaf_value=-0.0056220365222666357 0 0 0.02214589693415718 0.015919520840982693 0.023547227393759283 0 -0.016168457056993813 0 0 -0.020392039303548586
leaf_weight=12.6107269898057 17.496346265077594 7.9904253631830207 8.8581700772047025 20.133320569992065 14.627120628952982 16.72445872426033 13.727395012974737 9.7291494458913785 8.6950351074337942 34.007490195333958
leaf_count=65 80 43 44 86 66 76 65 52 54 222
internal_value=-0.000636875 -0.00743501 0.00169971 0.00499351 0 0.00950808 -0.00666063 -0.0121836 -0.014859 -0.0181101
internal_weight=164.6 81.891 21.4689 82.7086 62.5753 31.3516 31.2237 60.4221 50.693 42.7025
internal_count=853 480 109 373 287 142 145 371 319 276
is_linear=0
shrinkage=0.032603


Tree=48
num_leaves=13
num_cat=0
split_feature=2 11 0 11 2 7 11 9 9 9 7 9
split_gain=7.17769 9.07996 5.75574 5.89605 4.51139 2.20868 2.48073 3.07813 1.48415 1.6565 0.350855 0.342202
threshold=-0.10853614014748049 2.977439462796573 17921381487.500004 0.48209039885162785 0.1629846530082539 -0.056257720743743543 0.42622196939838813 0.11639119515720667 0.11200480250288776 -0.0065124100134521497 -0.50790669298886926 0.18059324220511233
decision_type=2 2 2 2 2 2 2 2 2 2 2 2
left_child=2 4 3 -1 8 10 7 -7 9 -2 -6 -10
right_child=1 -3 -4 -5 5 6 -8 -9 11 -11 -12 -13
leaf_value=0.037708598494919733 0 0.028875726942513266 0 0 0 0.020095702072792022 -0.0012862955581392479 0 0.0013306625128891411 -0.017982163190457371 -0.011542814080670471 -0.0066171581734222988
leaf_weight=13.782633215188982 9.5896035209298116 8.4685227274894697 13.081492200493811 13.848024249076841 9.9638121575117129 17.97822538018227 9.499953553080557 9.4524147361516935 8.2494739070534724 33.985810898244381 9.4673557132482511 7.7945499718189231
leaf_count=59 60 39 57 60 47 85 45 45 48 220 49 45
internal_value=0.00133115 -0.00193185 0.0135057 0.0220971 -0.00500709 0.000104396 0.00622329 0.0121248 -0.0113532 -0.0145681 -0.00681847 0
internal_weight=165.162 124.45 40.7121 27.6307 115.981 56.3618 36.9306 27.4306 59.6194 43.5754 19.4312 16.044
internal_count=859 683 176 119 644 271 175 130 373 280 96 93
is_linear=0
shrinkage=0.032603


Tree=49
num_leaves=11
num_cat=0
split_feature=1 1 11 7 10 3 11 1 9 9
split_gain=12.0287 5.87197 2.74237 2.08759 1.60222 1.41109 1.12582 0.955008 0.635237 0.445253
threshold=-0.029375427179989744 0.074092798334811069 0.030987414807511254 0.39519298593694258 1.3914487008874261 -0.034829606836944145 0.03378525108281346 -0.085239511076777894 0.099502888540129258 0.097440207011793914
decision_type=2 2 2 2 2 2 2 2 2 2
left_child=2 3 -1 9 5 -3 -6 -4 -7 -2
right_child=1 4 7 -5 6 8 -8 -9 -10 -11
leaf_value=0 -0.023351793776441174 -0.010618777438419571 0.022301425505507438 0 0 -0.0016007041532797802 0.01103770267541144 0.00053371554847308068 0.0083472466639784738 0
leaf_weight=17.344816446304321 20.472070589661602 16.445354983210564 29.287939608097076 11.171112880110739 9.2911344170570391 11.777147710323336 20.561146385967731 12.330045558512209 9.0793936401605588 7.2019598484039298
leaf_count=81 142 84 125 66 44 61 96 67 45 48
internal_value=0.00126194 -0.00467804 0.0134675 -0.0148162 0 -0.00315845 0.00665375 0.0180667 0 -0.0196793
internal_weight=164.962 105.999 58.9628 38.8451 67.1542 37.3019 29.8523 41.618 20.8565 27.674
internal_count=859 586 273 256 330 190 140 192 106 190
is_linear=0
shrinkage=0.032603


Tree=50
num_leaves=13
num_cat=0
split_feature=2 11 0 6 2 7 6 6 0 11 9 7
split_gain=6.48497 9.43147 5.40468 5.81621 4.22322 1.99252 2.85178 3.7173 1.2793 1.52944 2.0675 0.309201
threshold=-0.10853614014748049 3.0430372207321139 17921381487.500004 1.1895896848776164 0.1629846530082539 -0.056257720743743543 0.36726627478220458 0.056530570522569157 27253585169.000004 0.50231135616040101 0.094956022662972803 -0.50790669298886926
decision_type=2 2 2 2 2 2 2 2 2 2 2 2
left_child=2 4 3 -1 8 11 7 -7 9 10 -2 -6
right_child=1 -3 -4 -5 5 6 -8 -9 -10 -11 -12 -13
leaf_value=0.034582701971288175 -0.023796097481186187 0.030085120489009042 0 0 0 0 -0.0018319332172070581 0.025035624787595565 0 0 0 -0.01119267146137215
leaf_weight=15.399170324206354 21.975518405437473 8.2177655249834043 13.077270209789274 12.230265289545057 9.9688763767480868 12.42733094096184 11.761114299297331 12.892989590764044 14.096622705459593 14.454034127295015 8.820780396461485 9.4087491035461408
leaf_count=66 151 37 57 53 47 61 56 58 80 87 57 49
internal_value=0.00120525 -0.0018767 0.0127979 0.0211534 -0.00497355 0 0.00578417 0.0128931 -0.0111186 -0.0138538 -0.0182757 -0.00667704
internal_weight=164.73 124.024 40.7067 27.6294 115.806 56.4591 37.0814 25.3203 59.347 45.2503 30.7963 19.3776
internal_count=859 683 176 119 646 271 175 119 375 295 208 96
is_linear=0
shrinkage=0.032603


Tree=51
num_leaves=12
num_cat=0
split_feature=1 1 6 10 11 4 7 6 1 9 10
split_gain=11.1161 5.46268 2.69494 2.71192 2.52655 2.25629 1.91546 1.53272 0.756766 0.357999 0.0909031
threshold=-0.029375427179989744 0.074092798334811069 0.063961279883879965 1.4106152394311393 0.030987414807511254 0.6376285094525086 0.39519298593694258 0.36726627478220458 -0.085239511076777894 0.097440207011793914 0.55901054331945521
decision_type=2 2 2 2 2 2 2 2 2 2 2
left_child=4 6 3 10 -1 7 9 -4 -6 -2 -3
right_child=1 2 5 -5 8 -7 -8 -9 -10 -11 -12
leaf_value=0 -0.022751782903644453 0 0.007531986403083165 0 0.021225676290249653 0.016507430963231821 0 -0.0081033622244360958 0.00042408147305999415 0 -0.021780763306031986
leaf_weight=17.323635995388031 20.023369736969475 8.3182522207498604 14.616833776235582 9.1476028189063054 29.299485817551613 14.440469384193419 11.170709073543547 11.862248480319975 12.334836125373839 7.2008829265832892 8.8083670139312726
leaf_count=81 142 44 70 44 125 64 66 60 67 48 48
internal_value=0.00111568 -0.00459279 0 -0.00695993 0.0128673 0.00620777 -0.0144362 0 0.0172747 -0.0191754 -0.0155144
internal_weight=164.547 105.589 67.1938 26.2742 58.958 40.9196 38.395 26.4791 41.6343 27.2243 17.1266
internal_count=859 586 330 136 273 194 256 130 192 190 92
is_linear=0
shrinkage=0.032603


Tree=52
num_leaves=14
num_cat=0
split_feature=4 10 4 4 4 0 9 2 8 0 9 9 0
split_gain=7.6806 3.43297 4.01413 3.36966 3.19153 3.03968 3.12476 2.41534 2.03047 0.835642 0.285054 2.36525 0.0908266
threshold=0.27527998446321528 0.50493072792608695 0.14144392207165099 1.2243910936403546 0.11280937155430307 66432450867.000008 -0.032346702441903595 0.034644989796097501 664811925.11415541 11307204148.500002 0.094956022662972803 0.036061179033468907 24837376167.500004
decision_type=2 2 2 2 2 2 2 2 2 2 2 2 2
left_child=1 7 4 5 9 6 -2 -1 -4 -3 11 -8 -11
right_child=3 2 8 -5 -6 -7 10 -9 -10 12 -12 -13 -14
leaf_value=0.01936296717024414 0 -0.012893448966136803 -0.026299872650442681 0 0.014913762101256924 0 0.02190513683649193 0 0 0.0010539485944425163 0.029439899709122311 0 -0.003211144398940997
leaf_weight=8.4196581095457095 11.361367106437681 12.967615760862829 15.378853633999826 15.082030728459356 9.2530364319682104 9.701085612177847 13.19949182868004 8.2321754023432714 10.43392790853977 6.3330490067601195 16.332518845796585 18.715864256024361 8.4899862334132177
leaf_count=46 50 93 78 68 51 44 58 47 53 45 74 85 56
internal_value=0.00239505 -0.00409467 -0.00828962 0.00958514 0 0.0127815 0.0156181 0.00623417 -0.0181903 -0.00680818 0.0192291 0.0110275 0
internal_weight=163.901 79.5083 62.8565 84.3924 37.0437 69.3103 59.6092 16.6518 25.8128 27.7907 48.2479 31.9154 14.823
internal_count=848 469 376 379 245 311 267 93 131 194 217 143 101
is_linear=0
shrinkage=0.032603


Tree=53
num_leaves=11
num_cat=0
split_feature=4 10 7 4 0 5 2 1 7 2
split_gain=7.22108 3.2259 3.98428 3.20911 2.89467 2.39545 2.26445 1.76594 1.47445 1.31692
threshold=0.27527998446321528 0.50493072792608695 -0.21911787659782181 1.2243910936403546 66432450867.000008 1.5000000000000002 0.034644989796097501 0.27218460459816884 0.19604463082739088 0.05026346815524161
decision_type=2 2 2 2 2 2 2 2 2 2
left_child=1 6 -3 4 5 -2 -1 -7 -4 -10
right_child=3 2 8 -5 -6 7 -8 -9 9 -11
leaf_value=0.018590856791278795 0.0002429400810593054 0.0019752859693881121 -0.020426963530399946 0 0 0.025259665927803734 0 7.6602270453565355e-05 0 -0.011797904918995173
leaf_weight=8.4893963187932986 19.491950690746307 15.015139795839785 23.037568889558315 15.082030728459356 9.701085612177847 28.336579293012619 8.2321754023432714 11.947890192270277 13.523367546498777 11.061570949852465
leaf_count=46 85 79 158 68 44 127 47 55 77 62
internal_value=0.00229841 -0.00398462 -0.00808445 0.00926908 0.0123894 0.0151546 0.0058925 0.0200804 -0.0131629 -0.00257214
internal_weight=163.919 79.3592 62.6376 84.5595 69.4775 59.7764 16.7216 40.2845 47.6225 24.5849
internal_count=848 469 376 379 311 267 93 182 297 139
is_linear=0
shrinkage=0.032603


Tree=54
num_leaves=13
num_cat=0
split_feature=4 3 4 7 11 7 4 9 9 3 9 2
split_gain=6.75352 3.75829 3.06316 2.29321 2.94531 2.57103 1.97272 1.95645 1.94957 1.44402 1.01531 0.346
threshold=0.27527998446321528 0.11846742309579987 1.2243910936403546 -0.48497701026793094 0.026526237367305552 0.26372430436160293 0.10828405049961307 0.063475528408675805 0.036061179033468907 -0.043371344498559845 -0.032346702441903595 0.21758632677443512
decision_type=2 2 2 2 2 2 2 2 2 2 2 2
left_child=1 3 7 -1 9 6 -6 8 10 -5 -2 -3
right_child=2 11 -4 4 5 -7 -8 -9 -10 -11 -12 -13
leaf_value=0.017870329515801024 0 -0.021197631209181389 0 -0.023400209112694467 -0.015994691142383201 0.013999878371040499 0 0.018958175366622643 -0.0033196513186323669 0 0.015224541837299732 -0.00027902074572327566
leaf_weight=7.0677179694175711 12.073973193764685 12.121703319251539 15.082030728459356 8.4293176829814893 8.5153570696711558 13.545668117702006 10.51042903959751 32.445334523916245 10.233726903796194 6.7093946337699881 14.870883613824846 12.195576995611189
leaf_count=36 53 75 68 51 69 75 55 147 46 45 65 63
internal_value=0.00223772 -0.00382936 0.00897527 0 -0.0016193 0.00157615 -0.00255777 0.0120255 0.00347064 -0.0144002 0.00942249 -0.0145118
internal_weight=163.801 79.0952 84.7059 54.7779 47.7102 32.5715 19.0258 69.6239 37.1786 15.1387 26.9449 24.3173
internal_count=848 469 379 331 295 199 124 311 164 96 118 138
is_linear=0
shrinkage=0.032603


Tree=55
num_leaves=13
num_cat=0
split_feature=4 2 4 0 9 10 4 4 9 0 9 9
split_gain=6.31344 2.99443 2.90258 2.75462 2.62187 2.29686 2.32954 2.06376 1.49508 0.414729 0.151288 2.17915
threshold=0.27527998446321528 0.043001361026096453 1.2243910936403546 66432450867.000008 -0.032346702441903595 0.51734412333190971 0.13979653147391252 0.060207551688291304 0.11200480250288776 9674894315.5000019 0.094956022662972803 0.036061179033468907
decision_type=2 2 2 2 2 2 2 2 2 2 2 2
left_child=1 5 3 4 -2 -1 7 -7 -3 -9 11 -6
right_child=2 8 -4 -5 10 6 -8 9 -10 -11 -12 -13
leaf_value=0.016157754314059691 0 -0.01559669278333224 0 0 0.020081220164416509 -0.0061879584218555101 -0.013788718546656304 0 0 0.017709314765577498 0.026997942100092407 0
leaf_weight=8.8155107200145704 11.361534744501112 23.9595747590065 15.082030728459356 9.7438569217920286 13.316800639033316 7.8164338544011143 13.10866594314575 8.0189086869358999 9.7660807147622091 7.4001765921711913 16.559724524617195 18.832147404551506
leaf_count=48 50 146 68 44 58 62 66 48 54 45 74 85
internal_value=0.00213139 -0.00372681 0.00864502 0.0116158 0.0143302 0 -0.00161329 0.00140463 -0.0112379 0.0111375 0.0176097 0.00982998
internal_weight=163.781 78.8854 84.8961 69.8141 60.0702 45.1597 36.3442 23.2355 33.7257 15.4191 48.7087 32.1489
internal_count=848 469 379 311 267 269 221 155 200 93 217 143
is_linear=0
shrinkage=0.032603


Tree=56
num_leaves=12
num_cat=0
split_feature=1 1 0 0 10 9 3 10 9 0 9
split_gain=7.65302 4.19634 3.5801 3.24569 3.13672 2.0787 1.9634 1.69499 1.34346 0.528129 0.455443
threshold=-0.025271573521183494 0.18873610519267178 27987389542.000004 18886793296.000004 1.6982054284860055 -0.0031102292885950497 0.090682650822055608 0.60653186954344773 0.11200480250288776 11307204148.500002 0.083912745583571063
decision_type=2 2 2 2 2 2 2 2 2 2 2
left_child=3 2 5 6 7 -2 -1 -3 9 -7 -4
right_child=1 4 10 -5 -6 8 -8 -9 -10 -11 -12
leaf_value=0.021869643632318241 0 0.0059563846683008759 0 0 0.0166374902397688 -0.02707439511691042 0.0012626073899597537 -0.0099369212532874358 0 -0.0018344669943267005 0.0074298566783204418
leaf_weight=29.538495689630508 8.0792266279458982 11.742366001009943 9.9618946835398692 17.207622580230236 14.807963371276854 16.408259078860286 18.386163212358952 13.793473437428473 7.67307174950838 10.344202749431131 8.5976669788360578
leaf_count=138 52 56 58 79 65 106 84 67 47 67 44
internal_value=0.00257373 -0.00229828 -0.00826661 0.0115439 0.00447782 -0.013683 0.0158956 0 -0.0171701 -0.0207814 0
internal_weight=166.54 101.408 61.0643 65.1323 40.3438 42.5048 47.9247 25.5358 34.4255 26.7525 18.5596
internal_count=863 562 374 301 188 272 222 123 220 173 102
is_linear=0
shrinkage=0.032603


Tree=57
num_leaves=13
num_cat=0
split_feature=1 4 8 0 10 10 8 8 1 8 0 0
split_gain=7.29066 4.49642 4.62239 3.90668 3.15514 2.11076 1.92502 1.9347 1.57345 1.55837 0.77234 0.857894
threshold=-0.059469423662573143 0.10828405049961307 -4927135749.808218 18886793296.000004 1.4805181407039181 0.3393996834600494 -3440321603.7811856 182550461.54299 0.13741035303080187 664811925.11415541 7679018500.000001 1922069536.5000002
decision_type=2 2 2 2 2 2 2 2 2 2 2 2
left_child=3 6 -3 10 5 -4 -2 -8 -6 -7 11 -1
right_child=1 2 4 -5 8 9 7 -9 -10 -11 -12 -13
leaf_value=0.013451068647190981 -0.026113027245826176 0.018023774015549152 0 0 0 -0.020382553564568324 0.0048056641881484502 -0.013119211447067776 0.012018464371301968 0 0.02916376339629476 0
leaf_weight=14.578076258301737 9.9438353925943392 15.206723049283026 11.556932821869848 13.369472011923788 14.041188329458238 15.508882060647013 7.4656349942088154 10.835885465145109 17.018905103206635 12.27446488291025 13.649580568075178 10.996648088097571
leaf_count=63 76 76 57 58 70 81 56 78 76 63 59 50
internal_value=0.00248628 -0.00145274 0.00133933 0.0127211 -0.00100554 -0.00813447 -0.013086 -0.000886517 0.00509456 -0.0131826 0.0179486 0.00826052
internal_weight=166.446 113.852 85.6071 52.5938 70.4004 39.3403 28.2454 18.3015 31.0601 27.7833 39.2243 25.5747
internal_count=863 633 423 230 347 201 210 134 146 144 172 113
is_linear=0
shrinkage=0.032603


Tree=58
num_leaves=13
num_cat=0
split_feature=1 4 8 3 10 8 3 3 9 1 9 8
split_gain=6.90516 6.41721 3.78348 3.6395 2.67841 2.93727 1.72072 2.73735 1.34743 0.866548 0.290667 0.214519
threshold=-0.025271573521183494 0.10950460345495867 -4927135749.808218 -0.76605657062336852 1.4805181407039181 1281310683.7005496 0.12848993351147628 0.50897496058784908 0.11200480250288776 -0.17649727824737158 0.042149150642861406 -3270062251.4021897
decision_type=2 2 2 2 2 2 2 2 2 2 2 2
left_child=6 8 -3 -4 5 -5 9 -8 -2 -1 -6 -11
right_child=1 2 3 4 10 -7 7 -9 -10 11 -12 -13
leaf_value=0.025088566167855948 -0.022752258197340534 0.016722842800437624 0.015119947205526264 -0.018761003497746516 0 0 -0.0075930406861135129 0.012878059568762571 0 0 0.005042332214150326 0.008295387625536884
leaf_weight=15.237402930855749 16.50305183231831 14.402487337589262 9.7201430797576887 21.510898075997833 11.129157051444055 9.5323946028947812 11.246367491781713 13.40302564203739 6.2673199996352187 9.5329758301377296 11.979901686310766 15.786458194255829
leaf_count=64 135 71 43 116 55 46 55 56 41 47 55 79
internal_value=0.00241146 -0.00219658 0.00118246 -0.00093112 -0.00553228 -0.0120196 0.0109362 0 -0.0177151 0.0153913 0 0.00584247
internal_weight=166.252 101.045 78.275 63.8725 54.1524 31.0433 65.2062 24.6494 22.7704 40.5568 23.1091 25.3194
internal_count=863 562 386 315 272 162 301 111 176 190 110 126
is_linear=0
shrinkage=0.032603


Tree=59
num_leaves=12
num_cat=0
split_feature=9 9 8 9 4 3 9 8 3 7 3
split_gain=6.0617 4.55529 4.31147 2.94641 2.45591 2.24771 1.37829 0.764771 1.31435 0.487375 0.80297
threshold=-0.0031102292885950497 0.10912819828548247 -1273082476.2015152 0.21069124310025802 0.28355331206051754 -0.0080729511799736472 -0.097640674585275547 664811925.11415541 0.0043183807969035008 -0.19951720656553917 -0.23773582965000808
decision_type=2 2 2 2 2 2 2 2 2 2 2
left_child=2 4 6 5 9 -3 -1 8 -6 -2 -11
right_child=1 3 -4 -5 7 -7 -8 -9 -10 10 -12
leaf_value=-0.0027945214144781592 0 0.023958007392690196 0.028135585869781647 0 0 0 0.011745558940125295 -0.0054962833045810264 0.011501972254883443 0 -0.014633296157551906
leaf_weight=10.656453512609003 10.006038665771483 13.891221538186073 14.919917948544024 15.674767419695852 14.254059448838236 13.025496579706669 9.8345556035637873 13.55420310795307 13.398696348071097 7.5492534041404715 29.151838697493076
leaf_count=53 54 68 67 79 64 67 53 61 61 38 198
internal_value=0.00236234 -0.00021583 0.014386 0.00772361 -0.00510668 0.0144841 0 0 0.00378326 -0.0102317 -0.0121303
internal_weight=165.917 130.506 35.4109 42.5915 87.9141 26.9167 20.491 41.207 27.6528 46.7071 36.7011
internal_count=863 690 173 214 476 135 106 186 125 290 236
is_linear=0
shrinkage=0.032603


Tree=60
num_leaves=11
num_cat=0
split_feature=1 0 4 5 0 0 0 1 0 0
split_gain=10.7312 6.30948 3.56072 3.32512 1.95231 1.84833 1.33558 1.01025 0.801647 0.365265
threshold=-0.088067234105779033 29029197815.500004 0.29206995136944019 1.5000000000000002 7169164500.000001 16133806037.500002 182325882958.50003 0.16056111601373049 2306627500.0000005 1526186822.0000002
decision_type=2 2 2 2 2 2 2 2 2 2
left_child=5 2 3 -2 8 9 7 -3 -4 -1
right_child=1 6 4 -5 -6 -7 -8 -9 -10 -11
leaf_value=0.0021005812396561003 0 0 0 -0.021345625959319617 0.0066856968751732868 0 0 0.014317482082608683 -0.015113868246448663 0.025850537236212928
leaf_weight=10.943203255534174 9.0362301841378194 14.383950442075731 9.8533119857311267 35.621190540492535 13.379688099026678 12.804611891508101 10.353800989687441 15.099069342017172 9.9912028610706312 15.976153969764708
leaf_count=46 58 77 44 240 62 55 53 72 48 69
internal_value=0 -0.00497647 -0.0107317 -0.0168805 0 0.0145853 0.00398996 0.00832769 -0.00856813 0.0196418
internal_weight=157.442 117.718 77.8816 44.6574 33.2242 39.724 39.8368 29.483 19.8445 26.9194
internal_count=824 654 452 298 154 170 202 149 92 115
is_linear=0
shrinkage=0.032603


Tree=61
num_leaves=13
num_cat=0
split_feature=9 10 0 4 2 4 0 10 10 6 10 10
split_gain=4.31849 3.41088 2.64193 2.96426 2.54024 2.03083 1.99519 5.13546 1.41055 1.29355 1.09004 0.936252
threshold=-0.0097030497418110987 2.9821359416115416 29029197815.500004 0.29206995136944019 -0.14193368302454476 0.48507805249772601 66432450867.000008 0.98519365698493644 1.0285319257933503 1.9032989190122462 0.78101796957268743 1.4302273075504981
decision_type=2 2 2 2 2 2 2 2 2 2 2 2
left_child=1 -1 3 4 -2 -5 7 -4 -8 10 -6 -7
right_child=2 -3 6 5 9 11 8 -9 -10 -11 -12 -13
leaf_value=0.019294144940671918 0 0 0.02765652248148388 0.0099660210158402426 0 -0.011920814795066096 -0.010653682819751511 0 0.0025216355320778969 0 -0.02377143862767378 0
leaf_weight=19.545936442911628 10.670830696821211 10.38800775259733 10.073872245848181 14.477515771985052 8.6534304767847079 11.782735303044321 12.779118433594705 11.266880519688128 8.7132371887564641 6.6091252118349066 20.681673586368561 11.407000765204428
leaf_count=92 48 52 49 66 56 55 63 58 44 41 150 50
internal_value=0 0.011108 -0.00262287 -0.00634438 -0.0118322 0 0.00257219 0.0105142 -0.00111879 -0.016004 -0.0189762 -0.00548817
internal_weight=157.049 29.9339 127.115 84.2823 46.6151 37.6673 42.8331 21.3408 21.4924 35.9442 29.3351 23.1897
internal_count=824 144 680 466 295 171 214 107 107 247 206 105
is_linear=0
shrinkage=0.032603


Tree=62
num_leaves=11
num_cat=0
split_feature=9 10 0 11 10 0 10 10 10 10
split_gain=4.01102 3.21133 2.4903 2.90098 2.78883 1.82805 4.79166 1.59087 1.3321 0.497081
threshold=-0.0097030497418110987 2.9821359416115416 29029197815.500004 1.3653971690507591 0.54194171696251037 66432450867.000008 0.98519365698493644 3.0821822968084658 1.0285319257933503 1.3810452230810906
decision_type=2 2 2 2 2 2 2 2 2 2
left_child=1 -1 3 4 -2 6 -4 -6 -7 -5
right_child=2 -3 5 9 7 8 -8 -9 -10 -11
leaf_value=0.018616386515959593 0 0 0.026524131541425716 0 -0.016893564449521354 -0.010352467953663692 0 0 0.0024385200253218909 0.0072261646384772244
leaf_weight=19.602385573089126 14.946073181927202 10.38800775259733 10.167248450219633 9.0638727098703402 38.098485417664051 12.728042125701906 11.266880519688128 11.333068631589411 8.7221753001213056 10.534896075725554
leaf_count=92 80 52 49 44 221 63 58 71 44 50
internal_value=0 0.010679 -0.00254656 -0.00617999 -0.0098531 0.00244343 0.0100464 -0.0136418 -0.000949247 0.00124646
internal_weight=156.851 29.9904 126.861 83.9764 64.3776 42.8843 21.4341 49.4316 21.4502 19.5988
internal_count=824 144 680 466 372 214 107 292 107 94
is_linear=0
shrinkage=0.032603


Tree=63
num_leaves=12
num_cat=0
split_feature=9 8 0 2 0 0 10 10 2 10 7
split_gain=3.71028 4.70755 2.32595 2.23147 2.84709 1.67479 4.47539 1.25731 1.25457 1.70792 0.165472
threshold=-0.0097030497418110987 -3909565905.1643834 29029197815.500004 -0.14193368302454476 1758578948.0000002 66432450867.000008 0.98519365698493644 1.0285319257933503 0.45711120477731809 0.85494833976228735 0.019065139402944152
decision_type=2 2 2 2 2 2 2 2 2 2 2
left_child=1 -1 3 10 -5 6 -4 -7 9 -6 -2
right_child=2 -3 5 4 8 7 -8 -9 -10 -11 -12
leaf_value=0 0 0.020833574807418858 0.025454543343094667 0 0 -0.010059058388374564 0 0.0023582289433563552 0 -0.019912745508693177 0.0041250734892666436
leaf_weight=11.34902696311474 10.132351607084276 18.693548373878002 10.254798762500288 9.2880982607603055 13.783304162323473 12.678083181381227 11.266880519688128 8.7308070138096792 11.385958775877951 28.949376881122589 10.164453580975531
leaf_count=58 45 86 49 47 84 63 58 44 52 194 44
internal_value=0 0.0102662 -0.00244714 -0.00598047 -0.0091919 0.00231932 0.0095988 -0.000784539 -0.0124374 -0.0150606 0
internal_weight=156.677 30.0426 126.634 83.7035 63.4067 42.9306 21.5217 21.4089 54.1186 42.7327 20.2968
internal_count=824 144 680 466 377 214 107 107 330 278 89
is_linear=0
shrinkage=0.032603


Tree=64
num_leaves=11
num_cat=0
split_feature=1 8 4 3 4 8 1 9 11 3
split_gain=10.085 6.10472 3.49954 3.0862 2.84665 1.96794 2.37946 1.55417 0.859305 0.799575
threshold=-0.20500812337263977 -2672619811.5369182 0.56800695086730857 0.46694132542376465 0.13652884308906729 -539088618.28142393 0.012750604393492652 0.062362388594776809 0.057798930365324151 -0.069688314157257986
decision_type=2 2 2 2 2 2 2 2 2 2
left_child=-1 3 5 4 8 -3 9 -8 -2 -7
right_child=1 2 -4 -5 -6 6 7 -9 -10 -11
leaf_value=0.021296829153628145 0.0013576254966597239 0.0088015007098004323 0.013853629673211463 0 -0.022269432143923979 -0.0012207557332729389 0 -0.018155511315134567 -0.010434910484594679 0.008825623974725031
leaf_weight=19.95551909506321 8.6131596267223376 10.660692714154719 19.491091027855873 10.136660426855086 28.548854097723961 9.5747072622180003 13.669296465814115 16.582597754895687 8.0677071437239629 10.552900619804857
leaf_count=84 60 66 86 46 142 50 76 93 57 64
internal_value=0 -0.00341931 0.00133008 -0.0119546 -0.0157186 -0.0012045 -0.00515136 -0.0112794 0 0
internal_weight=155.853 135.898 80.5313 55.3664 45.2297 61.0402 50.3795 30.2519 16.6809 20.1276
internal_count=824 740 435 305 259 349 283 169 117 114
is_linear=0
shrinkage=0.032603


Tree=65
num_leaves=9
num_cat=0
split_feature=1 10 4 0 0 1 7 2
split_gain=9.45628 3.78601 8.3221 2.3839 2.87564 1.54569 1.16567 0.865792
threshold=-0.20500812337263977 1.6826424962921014 0.54803439235462637 91643231916.500015 1758578948.0000002 0.087390235529416757 0.39519298593694258 0.0053492421072249509
decision_type=2 2 2 2 2 2 2 2
left_child=-1 3 6 4 -2 -6 7 -3
right_child=1 2 -4 -5 5 -7 -8 -9
leaf_value=0.020683223933634105 0 0 0.025525592591061276 0 -0.0052949890920738858 -0.022036768326363691 0 -0.012816302226772
leaf_weight=19.883920982480049 7.5064156204462043 13.795750163495542 13.067174330353735 12.578319169580935 35.667519859969616 23.534676738083363 13.864288210868834 15.606148727238176
leaf_count=84 36 80 57 65 210 123 71 98
internal_value=0 -0.00329212 0.00193902 -0.00815445 -0.0108115 -0.0135332 -0.00315484 -0.0075177
internal_weight=155.504 135.62 56.3334 79.2869 66.7086 59.2022 43.2662 29.4019
internal_count=824 740 306 434 369 333 249 178
is_linear=0
shrinkage=0.032603


Tree=66
num_leaves=10
num_cat=0
split_feature=1 10 4 3 3 3 0 7 2
split_gain=8.86218 3.5522 7.7449 4.81709 2.60561 3.16497 2.49736 1.11702 0.811936
threshold=-0.20500812337263977 1.6826424962921014 0.54803439235462637 0.050868069997831451 0.14127506582257829 0.34501913844334159 48925518431.000008 0.39519298593694258 0.0053492421072249509
decision_type=2 2 2 2 2 2 2 2 2
left_child=-1 3 7 6 -5 -6 -2 8 -3
right_child=1 2 -4 4 5 -7 -8 -9 -10
leaf_value=0.020089207315579182 -0.019718189044227358 0 0.024569388904080152 0.017646059526566706 -0.017835902822687977 0.0009234313410281873 0 0 -0.012485365135958904
leaf_weight=19.810730695724487 32.518841229379177 13.795750163495542 13.138598233461378 7.5658403933048239 11.490206196904184 16.70772585272789 10.683183141052721 13.864288210868834 15.50378595292568
leaf_count=84 185 80 57 47 68 80 54 71 98
internal_value=0 -0.00316357 0.00186208 -0.00789722 0 -0.00356312 -0.0152263 -0.00301231 -0.00732327
internal_weight=155.079 135.268 56.3024 78.9658 35.7638 28.1979 43.202 43.1638 29.2995
internal_count=824 740 306 434 195 148 239 249 178
is_linear=0
shrinkage=0.032603


Tree=67
num_leaves=11
num_cat=0
split_feature=6 4 9 9 9 7 2 3 5 6
split_gain=5.48668 5.09738 2.48204 2.03596 1.59234 1.52644 1.35738 1.7151 0.99543 0.96287
threshold=0.84282331044769998 0.18749234763319991 0.024143250495629955 0.05330083950934781 0.068686718349525958 0.33720295845705212 -0.14860042665726272 -0.038245535001898694 1.0000000180025095e-35 0.13674885999992428
decision_type=2 2 2 2 2 2 2 2 2 2
left_child=2 -2 6 -4 -5 -3 -1 -8 -9 -6
right_child=1 5 3 4 9 -7 7 8 -10 -11
leaf_value=0.012185714604576863 -0.0039296547466110034 0.0019849325487800063 -0.020666374587955266 0.0035397626358195169 -0.010164943361946404 0.023620943132925894 -0.014866112483866828 0 0.011403931522102352 0
leaf_weight=9.6467812210321409 12.525897458195685 17.569732889533043 14.298824682831762 11.040375545620916 30.369317620992661 18.884573861956596 7.9251440614461925 8.8344924822449702 8.2288240939378721 15.322361543774603
leaf_count=42 81 82 89 60 158 82 48 48 46 88
internal_value=0 0.00885928 -0.00431901 -0.00803463 -0.00319298 0.0157451 0.000679143 -0.000185863 0.00141358 -0.0068184
internal_weight=154.646 48.9802 105.666 71.0309 56.7321 36.4543 34.6352 24.9885 17.0633 45.6917
internal_count=824 245 579 395 306 164 184 142 94 246
is_linear=0
shrinkage=0.032603


Tree=68
num_leaves=13
num_cat=0
split_feature=4 7 1 8 2 9 4 4 8 2 7 2
split_gain=5.76139 4.83811 2.38527 2.07593 4.50386 3.72847 2.39258 2.4183 2.09816 1.87891 0.737208 0.35815
threshold=0.10190489211640207 0.19604463082739088 -0.17649727824737158 -2672619811.5369182 0.015338328720699151 0.052000786283051707 0.26715173206766624 0.44595353990996739 -4101943916.123889 0.12557373165856631 -0.093908578034030785 -0.13632098084246788
decision_type=2 2 2 2 2 2 2 2 2 2 2 2
left_child=1 -1 10 5 11 9 -6 -8 -7 -4 -2 -5
right_child=2 -3 3 4 6 8 7 -9 -10 -11 -12 -13
leaf_value=-0.022014401745923069 0.022676612739431067 0 -0.0220800557648087 0.002014201543227759 -0.01198527743006962 0.016196507122142111 0.017593521296755184 0 0 0 0 0.024022616136556561
leaf_weight=18.689849451184276 10.294258385896685 9.8062698468565923 12.557558208703997 12.977599054574968 14.170338347554205 9.2339777648448962 9.6928060203790682 17.514090716838837 10.405879601836203 8.7739541381597501 12.388307332992552 11.905478835105894
leaf_count=153 44 65 64 57 80 45 44 80 54 44 52 61
internal_value=0.000658203 -0.0118099 0.00410713 0.00110574 0.0052843 -0.0034259 0 0.00419998 0.00346024 -0.0139903 0.0141847 0.0162823
internal_weight=158.41 28.4961 129.914 107.232 66.2603 40.9714 41.3772 27.2069 19.6399 21.3315 22.6826 24.8831
internal_count=843 218 625 529 322 207 204 124 99 108 96 118
is_linear=0
shrinkage=0.032603


Tree=69
num_leaves=13
num_cat=0
split_feature=4 6 0 6 2 11 7 2 7 3 6 4
split_gain=5.4623 3.30502 10.9618 2.08572 1.76055 3.19497 1.65228 1.04367 0.718122 1.8179 0.403477 0.017891
threshold=0.074602779672597971 0.065729964140002511 12760269830.500002 0.025879041375012703 0.024843513681951455 1.4763963292820963 0.33720295845705212 0.04012699764072656 -0.54216694064809168 -0.004350431920869949 0.040775794670099112 0.31943288880394843
decision_type=2 2 2 2 2 2 2 2 2 2 2 2
left_child=7 3 4 8 6 -6 -3 -1 -2 -10 -5 -4
right_child=1 2 11 10 5 -7 -8 -9 9 -11 -12 -13
leaf_value=-0.02074381112547815 0.0069384914558987976 0 0.010263855317635765 -0.016754650668559887 -0.018525630444886851 0 0.015055588754846892 0 -0.014266011833043808 0.0033953176791796016 0 0.034323313213701058
leaf_weight=12.341778911650183 16.291089549660683 17.360909223556522 16.548530831933025 9.5852059498429316 13.297086901962759 13.90088267624378 10.421232640743254 5.6201395988464347 8.5882671102881449 12.791720554232596 8.9060275927185995 12.474755004048346
leaf_count=100 78 84 83 51 74 65 51 48 44 64 48 53
internal_value=0.000656553 0.0033755 0.00769918 -0.00147402 0 -0.00669414 0.00480309 -0.0153547 0.000879167 0 -0.0111257 0.0238748
internal_weight=158.128 140.166 84.0034 56.1623 54.9801 27.198 27.7821 17.9619 37.6711 21.38 18.4912 29.0233
internal_count=843 695 410 285 274 139 135 148 186 108 99 136
is_linear=0
shrinkage=0.032603


Tree=70
num_leaves=13
num_cat=0
split_feature=4 6 0 6 6 8 3 6 4 6 4 9
split_gain=5.18982 3.1325 10.2784 1.99461 1.42221 1.7075 0.643318 0.965739 0.419585 0.358948 0.257989 0.0957309
threshold=0.074602779672597971 0.065729964140002511 12760269830.500002 0.025879041375012703 0.84282331044769998 568134712.62061584 0.054907880970253758 0.0081172275878828009 0.35150720588524548 0.040775794670099112 0.056129657730972858 0.051015947570421112
decision_type=2 2 2 2 2 2 2 2 2 2 2 2
left_child=10 3 4 6 -3 -6 11 -8 -7 -5 -1 -2
right_child=1 2 -4 9 5 8 7 -9 -10 -11 -12 -13
leaf_value=-0.020022622566172415 -0.0033768991278304334 -0.010935166550362675 0.023114812911109107 -0.016334743267669316 0.010784419362527893 0 0 0.013144081509269771 -0.0059506987658119936 0 0 0
leaf_weight=10.647979237139227 8.7513185590505618 11.275388695299624 29.13796603679657 9.5166363045573252 16.625699356198311 14.452380411326887 10.151462212204935 9.8857959955930692 12.54232235252857 8.9060275927185995 7.1402756720781317 8.8761164471507055
leaf_count=92 43 63 136 51 76 79 50 48 56 48 56 45
internal_value=0.000630385 0.00328698 0.00749851 -0.00140319 0 0.0018063 0.000849665 0.00593198 -0.000394516 -0.0108862 -0.0150417 0
internal_weight=157.909 140.121 84.0338 56.0874 54.8958 43.6204 37.6647 20.0373 26.9947 18.4227 17.7883 17.6274
internal_count=843 695 410 285 274 211 186 98 135 99 148 88
is_linear=0
shrinkage=0.032603


Tree=71
num_leaves=12
num_cat=0
split_feature=4 7 6 0 7 6 4 6 4 7 4
split_gain=4.96854 4.58294 3.11624 11.1169 1.64876 1.59558 1.62422 0.412082 1.21875 1.45193 0.0592318
threshold=0.10190489211640207 0.19604463082739088 0.063961279883879965 13421340500.000002 1.2520439515605393 0.023378974006165953 0.28633107862185975 0.84282331044769998 0.23710364036847054 0.33720295845705212 0.31943288880394843
decision_type=2 2 2 2 2 2 2 2 2 2 2
left_child=1 -1 4 7 5 6 -2 -4 -9 -10 -5
right_child=2 -3 3 10 -6 -7 -8 8 9 -11 -12
leaf_value=-0.021331515915791698 0 0 -0.0062123086761001539 0.0097322228701801437 -0.013829792277976099 -0.0069214831560651009 0.013020515160161414 -0.0047046791291386926 0 0.012996053143768452 0.035695853770593505
leaf_weight=18.176136277616028 12.579886667430403 9.749476306140421 10.548837892711161 14.139213979244234 9.262140825390814 13.510873280465601 16.149103865027428 11.634828440845011 14.781594306230547 15.232238695025442 12.099401310086249
leaf_count=153 64 65 55 66 46 69 75 65 67 67 51
internal_value=0.000549815 -0.0111251 0.0037723 0.00806426 -0.0010018 0 0.00600023 0 0.000761858 0.00592143 0.0253176
internal_weight=157.864 27.9256 129.938 78.4361 51.502 42.2399 28.729 52.1975 41.6487 30.0138 26.2386
internal_count=843 218 625 371 254 208 139 254 199 134 117
is_linear=0
shrinkage=0.032603


Tree=72
num_leaves=12
num_cat=0
split_feature=4 6 6 6 6 6 0 8 9 6 0
split_gain=5.15134 5.42171 4.04598 2.11202 2.35348 1.80355 1.67489 1.8399 2.95795 0.829019 0.173423
threshold=0.11405420619754451 0.034283901039106605 0.12432801476827586 0.29933412787006519 2.7990483240912547 0.84282331044769998 9998705705.0000019 -4566803196.308218 0.073547570652904307 6.35450661955658 3868000000.0000005
decision_type=2 2 2 2 2 2 2 2 2 2 2
left_child=1 -1 6 -4 10 -3 -2 -8 -9 -6 -5
right_child=2 5 3 4 9 -7 7 8 -10 -11 -12
leaf_value=0.0061584131397772286 0.011027780866079299 -0.02387715461305074 0.026627157307855562 -0.0028425989853305893 0.022248261202586363 0 0.0019489569108280562 0 -0.019941719802571065 0 0.0019970782690900538
leaf_weight=8.4790191054344159 8.984599217772482 17.693562425673012 10.888033986091612 15.16257816553116 9.8873941153287905 6.6819090023636809 14.328483730554579 21.125175334513187 14.190450936555861 12.333650529384611 14.980006381869314
leaf_count=60 44 141 49 75 46 48 70 100 69 54 74
internal_value=0.00127121 -0.00926256 0.00486811 0.0106496 0.00551251 -0.018353 0 -0.00365849 -0.00850569 0.013528 0
internal_weight=154.735 32.8545 121.88 63.2517 52.3636 24.3755 58.6287 49.6441 35.3156 22.221 30.1426
internal_count=830 249 581 298 249 189 283 239 169 100 149
is_linear=0
shrinkage=0.032603


Tree=73
num_leaves=10
num_cat=0
split_feature=4 6 11 7 4 4 10 6 4
split_gain=4.86069 5.20475 4.0834 2.98956 4.51209 2.99593 2.1163 1.72104 0.221804
threshold=0.11405420619754451 0.034283901039106605 0.023411470809037254 0.22849549474163688 0.47742118549108109 0.27527998446321528 0.93068228972113876 0.84282331044769998 0.15525453646280243
decision_type=2 2 2 2 2 2 2 2 2
left_child=1 -1 6 4 5 8 -2 -3 -4
right_child=2 7 3 -5 -6 -7 -8 -9 -10
leaf_value=0.0059391500276346973 -0.015077734764434601 -0.023469592575640959 0.0053981821915351936 0.016066170701132407 -0.0095131064900528511 0.019800991457998462 0 0 -0.00083955547245395754
leaf_weight=8.5112123861908895 11.775917731225492 17.421446569263939 7.5660929009318378 37.291733607649803 17.795904338359833 16.456816151738167 16.616347596049309 6.6819090023636809 14.40411678701639
leaf_count=60 57 141 42 171 81 75 80 48 75
internal_value=0.00127797 -0.00896549 0.00477541 0.00842993 0.00171181 0.00929564 -0.00404212 -0.0179957 0
internal_weight=154.521 32.6146 121.907 93.5147 56.2229 38.427 28.3923 24.1034 21.9702
internal_count=830 249 581 444 273 192 137 189 117
is_linear=0
shrinkage=0.032603


Tree=74
num_leaves=13
num_cat=0
split_feature=1 4 11 10 5 4 4 10 11 6 11 1
split_gain=7.1241 2.96774 3.24637 2.3161 1.29583 1.00344 3.44203 1.8443 1.573 2.30596 0.748209 0.714484
threshold=-0.21087459387730073 0.69876959623136403 0.0261988013924952 1.5065897494797731 1.5000000000000002 0.47742118549108109 0.27527998446321528 1.5746878545041232 0.12223926432243731 0.032434600935094211 1.3653971690507591 -0.035667224766897938
decision_type=2 2 2 2 2 2 2 2 2 2 2 2
left_child=-1 2 4 -3 -2 6 8 -8 9 -4 11 -10
right_child=1 3 5 -5 -6 -7 7 -9 10 -11 -12 -13
leaf_value=0.019304091774829901 0 0 0.019120027341317881 0.018481690583752867 -0.015747201560768153 -0.010652366511084997 0 0.022727069116052202 0 0 0 -0.015652029095051777
leaf_weight=20.49248793721199 8.6334412246942502 10.911922618746759 6.792342551052573 12.131306201219557 25.420427441596985 8.1720790565013868 9.4865754544734973 10.625271648168562 6.4690886363387134 13.094385363161562 8.8664884492754918 13.272654645144941
leaf_count=88 49 50 41 52 148 38 45 46 35 87 51 100
internal_value=0.00122568 -0.000881465 -0.00369815 0.00865888 -0.012049 0 0.00131962 0.0133529 -0.00182368 0.00217502 -0.00777324 -0.0112811
internal_weight=154.368 133.876 110.833 23.0432 34.0539 76.7789 68.6068 20.1118 48.495 19.8867 28.6082 19.7417
internal_count=830 742 640 102 197 443 405 91 314 128 186 135
is_linear=0
shrinkage=0.032603


Tree=75
num_leaves=12
num_cat=0
split_feature=1 4 4 3 2 4 4 4 4 1 1
split_gain=6.70997 2.78438 2.21954 1.50426 1.98326 1.3923 2.52175 1.1837 2.73497 0.93302 0.748553
threshold=-0.21087459387730073 0.69876959623136403 1.1611239334204302 0.050868069997831451 -0.10853614014748049 0.41667245087111476 0.22907233993649687 0.11280937155430307 0.21400281799854967 -0.073894713107705276 0.012750604393492652
decision_type=2 2 2 2 2 2 2 2 2 2 2
left_child=-1 3 -3 4 9 6 10 -6 -9 -2 -5
right_child=1 2 -4 5 7 -7 -8 8 -10 -11 -12
leaf_value=0.018761577678922812 -0.005565149539482203 0.018389887514712801 0 0.00051281155373274711 -0.019947932250111978 -0.01135816036492119 0.013725627158392784 0.0066536929081146886 -0.01438253137923319 0.0070799163670859002 -0.0077601256126258464
leaf_weight=20.404068365693092 13.605483844876291 11.575243622064592 11.5051312148571 11.720440953969957 15.861590951681135 8.1958656609058362 16.176713302731514 8.8342019021511096 12.10028627514839 11.100758597254751 13.004403717815874
leaf_count=88 59 51 51 81 136 37 76 54 62 53 82
internal_value=0.00116465 -0.00085955 0.0083302 -0.00361179 -0.00702536 0 0.00312232 -0.0118053 -0.00119623 0 -0.000193525
internal_weight=154.084 133.68 23.0804 110.6 61.5023 49.0974 40.9016 36.7961 20.9345 24.7062 24.7248
internal_count=830 742 102 640 364 276 239 252 116 112 163
is_linear=0
shrinkage=0.032603


Tree=76
num_leaves=14
num_cat=0
split_feature=1 4 3 6 4 7 6 6 8 0 8 4 4
split_gain=5.08415 2.48875 2.3883 1.8889 1.09865 2.46916 2.27539 5.13721 2.44588 2.47417 1.48803 0.407924 0.200718
threshold=-0.11423692631808514 0.074602779672597971 0.24164769175771664 0.045920512416010709 0.13652884308906729 0.33720295845705212 0.12432801476827586 0.26967942977958209 -4927135749.808218 35032658806.500008 683124562.45662105 0.10013312114212647 0.43622312896283061
decision_type=2 2 2 2 2 2 2 2 2 2 2 2 2
left_child=2 3 -1 -2 5 11 8 -8 -6 -10 12 -3 -9
right_child=1 4 -4 -5 6 -7 7 10 9 -11 -12 -13 -14
leaf_value=0.018117988341128023 0 -0.0067359779001237375 0 -0.020606986680360196 0 0.021996762263862976 0.024973290624986662 0 -0.022118096243603256 0 -0.0095572226882960545 0.0042693307061857106 0.0055214141391140724
leaf_weight=24.177003681659698 5.4148267582058933 6.730116546154024 11.232483386993406 11.224127747118471 12.908001497387884 7.4957119449973098 9.1869649142026883 8.8046437054872531 14.853259652853014 16.724754750728607 15.822488792240618 6.4349630177021027 10.914090946316717
leaf_count=106 44 51 47 103 64 43 40 48 78 81 78 40 49
internal_value=0.00120693 -0.00121213 0.0123809 -0.0129782 0 0.00721847 -0.000959476 0.00290978 -0.00689121 -0.0121935 -0.000328786 0 0.00250303
internal_weight=161.923 126.514 35.4095 16.639 109.875 20.6608 89.2142 44.7282 44.486 31.578 35.5412 13.1651 19.7187
internal_count=872 719 153 147 572 134 438 215 223 159 175 91 97
is_linear=0
shrinkage=0.032603


Tree=77
num_leaves=14
num_cat=0
split_feature=2 0 7 0 2 7 3 2 2 2 0 1 0
split_gain=5.75007 2.24958 1.89572 2.26146 3.05375 2.24394 1.72554 1.70271 0.871291 0.785969 0.96216 0.535318 0.0804375
threshold=-0.20785671683107951 13862128289.500002 0.26372430436160293 12594093762.000002 0.27771990739647501 0.068463260585685262 0.14591939695548553 0.17939429387135608 0.041805496851859705 -1.0000000180025095e-35 4736693706.500001 0.15346472085891974 14536079415.500002
decision_type=2 2 2 2 2 2 2 2 2 2 2 2 2
left_child=1 -1 5 6 -5 7 -4 8 9 10 -2 -9 -10
right_child=2 -3 3 4 -6 -7 -8 11 12 -11 -12 -13 -14
leaf_value=0.020897294238721931 0 0 0.0018010286255340758 0.018554528325306279 0 -0.021547064772820358 -0.011237212325389247 0.0088173620271433904 -0.020270047986430811 0.0049248772722380856 -0.011280186331186434 0 0
leaf_weight=19.441449120640758 8.1628988310694712 10.014524847269056 11.746743828058245 16.787467323243622 14.254488125443457 8.7129364162683469 15.039983078837393 10.566277325153353 6.3460802882909757 7.3903643861413029 12.989847898483275 13.996068991720675 6.1914819106459618
leaf_count=85 44 44 69 87 65 56 71 53 49 59 82 69 39
